<?xml version="1.0" encoding="UTF-8"?>
<!-- This network was created in GeNIe Academic, which can be used for academic teaching and research purposes only -->
<smile version="1.0" id="Network1" numsamples="10000" discsamples="10000">
	<nodes>
		<cpt id="SuspectGender">
			<state id="Male" />
			<state id="Female" />
			<probabilities>0.825631500742942 0.1743684992570579</probabilities>
		</cpt>
		<cpt id="SuspectAge">
			<state id="Kids" />
			<state id="Teenagers" />
			<state id="Adult20To30" />
			<state id="Adult30To40" />
			<state id="Adult40To50" />
			<state id="Adult50To60" />
			<state id="Adult60To70" />
			<state id="Adult70To80" />
			<state id="Adult80To90" />
			<state id="Adult90To100" />
			<probabilities>0.0002450980392156864 0.06151960784313727 0.1791666666666666 0.478186274509804 0.1816176470588235 0.08357843137254904 0.01495098039215686 0.0002450980392156864 0.0002450980392156864 0.0002450980392156864</probabilities>
		</cpt>
		<cpt id="SuspectOccupation">
			<state id="RepairManufacturingPersonnel" />
			<state id="LegalProfessionals" />
			<state id="HeadsofEnterprises" />
			<state id="Military" />
			<state id="Management" />
			<state id="NewsPublishingCultural" />
			<state id="PublicInstitutionStaff" />
			<state id="StateOrgans" />
			<state id="SocialProductionLifeService" />
			<state id="HeadsofStateOrgans" />
			<state id="HeadsofMassOrganizations" />
			<state id="HeadsofPartyStateOrgans" />
			<state id="Manufacturing" />
			<state id="Student" />
			<state id="Clerical" />
			<state id="EducationCultureSportsEntertainment" />
			<state id="PublicInstitutionWorker" />
			<state id="ProfessionalTechnical" />
			<state id="PublicInstitutionManager" />
			<state id="EducationProfessionals" />
			<state id="AgricultureForestryAnimalHusbandryFisheryWorkers" />
			<state id="Education" />
			<state id="CulturalProfessionals" />
			<state id="TeachingStaff" />
			<state id="Administrative" />
			<parents>SuspectAge SuspectGender</parents>
			<probabilities>0.03999999999999997 0.03999999999999997 0.03999999999999997 0.03999999999999997 0.03999999999999997 0.03999999999999997 0.03999999999999997 0.03999999999999997 0.03999999999999997 0.03999999999999997 0.03999999999999997 0.03999999999999997 0.03999999999999997 0.03999999999999997 0.03999999999999997 0.03999999999999997 0.03999999999999997 0.03999999999999997 0.03999999999999997 0.03999999999999997 0.03999999999999997 0.03999999999999997 0.03999999999999997 0.03999999999999997 0.03999999999999997 0.03999999999999997 0.03999999999999997 0.03999999999999997 0.03999999999999997 0.03999999999999997 0.03999999999999997 0.03999999999999997 0.03999999999999997 0.03999999999999997 0.03999999999999997 0.03999999999999997 0.03999999999999997 0.03999999999999997 0.03999999999999997 0.03999999999999997 0.03999999999999997 0.03999999999999997 0.03999999999999997 0.03999999999999997 0.03999999999999997 0.03999999999999997 0.03999999999999997 0.03999999999999997 0.03999999999999997 0.03999999999999997 0.03999999999999997 0.03999999999999997 0.03999999999999997 0.03999999999999997 0.03999999999999997 0.03999999999999997 0.03999999999999997 0.03999999999999997 0.03999999999999997 0.03999999999999997 0.03999999999999997 0.03999999999999997 0.03999999999999997 0.03999999999999997 0.03999999999999997 0.03999999999999997 0.03999999999999997 0.03999999999999997 0.03999999999999997 0.03999999999999997 0.03999999999999997 0.03999999999999997 0.03999999999999997 0.03999999999999997 0.03999999999999997 0.03999999999999997 0.03999999999999997 0.03999999999999997 0.03999999999999997 0.03999999999999997 0.03999999999999997 0.03999999999999997 0.03999999999999997 0.03999999999999997 0.03999999999999997 0.03999999999999997 0.03999999999999997 0.03999999999999997 0.03999999999999997 0.03999999999999997 0.03999999999999997 0.03999999999999997 0.03999999999999997 0.03999999999999997 0.03999999999999997 0.03999999999999997 0.03999999999999997 0.03999999999999997 0.03999999999999997 0.03999999999999997 0.03999999999999997 0.03999999999999997 0.03999999999999997 0.03999999999999997 0.03999999999999997 0.03999999999999997 0.03999999999999997 0.03999999999999997 0.03999999999999997 0.03999999999999997 0.03999999999999997 0.03999999999999997 0.03999999999999997 0.03999999999999997 0.03999999999999997 0.03999999999999997 0.03999999999999997 0.03999999999999997 0.03999999999999997 0.03999999999999997 0.03999999999999997 0.03999999999999997 0.03999999999999997 0.03999999999999997 0.03999999999999997 0.03999999999999997 0.03999999999999997 0.03999999999999997 0.03999999999999997 0.03999999999999997 0.03999999999999997 0.03999999999999997 0.03999999999999997 0.03999999999999997 0.03999999999999997 0.03999999999999997 0.03999999999999997 0.03999999999999997 0.03999999999999997 0.03999999999999997 0.03999999999999997 0.03999999999999997 0.03999999999999997 0.03999999999999997 0.03999999999999997 0.03999999999999997 0.03999999999999997 0.03999999999999997 0.03999999999999997 0.03999999999999997 0.03999999999999997 0.03999999999999997 0.03999999999999997 0.03999999999999997 0.03999999999999997 0.03999999999999997 0.03999999999999997 0.03999999999999997 0.03999999999999997 0.03999999999999997 0.03999999999999997 0.03999999999999997 0.03999999999999997 0.03999999999999997 0.03999999999999997 0.03999999999999997 0.03999999999999997 0.03999999999999997 0.03999999999999997 0.03999999999999997 0.03999999999999997 0.03999999999999997 0.03999999999999997 0.03999999999999997 0.03999999999999997 0.03999999999999997 0.03999999999999997 0.03999999999999997 0.03999999999999997 0.03999999999999997 0.03999999999999997 0.03999999999999997 0.03999999999999997 0.03999999999999997 0.03999999999999997 0.03999999999999997 0.03999999999999997 0.03999999999999997 0.03999999999999997 0.03999999999999997 0.03999999999999997 0.03999999999999997 0.03999999999999997 0.03999999999999997 0.03999999999999997 0.03999999999999997 0.03999999999999997 0.03999999999999997 0.03999999999999997 0.03999999999999997 0.03999999999999997 0.03999999999999997 0.03999999999999997 0.03999999999999997 0.03999999999999997 0.03999999999999997 0.03999999999999997 0.03999999999999997 0.03999999999999997 0.03999999999999997 0.03999999999999997 0.03999999999999997 0.03999999999999997 0.03999999999999997 0.03999999999999997 0.03999999999999997 0.03999999999999997 0.03999999999999997 0.03999999999999997 0.03999999999999997 0.03999999999999997 0.03999999999999997 0.03999999999999997 0.03999999999999997 0.03999999999999997 0.03999999999999997 0.03999999999999997 0.03999999999999997 0.03999999999999997 0.03999999999999997 0.03999999999999997 0.03999999999999997 0.03999999999999997 0.03999999999999997 0.03999999999999997 0.03999999999999997 0.03999999999999997 0.03999999999999997 0.03999999999999997 0.03999999999999997 0.03999999999999997 0.03999999999999997 0.03999999999999997 0.03999999999999997 0.03999999999999997 0.03999999999999997 0.03999999999999997 0.03999999999999997 0.03999999999999997 0.03999999999999997 0.03999999999999997 0.03999999999999997 0.03999999999999997 0.03999999999999997 0.03999999999999997 0.03999999999999997 0.03999999999999997 0.03999999999999997 0.03999999999999997 0.03999999999999997 0.03999999999999997 0.03999999999999997 0.03999999999999997 0.03999999999999997 0.03999999999999997 0.03999999999999997 0.03999999999999997 0.03999999999999997 0.03999999999999997 0.03999999999999997 0.03999999999999997 0.03999999999999997 0.03999999999999997 0.03999999999999997 0.03999999999999997 0.03999999999999997 0.03999999999999997 0.03999999999999997 0.03999999999999997 0.03999999999999997 0.03999999999999997 0.03999999999999997 0.03999999999999997 0.03999999999999997 0.03999999999999997 0.03999999999999997 0.03999999999999997 0.03999999999999997 0.03999999999999997 0.03999999999999997 0.03999999999999997 0.03999999999999997 0.03999999999999997 0.03999999999999997 0.03999999999999997 0.03999999999999997 0.03999999999999997 0.03999999999999997 0.03999999999999997 0.03999999999999997 0.03999999999999997 0.03999999999999997 0.03999999999999997 0.03999999999999997 0.03999999999999997 0.03999999999999997 0.03999999999999997 0.03999999999999997 0.03999999999999997 0.03999999999999997 0.03999999999999997 0.03999999999999997 0.03999999999999997 0.03999999999999997 0.03999999999999997 0.03999999999999997 0.03999999999999997 0.03999999999999997 0.03999999999999997 0.03999999999999997 0.03999999999999997 0.03999999999999997 0.03999999999999997 0.03999999999999997 0.03999999999999997 0.03999999999999997 0.03999999999999997 0.03999999999999997 0.03999999999999997 0.03999999999999997 0.03999999999999997 0.03999999999999997 0.03999999999999997 0.03999999999999997 0.03999999999999997 0.03999999999999997 0.03999999999999997 0.03999999999999997 0.03999999999999997 0.03999999999999997 0.03999999999999997 0.03999999999999997 0.03999999999999997 0.03999999999999997 0.03999999999999997 0.03999999999999997 0.03999999999999997 0.03999999999999997 0.03999999999999997 0.03999999999999997 0.03999999999999997 0.03999999999999997 0.03999999999999997 0.03999999999999997 0.03999999999999997 0.03999999999999997 0.03999999999999997 0.03999999999999997 0.03999999999999997 0.03999999999999997 0.03999999999999997 0.03999999999999997 0.03999999999999997 0.03999999999999997 0.03999999999999997 0.03999999999999997 0.03999999999999997 0.03999999999999997 0.03999999999999997 0.03999999999999997 0.03999999999999997 0.03999999999999997 0.03999999999999997 0.03999999999999997 0.03999999999999997 0.03999999999999997 0.03999999999999997 0.03999999999999997 0.03999999999999997 0.03999999999999997 0.03999999999999997 0.03999999999999997 0.03999999999999997 0.03999999999999997 0.03999999999999997 0.03999999999999997 0.03999999999999997 0.03999999999999997 0.03999999999999997 0.03999999999999997 0.03999999999999997 0.03999999999999997 0.03999999999999997 0.03999999999999997 0.03999999999999997 0.03999999999999997 0.03999999999999997 0.03999999999999997 0.03999999999999997 0.03999999999999997 0.03999999999999997 0.03999999999999997 0.03999999999999997 0.03999999999999997 0.03999999999999997 0.03999999999999997 0.03999999999999997 0.03999999999999997 0.03999999999999997 0.03999999999999997 0.03999999999999997 0.03999999999999997 0.03999999999999997 0.03999999999999997 0.03999999999999997 0.03999999999999997 0.03999999999999997 0.03999999999999997 0.03999999999999997 0.03999999999999997 0.03999999999999997 0.03999999999999997 0.03999999999999997 0.03999999999999997 0.03999999999999997 0.03999999999999997 0.03999999999999997 0.03999999999999997 0.03999999999999997 0.03999999999999997 0.03999999999999997 0.03999999999999997 0.03999999999999997 0.03999999999999997 0.03999999999999997 0.03999999999999997 0.03999999999999997 0.03999999999999997 0.03999999999999997 0.03999999999999997 0.03999999999999997 0.03999999999999997 0.03999999999999997 0.03999999999999997 0.03999999999999997 0.03999999999999997 0.03999999999999997 0.03999999999999997 0.03999999999999997 0.03999999999999997 0.03999999999999997 0.03999999999999997 0.03999999999999997 0.03999999999999997 0.03999999999999997 0.03999999999999997 0.03999999999999997 0.03999999999999997 0.03999999999999997 0.03999999999999997 0.03999999999999997 0.03999999999999997 0.03999999999999997 0.03999999999999997 0.03999999999999997 0.03999999999999997 0.03999999999999997 0.03999999999999997 0.03999999999999997 0.03999999999999997 0.03999999999999997 0.03999999999999997 0.03999999999999997 0.03999999999999997 0.03999999999999997 0.03999999999999997 0.03999999999999997 0.03999999999999997 0.03999999999999997 0.03999999999999997 0.03999999999999997 0.03999999999999997 0.03999999999999997 0.03999999999999997 0.03999999999999997 0.03999999999999997 0.03999999999999997 0.03999999999999997 0.03999999999999997 0.03999999999999997 0.03999999999999997 0.03999999999999997 0.03999999999999997 0.03999999999999997 0.03999999999999997 0.03999999999999997 0.03999999999999997 0.03999999999999997 0.03999999999999997 0.03999999999999997</probabilities>
		</cpt>
		<cpt id="CommunicationMethod">
			<state id="offlineCommunication" />
			<state id="illegalOnline" />
			<state id="legalOnline" />
			<state id="legalOnlineAbroad" />
			<state id="financialExchange" />
			<state id="traditionalTelephoneCommunication" />
			<parents>SuspectAge SuspectOccupation</parents>
			<probabilities>0.2994304110946013 0.007602773650321943 0.007157008420009906 0.01830113917781079 0.02691926696384349 0.6405894006934126 0.2994304110946013 0.007602773650321943 0.007157008420009906 0.01830113917781079 0.02691926696384349 0.6405894006934126 0.2994304110946013 0.007602773650321943 0.007157008420009906 0.01830113917781079 0.02691926696384349 0.6405894006934126 0.2994304110946013 0.007602773650321943 0.007157008420009906 0.01830113917781079 0.02691926696384349 0.6405894006934126 0.2994304110946013 0.007602773650321943 0.007157008420009906 0.01830113917781079 0.02691926696384349 0.6405894006934126 0.2994304110946013 0.007602773650321943 0.007157008420009906 0.01830113917781079 0.02691926696384349 0.6405894006934126 0.2994304110946013 0.007602773650321943 0.007157008420009906 0.01830113917781079 0.02691926696384349 0.6405894006934126 0.2994304110946013 0.007602773650321943 0.007157008420009906 0.01830113917781079 0.02691926696384349 0.6405894006934126 0.2994304110946013 0.007602773650321943 0.007157008420009906 0.01830113917781079 0.02691926696384349 0.6405894006934126 0.2994304110946013 0.007602773650321943 0.007157008420009906 0.01830113917781079 0.02691926696384349 0.6405894006934126 0.2994304110946013 0.007602773650321943 0.007157008420009906 0.01830113917781079 0.02691926696384349 0.6405894006934126 0.2994304110946013 0.007602773650321943 0.007157008420009906 0.01830113917781079 0.02691926696384349 0.6405894006934126 0.2994304110946013 0.007602773650321943 0.007157008420009906 0.01830113917781079 0.02691926696384349 0.6405894006934126 0.2994304110946013 0.007602773650321943 0.007157008420009906 0.01830113917781079 0.02691926696384349 0.6405894006934126 0.2994304110946013 0.007602773650321943 0.007157008420009906 0.01830113917781079 0.02691926696384349 0.6405894006934126 0.2994304110946013 0.007602773650321943 0.007157008420009906 0.01830113917781079 0.02691926696384349 0.6405894006934126 0.2994304110946013 0.007602773650321943 0.007157008420009906 0.01830113917781079 0.02691926696384349 0.6405894006934126 0.2994304110946013 0.007602773650321943 0.007157008420009906 0.01830113917781079 0.02691926696384349 0.6405894006934126 0.2994304110946013 0.007602773650321943 0.007157008420009906 0.01830113917781079 0.02691926696384349 0.6405894006934126 0.2994304110946013 0.007602773650321943 0.007157008420009906 0.01830113917781079 0.02691926696384349 0.6405894006934126 0.2994304110946013 0.007602773650321943 0.007157008420009906 0.01830113917781079 0.02691926696384349 0.6405894006934126 0.2994304110946013 0.007602773650321943 0.007157008420009906 0.01830113917781079 0.02691926696384349 0.6405894006934126 0.2994304110946013 0.007602773650321943 0.007157008420009906 0.01830113917781079 0.02691926696384349 0.6405894006934126 0.2994304110946013 0.007602773650321943 0.007157008420009906 0.01830113917781079 0.02691926696384349 0.6405894006934126 0.2994304110946013 0.007602773650321943 0.007157008420009906 0.01830113917781079 0.02691926696384349 0.6405894006934126 0.2994304110946013 0.007602773650321943 0.007157008420009906 0.01830113917781079 0.02691926696384349 0.6405894006934126 0.2994304110946013 0.007602773650321943 0.007157008420009906 0.01830113917781079 0.02691926696384349 0.6405894006934126 0.2994304110946013 0.007602773650321943 0.007157008420009906 0.01830113917781079 0.02691926696384349 0.6405894006934126 0.2994304110946013 0.007602773650321943 0.007157008420009906 0.01830113917781079 0.02691926696384349 0.6405894006934126 0.2994304110946013 0.007602773650321943 0.007157008420009906 0.01830113917781079 0.02691926696384349 0.6405894006934126 0.2994304110946013 0.007602773650321943 0.007157008420009906 0.01830113917781079 0.02691926696384349 0.6405894006934126 0.2994304110946013 0.007602773650321943 0.007157008420009906 0.01830113917781079 0.02691926696384349 0.6405894006934126 0.2994304110946013 0.007602773650321943 0.007157008420009906 0.01830113917781079 0.02691926696384349 0.6405894006934126 0.2994304110946013 0.007602773650321943 0.007157008420009906 0.01830113917781079 0.02691926696384349 0.6405894006934126 0.2994304110946013 0.007602773650321943 0.007157008420009906 0.01830113917781079 0.02691926696384349 0.6405894006934126 0.2994304110946013 0.007602773650321943 0.007157008420009906 0.01830113917781079 0.02691926696384349 0.6405894006934126 0.2994304110946013 0.007602773650321943 0.007157008420009906 0.01830113917781079 0.02691926696384349 0.6405894006934126 0.2994304110946013 0.007602773650321943 0.007157008420009906 0.01830113917781079 0.02691926696384349 0.6405894006934126 0.2994304110946013 0.007602773650321943 0.007157008420009906 0.01830113917781079 0.02691926696384349 0.6405894006934126 0.2994304110946013 0.007602773650321943 0.007157008420009906 0.01830113917781079 0.02691926696384349 0.6405894006934126 0.2994304110946013 0.007602773650321943 0.007157008420009906 0.01830113917781079 0.02691926696384349 0.6405894006934126 0.2994304110946013 0.007602773650321943 0.007157008420009906 0.01830113917781079 0.02691926696384349 0.6405894006934126 0.2994304110946013 0.007602773650321943 0.007157008420009906 0.01830113917781079 0.02691926696384349 0.6405894006934126 0.2994304110946013 0.007602773650321943 0.007157008420009906 0.01830113917781079 0.02691926696384349 0.6405894006934126 0.2994304110946013 0.007602773650321943 0.007157008420009906 0.01830113917781079 0.02691926696384349 0.6405894006934126 0.2994304110946013 0.007602773650321943 0.007157008420009906 0.01830113917781079 0.02691926696384349 0.6405894006934126 0.2994304110946013 0.007602773650321943 0.007157008420009906 0.01830113917781079 0.02691926696384349 0.6405894006934126 0.2994304110946013 0.007602773650321943 0.007157008420009906 0.01830113917781079 0.02691926696384349 0.6405894006934126 0.2994304110946013 0.007602773650321943 0.007157008420009906 0.01830113917781079 0.02691926696384349 0.6405894006934126 0.2994304110946013 0.007602773650321943 0.007157008420009906 0.01830113917781079 0.02691926696384349 0.6405894006934126 0.2994304110946013 0.007602773650321943 0.007157008420009906 0.01830113917781079 0.02691926696384349 0.6405894006934126 0.2994304110946013 0.007602773650321943 0.007157008420009906 0.01830113917781079 0.02691926696384349 0.6405894006934126 0.2994304110946013 0.007602773650321943 0.007157008420009906 0.01830113917781079 0.02691926696384349 0.6405894006934126 0.2994304110946013 0.007602773650321943 0.007157008420009906 0.01830113917781079 0.02691926696384349 0.6405894006934126 0.2994304110946013 0.007602773650321943 0.007157008420009906 0.01830113917781079 0.02691926696384349 0.6405894006934126 0.2994304110946013 0.007602773650321943 0.007157008420009906 0.01830113917781079 0.02691926696384349 0.6405894006934126 0.2994304110946013 0.007602773650321943 0.007157008420009906 0.01830113917781079 0.02691926696384349 0.6405894006934126 0.2994304110946013 0.007602773650321943 0.007157008420009906 0.01830113917781079 0.02691926696384349 0.6405894006934126 0.2994304110946013 0.007602773650321943 0.007157008420009906 0.01830113917781079 0.02691926696384349 0.6405894006934126 0.2994304110946013 0.007602773650321943 0.007157008420009906 0.01830113917781079 0.02691926696384349 0.6405894006934126 0.2994304110946013 0.007602773650321943 0.007157008420009906 0.01830113917781079 0.02691926696384349 0.6405894006934126 0.2994304110946013 0.007602773650321943 0.007157008420009906 0.01830113917781079 0.02691926696384349 0.6405894006934126 0.2994304110946013 0.007602773650321943 0.007157008420009906 0.01830113917781079 0.02691926696384349 0.6405894006934126 0.2994304110946013 0.007602773650321943 0.007157008420009906 0.01830113917781079 0.02691926696384349 0.6405894006934126 0.2994304110946013 0.007602773650321943 0.007157008420009906 0.01830113917781079 0.02691926696384349 0.6405894006934126 0.2994304110946013 0.007602773650321943 0.007157008420009906 0.01830113917781079 0.02691926696384349 0.6405894006934126 0.2994304110946013 0.007602773650321943 0.007157008420009906 0.01830113917781079 0.02691926696384349 0.6405894006934126 0.2994304110946013 0.007602773650321943 0.007157008420009906 0.01830113917781079 0.02691926696384349 0.6405894006934126 0.2994304110946013 0.007602773650321943 0.007157008420009906 0.01830113917781079 0.02691926696384349 0.6405894006934126 0.2994304110946013 0.007602773650321943 0.007157008420009906 0.01830113917781079 0.02691926696384349 0.6405894006934126 0.2994304110946013 0.007602773650321943 0.007157008420009906 0.01830113917781079 0.02691926696384349 0.6405894006934126 0.2994304110946013 0.007602773650321943 0.007157008420009906 0.01830113917781079 0.02691926696384349 0.6405894006934126 0.2994304110946013 0.007602773650321943 0.007157008420009906 0.01830113917781079 0.02691926696384349 0.6405894006934126 0.2994304110946013 0.007602773650321943 0.007157008420009906 0.01830113917781079 0.02691926696384349 0.6405894006934126 0.2994304110946013 0.007602773650321943 0.007157008420009906 0.01830113917781079 0.02691926696384349 0.6405894006934126 0.2994304110946013 0.007602773650321943 0.007157008420009906 0.01830113917781079 0.02691926696384349 0.6405894006934126 0.2994304110946013 0.007602773650321943 0.007157008420009906 0.01830113917781079 0.02691926696384349 0.6405894006934126 0.2994304110946013 0.007602773650321943 0.007157008420009906 0.01830113917781079 0.02691926696384349 0.6405894006934126 0.2994304110946013 0.007602773650321943 0.007157008420009906 0.01830113917781079 0.02691926696384349 0.6405894006934126 0.2994304110946013 0.007602773650321943 0.007157008420009906 0.01830113917781079 0.02691926696384349 0.6405894006934126 0.2994304110946013 0.007602773650321943 0.007157008420009906 0.01830113917781079 0.02691926696384349 0.6405894006934126 0.2994304110946013 0.007602773650321943 0.007157008420009906 0.01830113917781079 0.02691926696384349 0.6405894006934126 0.2994304110946013 0.007602773650321943 0.007157008420009906 0.01830113917781079 0.02691926696384349 0.6405894006934126 0.2994304110946013 0.007602773650321943 0.007157008420009906 0.01830113917781079 0.02691926696384349 0.6405894006934126 0.2994304110946013 0.007602773650321943 0.007157008420009906 0.01830113917781079 0.02691926696384349 0.6405894006934126 0.2994304110946013 0.007602773650321943 0.007157008420009906 0.01830113917781079 0.02691926696384349 0.6405894006934126 0.2994304110946013 0.007602773650321943 0.007157008420009906 0.01830113917781079 0.02691926696384349 0.6405894006934126 0.2994304110946013 0.007602773650321943 0.007157008420009906 0.01830113917781079 0.02691926696384349 0.6405894006934126 0.2994304110946013 0.007602773650321943 0.007157008420009906 0.01830113917781079 0.02691926696384349 0.6405894006934126 0.2994304110946013 0.007602773650321943 0.007157008420009906 0.01830113917781079 0.02691926696384349 0.6405894006934126 0.2994304110946013 0.007602773650321943 0.007157008420009906 0.01830113917781079 0.02691926696384349 0.6405894006934126 0.2994304110946013 0.007602773650321943 0.007157008420009906 0.01830113917781079 0.02691926696384349 0.6405894006934126 0.2994304110946013 0.007602773650321943 0.007157008420009906 0.01830113917781079 0.02691926696384349 0.6405894006934126 0.2994304110946013 0.007602773650321943 0.007157008420009906 0.01830113917781079 0.02691926696384349 0.6405894006934126 0.2994304110946013 0.007602773650321943 0.007157008420009906 0.01830113917781079 0.02691926696384349 0.6405894006934126 0.2994304110946013 0.007602773650321943 0.007157008420009906 0.01830113917781079 0.02691926696384349 0.6405894006934126 0.2994304110946013 0.007602773650321943 0.007157008420009906 0.01830113917781079 0.02691926696384349 0.6405894006934126 0.2994304110946013 0.007602773650321943 0.007157008420009906 0.01830113917781079 0.02691926696384349 0.6405894006934126 0.2994304110946013 0.007602773650321943 0.007157008420009906 0.01830113917781079 0.02691926696384349 0.6405894006934126 0.2994304110946013 0.007602773650321943 0.007157008420009906 0.01830113917781079 0.02691926696384349 0.6405894006934126 0.2994304110946013 0.007602773650321943 0.007157008420009906 0.01830113917781079 0.02691926696384349 0.6405894006934126 0.2994304110946013 0.007602773650321943 0.007157008420009906 0.01830113917781079 0.02691926696384349 0.6405894006934126 0.2994304110946013 0.007602773650321943 0.007157008420009906 0.01830113917781079 0.02691926696384349 0.6405894006934126 0.2994304110946013 0.007602773650321943 0.007157008420009906 0.01830113917781079 0.02691926696384349 0.6405894006934126 0.2994304110946013 0.007602773650321943 0.007157008420009906 0.01830113917781079 0.02691926696384349 0.6405894006934126 0.2994304110946013 0.007602773650321943 0.007157008420009906 0.01830113917781079 0.02691926696384349 0.6405894006934126 0.2994304110946013 0.007602773650321943 0.007157008420009906 0.01830113917781079 0.02691926696384349 0.6405894006934126 0.2994304110946013 0.007602773650321943 0.007157008420009906 0.01830113917781079 0.02691926696384349 0.6405894006934126 0.2994304110946013 0.007602773650321943 0.007157008420009906 0.01830113917781079 0.02691926696384349 0.6405894006934126 0.2994304110946013 0.007602773650321943 0.007157008420009906 0.01830113917781079 0.02691926696384349 0.6405894006934126 0.2994304110946013 0.007602773650321943 0.007157008420009906 0.01830113917781079 0.02691926696384349 0.6405894006934126 0.2994304110946013 0.007602773650321943 0.007157008420009906 0.01830113917781079 0.02691926696384349 0.6405894006934126 0.2994304110946013 0.007602773650321943 0.007157008420009906 0.01830113917781079 0.02691926696384349 0.6405894006934126 0.2994304110946013 0.007602773650321943 0.007157008420009906 0.01830113917781079 0.02691926696384349 0.6405894006934126 0.2994304110946013 0.007602773650321943 0.007157008420009906 0.01830113917781079 0.02691926696384349 0.6405894006934126 0.2994304110946013 0.007602773650321943 0.007157008420009906 0.01830113917781079 0.02691926696384349 0.6405894006934126 0.2994304110946013 0.007602773650321943 0.007157008420009906 0.01830113917781079 0.02691926696384349 0.6405894006934126 0.2994304110946013 0.007602773650321943 0.007157008420009906 0.01830113917781079 0.02691926696384349 0.6405894006934126 0.2994304110946013 0.007602773650321943 0.007157008420009906 0.01830113917781079 0.02691926696384349 0.6405894006934126 0.2994304110946013 0.007602773650321943 0.007157008420009906 0.01830113917781079 0.02691926696384349 0.6405894006934126 0.2994304110946013 0.007602773650321943 0.007157008420009906 0.01830113917781079 0.02691926696384349 0.6405894006934126 0.2994304110946013 0.007602773650321943 0.007157008420009906 0.01830113917781079 0.02691926696384349 0.6405894006934126 0.2994304110946013 0.007602773650321943 0.007157008420009906 0.01830113917781079 0.02691926696384349 0.6405894006934126 0.2994304110946013 0.007602773650321943 0.007157008420009906 0.01830113917781079 0.02691926696384349 0.6405894006934126 0.2994304110946013 0.007602773650321943 0.007157008420009906 0.01830113917781079 0.02691926696384349 0.6405894006934126 0.2994304110946013 0.007602773650321943 0.007157008420009906 0.01830113917781079 0.02691926696384349 0.6405894006934126 0.2994304110946013 0.007602773650321943 0.007157008420009906 0.01830113917781079 0.02691926696384349 0.6405894006934126 0.2994304110946013 0.007602773650321943 0.007157008420009906 0.01830113917781079 0.02691926696384349 0.6405894006934126 0.2994304110946013 0.007602773650321943 0.007157008420009906 0.01830113917781079 0.02691926696384349 0.6405894006934126 0.2994304110946013 0.007602773650321943 0.007157008420009906 0.01830113917781079 0.02691926696384349 0.6405894006934126 0.2994304110946013 0.007602773650321943 0.007157008420009906 0.01830113917781079 0.02691926696384349 0.6405894006934126 0.2994304110946013 0.007602773650321943 0.007157008420009906 0.01830113917781079 0.02691926696384349 0.6405894006934126 0.2994304110946013 0.007602773650321943 0.007157008420009906 0.01830113917781079 0.02691926696384349 0.6405894006934126 0.2994304110946013 0.007602773650321943 0.007157008420009906 0.01830113917781079 0.02691926696384349 0.6405894006934126 0.2994304110946013 0.007602773650321943 0.007157008420009906 0.01830113917781079 0.02691926696384349 0.6405894006934126 0.2994304110946013 0.007602773650321943 0.007157008420009906 0.01830113917781079 0.02691926696384349 0.6405894006934126 0.2994304110946013 0.007602773650321943 0.007157008420009906 0.01830113917781079 0.02691926696384349 0.6405894006934126 0.2994304110946013 0.007602773650321943 0.007157008420009906 0.01830113917781079 0.02691926696384349 0.6405894006934126 0.2994304110946013 0.007602773650321943 0.007157008420009906 0.01830113917781079 0.02691926696384349 0.6405894006934126 0.2994304110946013 0.007602773650321943 0.007157008420009906 0.01830113917781079 0.02691926696384349 0.6405894006934126 0.2994304110946013 0.007602773650321943 0.007157008420009906 0.01830113917781079 0.02691926696384349 0.6405894006934126 0.2994304110946013 0.007602773650321943 0.007157008420009906 0.01830113917781079 0.02691926696384349 0.6405894006934126 0.2994304110946013 0.007602773650321943 0.007157008420009906 0.01830113917781079 0.02691926696384349 0.6405894006934126 0.2994304110946013 0.007602773650321943 0.007157008420009906 0.01830113917781079 0.02691926696384349 0.6405894006934126 0.2994304110946013 0.007602773650321943 0.007157008420009906 0.01830113917781079 0.02691926696384349 0.6405894006934126 0.2994304110946013 0.007602773650321943 0.007157008420009906 0.01830113917781079 0.02691926696384349 0.6405894006934126 0.2994304110946013 0.007602773650321943 0.007157008420009906 0.01830113917781079 0.02691926696384349 0.6405894006934126 0.2994304110946013 0.007602773650321943 0.007157008420009906 0.01830113917781079 0.02691926696384349 0.6405894006934126 0.2994304110946013 0.007602773650321943 0.007157008420009906 0.01830113917781079 0.02691926696384349 0.6405894006934126 0.2994304110946013 0.007602773650321943 0.007157008420009906 0.01830113917781079 0.02691926696384349 0.6405894006934126 0.2994304110946013 0.007602773650321943 0.007157008420009906 0.01830113917781079 0.02691926696384349 0.6405894006934126 0.2994304110946013 0.007602773650321943 0.007157008420009906 0.01830113917781079 0.02691926696384349 0.6405894006934126 0.2994304110946013 0.007602773650321943 0.007157008420009906 0.01830113917781079 0.02691926696384349 0.6405894006934126 0.2994304110946013 0.007602773650321943 0.007157008420009906 0.01830113917781079 0.02691926696384349 0.6405894006934126 0.2994304110946013 0.007602773650321943 0.007157008420009906 0.01830113917781079 0.02691926696384349 0.6405894006934126 0.2994304110946013 0.007602773650321943 0.007157008420009906 0.01830113917781079 0.02691926696384349 0.6405894006934126 0.2994304110946013 0.007602773650321943 0.007157008420009906 0.01830113917781079 0.02691926696384349 0.6405894006934126 0.2994304110946013 0.007602773650321943 0.007157008420009906 0.01830113917781079 0.02691926696384349 0.6405894006934126 0.2994304110946013 0.007602773650321943 0.007157008420009906 0.01830113917781079 0.02691926696384349 0.6405894006934126 0.2994304110946013 0.007602773650321943 0.007157008420009906 0.01830113917781079 0.02691926696384349 0.6405894006934126 0.2994304110946013 0.007602773650321943 0.007157008420009906 0.01830113917781079 0.02691926696384349 0.6405894006934126 0.2994304110946013 0.007602773650321943 0.007157008420009906 0.01830113917781079 0.02691926696384349 0.6405894006934126 0.2994304110946013 0.007602773650321943 0.007157008420009906 0.01830113917781079 0.02691926696384349 0.6405894006934126 0.2994304110946013 0.007602773650321943 0.007157008420009906 0.01830113917781079 0.02691926696384349 0.6405894006934126 0.2994304110946013 0.007602773650321943 0.007157008420009906 0.01830113917781079 0.02691926696384349 0.6405894006934126 0.2994304110946013 0.007602773650321943 0.007157008420009906 0.01830113917781079 0.02691926696384349 0.6405894006934126 0.2994304110946013 0.007602773650321943 0.007157008420009906 0.01830113917781079 0.02691926696384349 0.6405894006934126 0.2994304110946013 0.007602773650321943 0.007157008420009906 0.01830113917781079 0.02691926696384349 0.6405894006934126 0.2994304110946013 0.007602773650321943 0.007157008420009906 0.01830113917781079 0.02691926696384349 0.6405894006934126 0.2994304110946013 0.007602773650321943 0.007157008420009906 0.01830113917781079 0.02691926696384349 0.6405894006934126 0.2994304110946013 0.007602773650321943 0.007157008420009906 0.01830113917781079 0.02691926696384349 0.6405894006934126 0.2994304110946013 0.007602773650321943 0.007157008420009906 0.01830113917781079 0.02691926696384349 0.6405894006934126 0.2994304110946013 0.007602773650321943 0.007157008420009906 0.01830113917781079 0.02691926696384349 0.6405894006934126 0.2994304110946013 0.007602773650321943 0.007157008420009906 0.01830113917781079 0.02691926696384349 0.6405894006934126 0.2994304110946013 0.007602773650321943 0.007157008420009906 0.01830113917781079 0.02691926696384349 0.6405894006934126 0.2994304110946013 0.007602773650321943 0.007157008420009906 0.01830113917781079 0.02691926696384349 0.6405894006934126 0.2994304110946013 0.007602773650321943 0.007157008420009906 0.01830113917781079 0.02691926696384349 0.6405894006934126 0.2994304110946013 0.007602773650321943 0.007157008420009906 0.01830113917781079 0.02691926696384349 0.6405894006934126 0.2994304110946013 0.007602773650321943 0.007157008420009906 0.01830113917781079 0.02691926696384349 0.6405894006934126 0.2994304110946013 0.007602773650321943 0.007157008420009906 0.01830113917781079 0.02691926696384349 0.6405894006934126 0.2994304110946013 0.007602773650321943 0.007157008420009906 0.01830113917781079 0.02691926696384349 0.6405894006934126 0.2994304110946013 0.007602773650321943 0.007157008420009906 0.01830113917781079 0.02691926696384349 0.6405894006934126 0.2994304110946013 0.007602773650321943 0.007157008420009906 0.01830113917781079 0.02691926696384349 0.6405894006934126 0.2994304110946013 0.007602773650321943 0.007157008420009906 0.01830113917781079 0.02691926696384349 0.6405894006934126 0.2994304110946013 0.007602773650321943 0.007157008420009906 0.01830113917781079 0.02691926696384349 0.6405894006934126 0.2994304110946013 0.007602773650321943 0.007157008420009906 0.01830113917781079 0.02691926696384349 0.6405894006934126 0.2994304110946013 0.007602773650321943 0.007157008420009906 0.01830113917781079 0.02691926696384349 0.6405894006934126 0.2994304110946013 0.007602773650321943 0.007157008420009906 0.01830113917781079 0.02691926696384349 0.6405894006934126 0.2994304110946013 0.007602773650321943 0.007157008420009906 0.01830113917781079 0.02691926696384349 0.6405894006934126 0.2994304110946013 0.007602773650321943 0.007157008420009906 0.01830113917781079 0.02691926696384349 0.6405894006934126 0.2994304110946013 0.007602773650321943 0.007157008420009906 0.01830113917781079 0.02691926696384349 0.6405894006934126 0.2994304110946013 0.007602773650321943 0.007157008420009906 0.01830113917781079 0.02691926696384349 0.6405894006934126 0.2994304110946013 0.007602773650321943 0.007157008420009906 0.01830113917781079 0.02691926696384349 0.6405894006934126 0.2994304110946013 0.007602773650321943 0.007157008420009906 0.01830113917781079 0.02691926696384349 0.6405894006934126 0.2994304110946013 0.007602773650321943 0.007157008420009906 0.01830113917781079 0.02691926696384349 0.6405894006934126 0.2994304110946013 0.007602773650321943 0.007157008420009906 0.01830113917781079 0.02691926696384349 0.6405894006934126 0.2994304110946013 0.007602773650321943 0.007157008420009906 0.01830113917781079 0.02691926696384349 0.6405894006934126 0.2994304110946013 0.007602773650321943 0.007157008420009906 0.01830113917781079 0.02691926696384349 0.6405894006934126 0.2994304110946013 0.007602773650321943 0.007157008420009906 0.01830113917781079 0.02691926696384349 0.6405894006934126 0.2994304110946013 0.007602773650321943 0.007157008420009906 0.01830113917781079 0.02691926696384349 0.6405894006934126 0.2994304110946013 0.007602773650321943 0.007157008420009906 0.01830113917781079 0.02691926696384349 0.6405894006934126 0.2994304110946013 0.007602773650321943 0.007157008420009906 0.01830113917781079 0.02691926696384349 0.6405894006934126 0.2994304110946013 0.007602773650321943 0.007157008420009906 0.01830113917781079 0.02691926696384349 0.6405894006934126 0.2994304110946013 0.007602773650321943 0.007157008420009906 0.01830113917781079 0.02691926696384349 0.6405894006934126 0.2994304110946013 0.007602773650321943 0.007157008420009906 0.01830113917781079 0.02691926696384349 0.6405894006934126 0.2994304110946013 0.007602773650321943 0.007157008420009906 0.01830113917781079 0.02691926696384349 0.6405894006934126 0.2994304110946013 0.007602773650321943 0.007157008420009906 0.01830113917781079 0.02691926696384349 0.6405894006934126 0.2994304110946013 0.007602773650321943 0.007157008420009906 0.01830113917781079 0.02691926696384349 0.6405894006934126 0.2994304110946013 0.007602773650321943 0.007157008420009906 0.01830113917781079 0.02691926696384349 0.6405894006934126 0.2994304110946013 0.007602773650321943 0.007157008420009906 0.01830113917781079 0.02691926696384349 0.6405894006934126 0.2994304110946013 0.007602773650321943 0.007157008420009906 0.01830113917781079 0.02691926696384349 0.6405894006934126 0.2994304110946013 0.007602773650321943 0.007157008420009906 0.01830113917781079 0.02691926696384349 0.6405894006934126 0.2994304110946013 0.007602773650321943 0.007157008420009906 0.01830113917781079 0.02691926696384349 0.6405894006934126 0.2994304110946013 0.007602773650321943 0.007157008420009906 0.01830113917781079 0.02691926696384349 0.6405894006934126 0.2994304110946013 0.007602773650321943 0.007157008420009906 0.01830113917781079 0.02691926696384349 0.6405894006934126 0.2994304110946013 0.007602773650321943 0.007157008420009906 0.01830113917781079 0.02691926696384349 0.6405894006934126 0.2994304110946013 0.007602773650321943 0.007157008420009906 0.01830113917781079 0.02691926696384349 0.6405894006934126 0.2994304110946013 0.007602773650321943 0.007157008420009906 0.01830113917781079 0.02691926696384349 0.6405894006934126 0.2994304110946013 0.007602773650321943 0.007157008420009906 0.01830113917781079 0.02691926696384349 0.6405894006934126 0.2994304110946013 0.007602773650321943 0.007157008420009906 0.01830113917781079 0.02691926696384349 0.6405894006934126 0.2994304110946013 0.007602773650321943 0.007157008420009906 0.01830113917781079 0.02691926696384349 0.6405894006934126 0.2994304110946013 0.007602773650321943 0.007157008420009906 0.01830113917781079 0.02691926696384349 0.6405894006934126 0.2994304110946013 0.007602773650321943 0.007157008420009906 0.01830113917781079 0.02691926696384349 0.6405894006934126 0.2994304110946013 0.007602773650321943 0.007157008420009906 0.01830113917781079 0.02691926696384349 0.6405894006934126 0.2994304110946013 0.007602773650321943 0.007157008420009906 0.01830113917781079 0.02691926696384349 0.6405894006934126 0.2994304110946013 0.007602773650321943 0.007157008420009906 0.01830113917781079 0.02691926696384349 0.6405894006934126 0.2994304110946013 0.007602773650321943 0.007157008420009906 0.01830113917781079 0.02691926696384349 0.6405894006934126 0.2994304110946013 0.007602773650321943 0.007157008420009906 0.01830113917781079 0.02691926696384349 0.6405894006934126 0.2994304110946013 0.007602773650321943 0.007157008420009906 0.01830113917781079 0.02691926696384349 0.6405894006934126 0.2994304110946013 0.007602773650321943 0.007157008420009906 0.01830113917781079 0.02691926696384349 0.6405894006934126 0.2994304110946013 0.007602773650321943 0.007157008420009906 0.01830113917781079 0.02691926696384349 0.6405894006934126 0.2994304110946013 0.007602773650321943 0.007157008420009906 0.01830113917781079 0.02691926696384349 0.6405894006934126 0.2994304110946013 0.007602773650321943 0.007157008420009906 0.01830113917781079 0.02691926696384349 0.6405894006934126 0.2994304110946013 0.007602773650321943 0.007157008420009906 0.01830113917781079 0.02691926696384349 0.6405894006934126 0.2994304110946013 0.007602773650321943 0.007157008420009906 0.01830113917781079 0.02691926696384349 0.6405894006934126 0.2994304110946013 0.007602773650321943 0.007157008420009906 0.01830113917781079 0.02691926696384349 0.6405894006934126 0.2994304110946013 0.007602773650321943 0.007157008420009906 0.01830113917781079 0.02691926696384349 0.6405894006934126 0.2994304110946013 0.007602773650321943 0.007157008420009906 0.01830113917781079 0.02691926696384349 0.6405894006934126 0.2994304110946013 0.007602773650321943 0.007157008420009906 0.01830113917781079 0.02691926696384349 0.6405894006934126 0.2994304110946013 0.007602773650321943 0.007157008420009906 0.01830113917781079 0.02691926696384349 0.6405894006934126 0.2994304110946013 0.007602773650321943 0.007157008420009906 0.01830113917781079 0.02691926696384349 0.6405894006934126 0.2994304110946013 0.007602773650321943 0.007157008420009906 0.01830113917781079 0.02691926696384349 0.6405894006934126 0.2994304110946013 0.007602773650321943 0.007157008420009906 0.01830113917781079 0.02691926696384349 0.6405894006934126 0.2994304110946013 0.007602773650321943 0.007157008420009906 0.01830113917781079 0.02691926696384349 0.6405894006934126 0.2994304110946013 0.007602773650321943 0.007157008420009906 0.01830113917781079 0.02691926696384349 0.6405894006934126 0.2994304110946013 0.007602773650321943 0.007157008420009906 0.01830113917781079 0.02691926696384349 0.6405894006934126 0.2994304110946013 0.007602773650321943 0.007157008420009906 0.01830113917781079 0.02691926696384349 0.6405894006934126 0.2994304110946013 0.007602773650321943 0.007157008420009906 0.01830113917781079 0.02691926696384349 0.6405894006934126 0.2994304110946013 0.007602773650321943 0.007157008420009906 0.01830113917781079 0.02691926696384349 0.6405894006934126 0.2994304110946013 0.007602773650321943 0.007157008420009906 0.01830113917781079 0.02691926696384349 0.6405894006934126</probabilities>
		</cpt>
		<cpt id="SuspectEducation">
			<state id="primarySchool" />
			<state id="middleSchool" />
			<state id="highSchool" />
			<state id="vocationalCollege" />
			<state id="college" />
			<state id="majorCollege" />
			<state id="masterDegree" />
			<state id="doctoralDegree" />
			<state id="unknown" />
			<state id="noEducationExperience" />
			<parents>SuspectAge</parents>
			<probabilities>0.1 0.1 0.1 0.1 0.1 0.1 0.1 0.1 0.1 0.1 0.1 0.1 0.1 0.1 0.1 0.1 0.1 0.1 0.1 0.1 0.1 0.1 0.1 0.1 0.1 0.1 0.1 0.1 0.1 0.1 0.1 0.1 0.1 0.1 0.1 0.1 0.1 0.1 0.1 0.1 0.1 0.1 0.1 0.1 0.1 0.1 0.1 0.1 0.1 0.1 0.1 0.1 0.1 0.1 0.1 0.1 0.1 0.1 0.1 0.1 0.1 0.1 0.1 0.1 0.1 0.1 0.1 0.1 0.1 0.1 0.1 0.1 0.1 0.1 0.1 0.1 0.1 0.1 0.1 0.1 0.1 0.1 0.1 0.1 0.1 0.1 0.1 0.1 0.1 0.1 0.1 0.1 0.1 0.1 0.1 0.1 0.1 0.1 0.1 0.1</probabilities>
		</cpt>
		<cpt id="SuspectAbility">
			<state id="Low" />
			<state id="Medium" />
			<state id="High" />
			<parents>SuspectEducation SuspectOccupation</parents>
			<probabilities>0.241802872709262 0.7527984150569589 0.005398712233779099 0.241802872709262 0.7527984150569589 0.005398712233779099 0.241802872709262 0.7527984150569589 0.005398712233779099 0.241802872709262 0.7527984150569589 0.005398712233779099 0.241802872709262 0.7527984150569589 0.005398712233779099 0.241802872709262 0.7527984150569589 0.005398712233779099 0.241802872709262 0.7527984150569589 0.005398712233779099 0.241802872709262 0.7527984150569589 0.005398712233779099 0.241802872709262 0.7527984150569589 0.005398712233779099 0.241802872709262 0.7527984150569589 0.005398712233779099 0.241802872709262 0.7527984150569589 0.005398712233779099 0.241802872709262 0.7527984150569589 0.005398712233779099 0.241802872709262 0.7527984150569589 0.005398712233779099 0.241802872709262 0.7527984150569589 0.005398712233779099 0.241802872709262 0.7527984150569589 0.005398712233779099 0.241802872709262 0.7527984150569589 0.005398712233779099 0.241802872709262 0.7527984150569589 0.005398712233779099 0.241802872709262 0.7527984150569589 0.005398712233779099 0.241802872709262 0.7527984150569589 0.005398712233779099 0.241802872709262 0.7527984150569589 0.005398712233779099 0.241802872709262 0.7527984150569589 0.005398712233779099 0.241802872709262 0.7527984150569589 0.005398712233779099 0.241802872709262 0.7527984150569589 0.005398712233779099 0.241802872709262 0.7527984150569589 0.005398712233779099 0.241802872709262 0.7527984150569589 0.005398712233779099 0.241802872709262 0.7527984150569589 0.005398712233779099 0.241802872709262 0.7527984150569589 0.005398712233779099 0.241802872709262 0.7527984150569589 0.005398712233779099 0.241802872709262 0.7527984150569589 0.005398712233779099 0.241802872709262 0.7527984150569589 0.005398712233779099 0.241802872709262 0.7527984150569589 0.005398712233779099 0.241802872709262 0.7527984150569589 0.005398712233779099 0.241802872709262 0.7527984150569589 0.005398712233779099 0.241802872709262 0.7527984150569589 0.005398712233779099 0.241802872709262 0.7527984150569589 0.005398712233779099 0.241802872709262 0.7527984150569589 0.005398712233779099 0.241802872709262 0.7527984150569589 0.005398712233779099 0.241802872709262 0.7527984150569589 0.005398712233779099 0.241802872709262 0.7527984150569589 0.005398712233779099 0.241802872709262 0.7527984150569589 0.005398712233779099 0.241802872709262 0.7527984150569589 0.005398712233779099 0.241802872709262 0.7527984150569589 0.005398712233779099 0.241802872709262 0.7527984150569589 0.005398712233779099 0.241802872709262 0.7527984150569589 0.005398712233779099 0.241802872709262 0.7527984150569589 0.005398712233779099 0.241802872709262 0.7527984150569589 0.005398712233779099 0.241802872709262 0.7527984150569589 0.005398712233779099 0.241802872709262 0.7527984150569589 0.005398712233779099 0.241802872709262 0.7527984150569589 0.005398712233779099 0.241802872709262 0.7527984150569589 0.005398712233779099 0.241802872709262 0.7527984150569589 0.005398712233779099 0.241802872709262 0.7527984150569589 0.005398712233779099 0.241802872709262 0.7527984150569589 0.005398712233779099 0.241802872709262 0.7527984150569589 0.005398712233779099 0.241802872709262 0.7527984150569589 0.005398712233779099 0.241802872709262 0.7527984150569589 0.005398712233779099 0.241802872709262 0.7527984150569589 0.005398712233779099 0.241802872709262 0.7527984150569589 0.005398712233779099 0.241802872709262 0.7527984150569589 0.005398712233779099 0.241802872709262 0.7527984150569589 0.005398712233779099 0.241802872709262 0.7527984150569589 0.005398712233779099 0.241802872709262 0.7527984150569589 0.005398712233779099 0.241802872709262 0.7527984150569589 0.005398712233779099 0.241802872709262 0.7527984150569589 0.005398712233779099 0.241802872709262 0.7527984150569589 0.005398712233779099 0.241802872709262 0.7527984150569589 0.005398712233779099 0.241802872709262 0.7527984150569589 0.005398712233779099 0.241802872709262 0.7527984150569589 0.005398712233779099 0.241802872709262 0.7527984150569589 0.005398712233779099 0.241802872709262 0.7527984150569589 0.005398712233779099 0.241802872709262 0.7527984150569589 0.005398712233779099 0.241802872709262 0.7527984150569589 0.005398712233779099 0.241802872709262 0.7527984150569589 0.005398712233779099 0.241802872709262 0.7527984150569589 0.005398712233779099 0.241802872709262 0.7527984150569589 0.005398712233779099 0.241802872709262 0.7527984150569589 0.005398712233779099 0.241802872709262 0.7527984150569589 0.005398712233779099 0.241802872709262 0.7527984150569589 0.005398712233779099 0.241802872709262 0.7527984150569589 0.005398712233779099 0.241802872709262 0.7527984150569589 0.005398712233779099 0.241802872709262 0.7527984150569589 0.005398712233779099 0.241802872709262 0.7527984150569589 0.005398712233779099 0.241802872709262 0.7527984150569589 0.005398712233779099 0.241802872709262 0.7527984150569589 0.005398712233779099 0.241802872709262 0.7527984150569589 0.005398712233779099 0.241802872709262 0.7527984150569589 0.005398712233779099 0.241802872709262 0.7527984150569589 0.005398712233779099 0.241802872709262 0.7527984150569589 0.005398712233779099 0.241802872709262 0.7527984150569589 0.005398712233779099 0.241802872709262 0.7527984150569589 0.005398712233779099 0.241802872709262 0.7527984150569589 0.005398712233779099 0.241802872709262 0.7527984150569589 0.005398712233779099 0.241802872709262 0.7527984150569589 0.005398712233779099 0.241802872709262 0.7527984150569589 0.005398712233779099 0.241802872709262 0.7527984150569589 0.005398712233779099 0.241802872709262 0.7527984150569589 0.005398712233779099 0.241802872709262 0.7527984150569589 0.005398712233779099 0.241802872709262 0.7527984150569589 0.005398712233779099 0.241802872709262 0.7527984150569589 0.005398712233779099 0.241802872709262 0.7527984150569589 0.005398712233779099 0.241802872709262 0.7527984150569589 0.005398712233779099 0.241802872709262 0.7527984150569589 0.005398712233779099 0.241802872709262 0.7527984150569589 0.005398712233779099 0.241802872709262 0.7527984150569589 0.005398712233779099 0.241802872709262 0.7527984150569589 0.005398712233779099 0.241802872709262 0.7527984150569589 0.005398712233779099 0.241802872709262 0.7527984150569589 0.005398712233779099 0.241802872709262 0.7527984150569589 0.005398712233779099 0.241802872709262 0.7527984150569589 0.005398712233779099 0.241802872709262 0.7527984150569589 0.005398712233779099 0.241802872709262 0.7527984150569589 0.005398712233779099 0.241802872709262 0.7527984150569589 0.005398712233779099 0.241802872709262 0.7527984150569589 0.005398712233779099 0.241802872709262 0.7527984150569589 0.005398712233779099 0.241802872709262 0.7527984150569589 0.005398712233779099 0.241802872709262 0.7527984150569589 0.005398712233779099 0.241802872709262 0.7527984150569589 0.005398712233779099 0.241802872709262 0.7527984150569589 0.005398712233779099 0.241802872709262 0.7527984150569589 0.005398712233779099 0.241802872709262 0.7527984150569589 0.005398712233779099 0.241802872709262 0.7527984150569589 0.005398712233779099 0.241802872709262 0.7527984150569589 0.005398712233779099 0.241802872709262 0.7527984150569589 0.005398712233779099 0.241802872709262 0.7527984150569589 0.005398712233779099 0.241802872709262 0.7527984150569589 0.005398712233779099 0.241802872709262 0.7527984150569589 0.005398712233779099 0.241802872709262 0.7527984150569589 0.005398712233779099 0.241802872709262 0.7527984150569589 0.005398712233779099 0.241802872709262 0.7527984150569589 0.005398712233779099 0.241802872709262 0.7527984150569589 0.005398712233779099 0.241802872709262 0.7527984150569589 0.005398712233779099 0.241802872709262 0.7527984150569589 0.005398712233779099 0.241802872709262 0.7527984150569589 0.005398712233779099 0.241802872709262 0.7527984150569589 0.005398712233779099 0.241802872709262 0.7527984150569589 0.005398712233779099 0.241802872709262 0.7527984150569589 0.005398712233779099 0.241802872709262 0.7527984150569589 0.005398712233779099 0.241802872709262 0.7527984150569589 0.005398712233779099 0.241802872709262 0.7527984150569589 0.005398712233779099 0.241802872709262 0.7527984150569589 0.005398712233779099 0.241802872709262 0.7527984150569589 0.005398712233779099 0.241802872709262 0.7527984150569589 0.005398712233779099 0.241802872709262 0.7527984150569589 0.005398712233779099 0.241802872709262 0.7527984150569589 0.005398712233779099 0.241802872709262 0.7527984150569589 0.005398712233779099 0.241802872709262 0.7527984150569589 0.005398712233779099 0.241802872709262 0.7527984150569589 0.005398712233779099 0.241802872709262 0.7527984150569589 0.005398712233779099 0.241802872709262 0.7527984150569589 0.005398712233779099 0.241802872709262 0.7527984150569589 0.005398712233779099 0.241802872709262 0.7527984150569589 0.005398712233779099 0.241802872709262 0.7527984150569589 0.005398712233779099 0.241802872709262 0.7527984150569589 0.005398712233779099 0.241802872709262 0.7527984150569589 0.005398712233779099 0.241802872709262 0.7527984150569589 0.005398712233779099 0.241802872709262 0.7527984150569589 0.005398712233779099 0.241802872709262 0.7527984150569589 0.005398712233779099 0.241802872709262 0.7527984150569589 0.005398712233779099 0.241802872709262 0.7527984150569589 0.005398712233779099 0.241802872709262 0.7527984150569589 0.005398712233779099 0.241802872709262 0.7527984150569589 0.005398712233779099 0.241802872709262 0.7527984150569589 0.005398712233779099 0.241802872709262 0.7527984150569589 0.005398712233779099 0.241802872709262 0.7527984150569589 0.005398712233779099 0.241802872709262 0.7527984150569589 0.005398712233779099 0.241802872709262 0.7527984150569589 0.005398712233779099 0.241802872709262 0.7527984150569589 0.005398712233779099 0.241802872709262 0.7527984150569589 0.005398712233779099 0.241802872709262 0.7527984150569589 0.005398712233779099 0.241802872709262 0.7527984150569589 0.005398712233779099 0.241802872709262 0.7527984150569589 0.005398712233779099 0.241802872709262 0.7527984150569589 0.005398712233779099 0.241802872709262 0.7527984150569589 0.005398712233779099 0.241802872709262 0.7527984150569589 0.005398712233779099 0.241802872709262 0.7527984150569589 0.005398712233779099 0.241802872709262 0.7527984150569589 0.005398712233779099 0.241802872709262 0.7527984150569589 0.005398712233779099 0.241802872709262 0.7527984150569589 0.005398712233779099 0.241802872709262 0.7527984150569589 0.005398712233779099 0.241802872709262 0.7527984150569589 0.005398712233779099 0.241802872709262 0.7527984150569589 0.005398712233779099 0.241802872709262 0.7527984150569589 0.005398712233779099 0.241802872709262 0.7527984150569589 0.005398712233779099 0.241802872709262 0.7527984150569589 0.005398712233779099 0.241802872709262 0.7527984150569589 0.005398712233779099 0.241802872709262 0.7527984150569589 0.005398712233779099 0.241802872709262 0.7527984150569589 0.005398712233779099 0.241802872709262 0.7527984150569589 0.005398712233779099 0.241802872709262 0.7527984150569589 0.005398712233779099 0.241802872709262 0.7527984150569589 0.005398712233779099 0.241802872709262 0.7527984150569589 0.005398712233779099 0.241802872709262 0.7527984150569589 0.005398712233779099 0.241802872709262 0.7527984150569589 0.005398712233779099 0.241802872709262 0.7527984150569589 0.005398712233779099 0.241802872709262 0.7527984150569589 0.005398712233779099 0.241802872709262 0.7527984150569589 0.005398712233779099 0.241802872709262 0.7527984150569589 0.005398712233779099 0.241802872709262 0.7527984150569589 0.005398712233779099 0.241802872709262 0.7527984150569589 0.005398712233779099 0.241802872709262 0.7527984150569589 0.005398712233779099 0.241802872709262 0.7527984150569589 0.005398712233779099 0.241802872709262 0.7527984150569589 0.005398712233779099 0.241802872709262 0.7527984150569589 0.005398712233779099 0.241802872709262 0.7527984150569589 0.005398712233779099 0.241802872709262 0.7527984150569589 0.005398712233779099 0.241802872709262 0.7527984150569589 0.005398712233779099 0.241802872709262 0.7527984150569589 0.005398712233779099 0.241802872709262 0.7527984150569589 0.005398712233779099 0.241802872709262 0.7527984150569589 0.005398712233779099 0.241802872709262 0.7527984150569589 0.005398712233779099 0.241802872709262 0.7527984150569589 0.005398712233779099 0.241802872709262 0.7527984150569589 0.005398712233779099 0.241802872709262 0.7527984150569589 0.005398712233779099 0.241802872709262 0.7527984150569589 0.005398712233779099 0.241802872709262 0.7527984150569589 0.005398712233779099 0.241802872709262 0.7527984150569589 0.005398712233779099 0.241802872709262 0.7527984150569589 0.005398712233779099 0.241802872709262 0.7527984150569589 0.005398712233779099 0.241802872709262 0.7527984150569589 0.005398712233779099 0.241802872709262 0.7527984150569589 0.005398712233779099 0.241802872709262 0.7527984150569589 0.005398712233779099 0.241802872709262 0.7527984150569589 0.005398712233779099 0.241802872709262 0.7527984150569589 0.005398712233779099 0.241802872709262 0.7527984150569589 0.005398712233779099 0.241802872709262 0.7527984150569589 0.005398712233779099 0.241802872709262 0.7527984150569589 0.005398712233779099 0.241802872709262 0.7527984150569589 0.005398712233779099 0.241802872709262 0.7527984150569589 0.005398712233779099 0.241802872709262 0.7527984150569589 0.005398712233779099 0.241802872709262 0.7527984150569589 0.005398712233779099 0.241802872709262 0.7527984150569589 0.005398712233779099 0.241802872709262 0.7527984150569589 0.005398712233779099 0.241802872709262 0.7527984150569589 0.005398712233779099 0.241802872709262 0.7527984150569589 0.005398712233779099 0.241802872709262 0.7527984150569589 0.005398712233779099 0.241802872709262 0.7527984150569589 0.005398712233779099 0.241802872709262 0.7527984150569589 0.005398712233779099 0.241802872709262 0.7527984150569589 0.005398712233779099 0.241802872709262 0.7527984150569589 0.005398712233779099 0.241802872709262 0.7527984150569589 0.005398712233779099 0.241802872709262 0.7527984150569589 0.005398712233779099 0.241802872709262 0.7527984150569589 0.005398712233779099 0.241802872709262 0.7527984150569589 0.005398712233779099 0.241802872709262 0.7527984150569589 0.005398712233779099 0.241802872709262 0.7527984150569589 0.005398712233779099 0.241802872709262 0.7527984150569589 0.005398712233779099 0.241802872709262 0.7527984150569589 0.005398712233779099 0.241802872709262 0.7527984150569589 0.005398712233779099 0.241802872709262 0.7527984150569589 0.005398712233779099 0.241802872709262 0.7527984150569589 0.005398712233779099</probabilities>
		</cpt>
		<cpt id="CityEcononmy">
			<state id="Developed" />
			<state id="ModeratelyDeveloped" />
			<state id="FirstTier" />
			<state id="SecondTier" />
			<state id="ThirdTier" />
			<parents>SuspectAge</parents>
			<probabilities>0.2 0.2 0.2 0.2 0.2 0.2 0.2 0.2 0.2 0.2 0.2 0.2 0.2 0.2 0.2 0.2 0.2 0.2 0.2 0.2 0.2 0.2 0.2 0.2 0.2 0.2 0.2 0.2 0.2 0.2 0.2 0.2 0.2 0.2 0.2 0.2 0.2 0.2 0.2 0.2 0.2 0.2 0.2 0.2 0.2 0.2 0.2 0.2 0.2 0.2</probabilities>
		</cpt>
		<cpt id="Loss">
			<state id="Low0To100" />
			<state id="Medium100To1k" />
			<state id="Medium1kTo10k" />
			<state id="Serious10kTo100k" />
			<state id="Serious100kTo1000k" />
			<state id="SeriousGreaterThan10000k" />
			<parents>SuspectAge SuspectEducation SuspectGender SuspectOccupation</parents>
			<probabilities>0.1666666666666667 0.1666666666666667 0.1666666666666667 0.1666666666666667 0.1666666666666667 0.1666666666666667 0.1666666666666667 0.1666666666666667 0.1666666666666667 0.1666666666666667 0.1666666666666667 0.1666666666666667 0.1666666666666667 0.1666666666666667 0.1666666666666667 0.1666666666666667 0.1666666666666667 0.1666666666666667 0.1666666666666667 0.1666666666666667 0.1666666666666667 0.1666666666666667 0.1666666666666667 0.1666666666666667 0.1666666666666667 0.1666666666666667 0.1666666666666667 0.1666666666666667 0.1666666666666667 0.1666666666666667 0.1666666666666667 0.1666666666666667 0.1666666666666667 0.1666666666666667 0.1666666666666667 0.1666666666666667 0.1666666666666667 0.1666666666666667 0.1666666666666667 0.1666666666666667 0.1666666666666667 0.1666666666666667 0.1666666666666667 0.1666666666666667 0.1666666666666667 0.1666666666666667 0.1666666666666667 0.1666666666666667 0.1666666666666667 0.1666666666666667 0.1666666666666667 0.1666666666666667 0.1666666666666667 0.1666666666666667 0.1666666666666667 0.1666666666666667 0.1666666666666667 0.1666666666666667 0.1666666666666667 0.1666666666666667 0.1666666666666667 0.1666666666666667 0.1666666666666667 0.1666666666666667 0.1666666666666667 0.1666666666666667 0.1666666666666667 0.1666666666666667 0.1666666666666667 0.1666666666666667 0.1666666666666667 0.1666666666666667 0.1666666666666667 0.1666666666666667 0.1666666666666667 0.1666666666666667 0.1666666666666667 0.1666666666666667 0.1666666666666667 0.1666666666666667 0.1666666666666667 0.1666666666666667 0.1666666666666667 0.1666666666666667 0.1666666666666667 0.1666666666666667 0.1666666666666667 0.1666666666666667 0.1666666666666667 0.1666666666666667 0.1666666666666667 0.1666666666666667 0.1666666666666667 0.1666666666666667 0.1666666666666667 0.1666666666666667 0.1666666666666667 0.1666666666666667 0.1666666666666667 0.1666666666666667 0.1666666666666667 0.1666666666666667 0.1666666666666667 0.1666666666666667 0.1666666666666667 0.1666666666666667 0.1666666666666667 0.1666666666666667 0.1666666666666667 0.1666666666666667 0.1666666666666667 0.1666666666666667 0.1666666666666667 0.1666666666666667 0.1666666666666667 0.1666666666666667 0.1666666666666667 0.1666666666666667 0.1666666666666667 0.1666666666666667 0.1666666666666667 0.1666666666666667 0.1666666666666667 0.1666666666666667 0.1666666666666667 0.1666666666666667 0.1666666666666667 0.1666666666666667 0.1666666666666667 0.1666666666666667 0.1666666666666667 0.1666666666666667 0.1666666666666667 0.1666666666666667 0.1666666666666667 0.1666666666666667 0.1666666666666667 0.1666666666666667 0.1666666666666667 0.1666666666666667 0.1666666666666667 0.1666666666666667 0.1666666666666667 0.1666666666666667 0.1666666666666667 0.1666666666666667 0.1666666666666667 0.1666666666666667 0.1666666666666667 0.1666666666666667 0.1666666666666667 0.1666666666666667 0.1666666666666667 0.1666666666666667 0.1666666666666667 0.1666666666666667 0.1666666666666667 0.1666666666666667 0.1666666666666667 0.1666666666666667 0.1666666666666667 0.1666666666666667 0.1666666666666667 0.1666666666666667 0.1666666666666667 0.1666666666666667 0.1666666666666667 0.1666666666666667 0.1666666666666667 0.1666666666666667 0.1666666666666667 0.1666666666666667 0.1666666666666667 0.1666666666666667 0.1666666666666667 0.1666666666666667 0.1666666666666667 0.1666666666666667 0.1666666666666667 0.1666666666666667 0.1666666666666667 0.1666666666666667 0.1666666666666667 0.1666666666666667 0.1666666666666667 0.1666666666666667 0.1666666666666667 0.1666666666666667 0.1666666666666667 0.1666666666666667 0.1666666666666667 0.1666666666666667 0.1666666666666667 0.1666666666666667 0.1666666666666667 0.1666666666666667 0.1666666666666667 0.1666666666666667 0.1666666666666667 0.1666666666666667 0.1666666666666667 0.1666666666666667 0.1666666666666667 0.1666666666666667 0.1666666666666667 0.1666666666666667 0.1666666666666667 0.1666666666666667 0.1666666666666667 0.1666666666666667 0.1666666666666667 0.1666666666666667 0.1666666666666667 0.1666666666666667 0.1666666666666667 0.1666666666666667 0.1666666666666667 0.1666666666666667 0.1666666666666667 0.1666666666666667 0.1666666666666667 0.1666666666666667 0.1666666666666667 0.1666666666666667 0.1666666666666667 0.1666666666666667 0.1666666666666667 0.1666666666666667 0.1666666666666667 0.1666666666666667 0.1666666666666667 0.1666666666666667 0.1666666666666667 0.1666666666666667 0.1666666666666667 0.1666666666666667 0.1666666666666667 0.1666666666666667 0.1666666666666667 0.1666666666666667 0.1666666666666667 0.1666666666666667 0.1666666666666667 0.1666666666666667 0.1666666666666667 0.1666666666666667 0.1666666666666667 0.1666666666666667 0.1666666666666667 0.1666666666666667 0.1666666666666667 0.1666666666666667 0.1666666666666667 0.1666666666666667 0.1666666666666667 0.1666666666666667 0.1666666666666667 0.1666666666666667 0.1666666666666667 0.1666666666666667 0.1666666666666667 0.1666666666666667 0.1666666666666667 0.1666666666666667 0.1666666666666667 0.1666666666666667 0.1666666666666667 0.1666666666666667 0.1666666666666667 0.1666666666666667 0.1666666666666667 0.1666666666666667 0.1666666666666667 0.1666666666666667 0.1666666666666667 0.1666666666666667 0.1666666666666667 0.1666666666666667 0.1666666666666667 0.1666666666666667 0.1666666666666667 0.1666666666666667 0.1666666666666667 0.1666666666666667 0.1666666666666667 0.1666666666666667 0.1666666666666667 0.1666666666666667 0.1666666666666667 0.1666666666666667 0.1666666666666667 0.1666666666666667 0.1666666666666667 0.1666666666666667 0.1666666666666667 0.1666666666666667 0.1666666666666667 0.1666666666666667 0.1666666666666667 0.1666666666666667 0.1666666666666667 0.1666666666666667 0.1666666666666667 0.1666666666666667 0.1666666666666667 0.1666666666666667 0.1666666666666667 0.1666666666666667 0.1666666666666667 0.1666666666666667 0.1666666666666667 0.1666666666666667 0.1666666666666667 0.1666666666666667 0.1666666666666667 0.1666666666666667 0.1666666666666667 0.1666666666666667 0.1666666666666667 0.1666666666666667 0.1666666666666667 0.1666666666666667 0.1666666666666667 0.1666666666666667 0.1666666666666667 0.1666666666666667 0.1666666666666667 0.1666666666666667 0.1666666666666667 0.1666666666666667 0.1666666666666667 0.1666666666666667 0.1666666666666667 0.1666666666666667 0.1666666666666667 0.1666666666666667 0.1666666666666667 0.1666666666666667 0.1666666666666667 0.1666666666666667 0.1666666666666667 0.1666666666666667 0.1666666666666667 0.1666666666666667 0.1666666666666667 0.1666666666666667 0.1666666666666667 0.1666666666666667 0.1666666666666667 0.1666666666666667 0.1666666666666667 0.1666666666666667 0.1666666666666667 0.1666666666666667 0.1666666666666667 0.1666666666666667 0.1666666666666667 0.1666666666666667 0.1666666666666667 0.1666666666666667 0.1666666666666667 0.1666666666666667 0.1666666666666667 0.1666666666666667 0.1666666666666667 0.1666666666666667 0.1666666666666667 0.1666666666666667 0.1666666666666667 0.1666666666666667 0.1666666666666667 0.1666666666666667 0.1666666666666667 0.1666666666666667 0.1666666666666667 0.1666666666666667 0.1666666666666667 0.1666666666666667 0.1666666666666667 0.1666666666666667 0.1666666666666667 0.1666666666666667 0.1666666666666667 0.1666666666666667 0.1666666666666667 0.1666666666666667 0.1666666666666667 0.1666666666666667 0.1666666666666667 0.1666666666666667 0.1666666666666667 0.1666666666666667 0.1666666666666667 0.1666666666666667 0.1666666666666667 0.1666666666666667 0.1666666666666667 0.1666666666666667 0.1666666666666667 0.1666666666666667 0.1666666666666667 0.1666666666666667 0.1666666666666667 0.1666666666666667 0.1666666666666667 0.1666666666666667 0.1666666666666667 0.1666666666666667 0.1666666666666667 0.1666666666666667 0.1666666666666667 0.1666666666666667 0.1666666666666667 0.1666666666666667 0.1666666666666667 0.1666666666666667 0.1666666666666667 0.1666666666666667 0.1666666666666667 0.1666666666666667 0.1666666666666667 0.1666666666666667 0.1666666666666667 0.1666666666666667 0.1666666666666667 0.1666666666666667 0.1666666666666667 0.1666666666666667 0.1666666666666667 0.1666666666666667 0.1666666666666667 0.1666666666666667 0.1666666666666667 0.1666666666666667 0.1666666666666667 0.1666666666666667 0.1666666666666667 0.1666666666666667 0.1666666666666667 0.1666666666666667 0.1666666666666667 0.1666666666666667 0.1666666666666667 0.1666666666666667 0.1666666666666667 0.1666666666666667 0.1666666666666667 0.1666666666666667 0.1666666666666667 0.1666666666666667 0.1666666666666667 0.1666666666666667 0.1666666666666667 0.1666666666666667 0.1666666666666667 0.1666666666666667 0.1666666666666667 0.1666666666666667 0.1666666666666667 0.1666666666666667 0.1666666666666667 0.1666666666666667 0.1666666666666667 0.1666666666666667 0.1666666666666667 0.1666666666666667 0.1666666666666667 0.1666666666666667 0.1666666666666667 0.1666666666666667 0.1666666666666667 0.1666666666666667 0.1666666666666667 0.1666666666666667 0.1666666666666667 0.1666666666666667 0.1666666666666667 0.1666666666666667 0.1666666666666667 0.1666666666666667 0.1666666666666667 0.1666666666666667 0.1666666666666667 0.1666666666666667 0.1666666666666667 0.1666666666666667 0.1666666666666667 0.1666666666666667 0.1666666666666667 0.1666666666666667 0.1666666666666667 0.1666666666666667 0.1666666666666667 0.1666666666666667 0.1666666666666667 0.1666666666666667 0.1666666666666667 0.1666666666666667 0.1666666666666667 0.1666666666666667 0.1666666666666667 0.1666666666666667 0.1666666666666667 0.1666666666666667 0.1666666666666667 0.1666666666666667 0.1666666666666667 0.1666666666666667 0.1666666666666667 0.1666666666666667 0.1666666666666667 0.1666666666666667 0.1666666666666667 0.1666666666666667 0.1666666666666667 0.1666666666666667 0.1666666666666667 0.1666666666666667 0.1666666666666667 0.1666666666666667 0.1666666666666667 0.1666666666666667 0.1666666666666667 0.1666666666666667 0.1666666666666667 0.1666666666666667 0.1666666666666667 0.1666666666666667 0.1666666666666667 0.1666666666666667 0.1666666666666667 0.1666666666666667 0.1666666666666667 0.1666666666666667 0.1666666666666667 0.1666666666666667 0.1666666666666667 0.1666666666666667 0.1666666666666667 0.1666666666666667 0.1666666666666667 0.1666666666666667 0.1666666666666667 0.1666666666666667 0.1666666666666667 0.1666666666666667 0.1666666666666667 0.1666666666666667 0.1666666666666667 0.1666666666666667 0.1666666666666667 0.1666666666666667 0.1666666666666667 0.1666666666666667 0.1666666666666667 0.1666666666666667 0.1666666666666667 0.1666666666666667 0.1666666666666667 0.1666666666666667 0.1666666666666667 0.1666666666666667 0.1666666666666667 0.1666666666666667 0.1666666666666667 0.1666666666666667 0.1666666666666667 0.1666666666666667 0.1666666666666667 0.1666666666666667 0.1666666666666667 0.1666666666666667 0.1666666666666667 0.1666666666666667 0.1666666666666667 0.1666666666666667 0.1666666666666667 0.1666666666666667 0.1666666666666667 0.1666666666666667 0.1666666666666667 0.1666666666666667 0.1666666666666667 0.1666666666666667 0.1666666666666667 0.1666666666666667 0.1666666666666667 0.1666666666666667 0.1666666666666667 0.1666666666666667 0.1666666666666667 0.1666666666666667 0.1666666666666667 0.1666666666666667 0.1666666666666667 0.1666666666666667 0.1666666666666667 0.1666666666666667 0.1666666666666667 0.1666666666666667 0.1666666666666667 0.1666666666666667 0.1666666666666667 0.1666666666666667 0.1666666666666667 0.1666666666666667 0.1666666666666667 0.1666666666666667 0.1666666666666667 0.1666666666666667 0.1666666666666667 0.1666666666666667 0.1666666666666667 0.1666666666666667 0.1666666666666667 0.1666666666666667 0.1666666666666667 0.1666666666666667 0.1666666666666667 0.1666666666666667 0.1666666666666667 0.1666666666666667 0.1666666666666667 0.1666666666666667 0.1666666666666667 0.1666666666666667 0.1666666666666667 0.1666666666666667 0.1666666666666667 0.1666666666666667 0.1666666666666667 0.1666666666666667 0.1666666666666667 0.1666666666666667 0.1666666666666667 0.1666666666666667 0.1666666666666667 0.1666666666666667 0.1666666666666667 0.1666666666666667 0.1666666666666667 0.1666666666666667 0.1666666666666667 0.1666666666666667 0.1666666666666667 0.1666666666666667 0.1666666666666667 0.1666666666666667 0.1666666666666667 0.1666666666666667 0.1666666666666667 0.1666666666666667 0.1666666666666667 0.1666666666666667 0.1666666666666667 0.1666666666666667 0.1666666666666667 0.1666666666666667 0.1666666666666667 0.1666666666666667 0.1666666666666667 0.1666666666666667 0.1666666666666667 0.1666666666666667 0.1666666666666667 0.1666666666666667 0.1666666666666667 0.1666666666666667 0.1666666666666667 0.1666666666666667 0.1666666666666667 0.1666666666666667 0.1666666666666667 0.1666666666666667 0.1666666666666667 0.1666666666666667 0.1666666666666667 0.1666666666666667 0.1666666666666667 0.1666666666666667 0.1666666666666667 0.1666666666666667 0.1666666666666667 0.1666666666666667 0.1666666666666667 0.1666666666666667 0.1666666666666667 0.1666666666666667 0.1666666666666667 0.1666666666666667 0.1666666666666667 0.1666666666666667 0.1666666666666667 0.1666666666666667 0.1666666666666667 0.1666666666666667 0.1666666666666667 0.1666666666666667 0.1666666666666667 0.1666666666666667 0.1666666666666667 0.1666666666666667 0.1666666666666667 0.1666666666666667 0.1666666666666667 0.1666666666666667 0.1666666666666667 0.1666666666666667 0.1666666666666667 0.1666666666666667 0.1666666666666667 0.1666666666666667 0.1666666666666667 0.1666666666666667 0.1666666666666667 0.1666666666666667 0.1666666666666667 0.1666666666666667 0.1666666666666667 0.1666666666666667 0.1666666666666667 0.1666666666666667 0.1666666666666667 0.1666666666666667 0.1666666666666667 0.1666666666666667 0.1666666666666667 0.1666666666666667 0.1666666666666667 0.1666666666666667 0.1666666666666667 0.1666666666666667 0.1666666666666667 0.1666666666666667 0.1666666666666667 0.1666666666666667 0.1666666666666667 0.1666666666666667 0.1666666666666667 0.1666666666666667 0.1666666666666667 0.1666666666666667 0.1666666666666667 0.1666666666666667 0.1666666666666667 0.1666666666666667 0.1666666666666667 0.1666666666666667 0.1666666666666667 0.1666666666666667 0.1666666666666667 0.1666666666666667 0.1666666666666667 0.1666666666666667 0.1666666666666667 0.1666666666666667 0.1666666666666667 0.1666666666666667 0.1666666666666667 0.1666666666666667 0.1666666666666667 0.1666666666666667 0.1666666666666667 0.1666666666666667 0.1666666666666667 0.1666666666666667 0.1666666666666667 0.1666666666666667 0.1666666666666667 0.1666666666666667 0.1666666666666667 0.1666666666666667 0.1666666666666667 0.1666666666666667 0.1666666666666667 0.1666666666666667 0.1666666666666667 0.1666666666666667 0.1666666666666667 0.1666666666666667 0.1666666666666667 0.1666666666666667 0.1666666666666667 0.1666666666666667 0.1666666666666667 0.1666666666666667 0.1666666666666667 0.1666666666666667 0.1666666666666667 0.1666666666666667 0.1666666666666667 0.1666666666666667 0.1666666666666667 0.1666666666666667 0.1666666666666667 0.1666666666666667 0.1666666666666667 0.1666666666666667 0.1666666666666667 0.1666666666666667 0.1666666666666667 0.1666666666666667 0.1666666666666667 0.1666666666666667 0.1666666666666667 0.1666666666666667 0.1666666666666667 0.1666666666666667 0.1666666666666667 0.1666666666666667 0.1666666666666667 0.1666666666666667 0.1666666666666667 0.1666666666666667 0.1666666666666667 0.1666666666666667 0.1666666666666667 0.1666666666666667 0.1666666666666667 0.1666666666666667 0.1666666666666667 0.1666666666666667 0.1666666666666667 0.1666666666666667 0.1666666666666667 0.1666666666666667 0.1666666666666667 0.1666666666666667 0.1666666666666667 0.1666666666666667 0.1666666666666667 0.1666666666666667 0.1666666666666667 0.1666666666666667 0.1666666666666667 0.1666666666666667 0.1666666666666667 0.1666666666666667 0.1666666666666667 0.1666666666666667 0.1666666666666667 0.1666666666666667 0.1666666666666667 0.1666666666666667 0.1666666666666667 0.1666666666666667 0.1666666666666667 0.1666666666666667 0.1666666666666667 0.1666666666666667 0.1666666666666667 0.1666666666666667 0.1666666666666667 0.1666666666666667 0.1666666666666667 0.1666666666666667 0.1666666666666667 0.1666666666666667 0.1666666666666667 0.1666666666666667 0.1666666666666667 0.1666666666666667 0.1666666666666667 0.1666666666666667 0.1666666666666667 0.1666666666666667 0.1666666666666667 0.1666666666666667 0.1666666666666667 0.1666666666666667 0.1666666666666667 0.1666666666666667 0.1666666666666667 0.1666666666666667 0.1666666666666667 0.1666666666666667 0.1666666666666667 0.1666666666666667 0.1666666666666667 0.1666666666666667 0.1666666666666667 0.1666666666666667 0.1666666666666667 0.1666666666666667 0.1666666666666667 0.1666666666666667 0.1666666666666667 0.1666666666666667 0.1666666666666667 0.1666666666666667 0.1666666666666667 0.1666666666666667 0.1666666666666667 0.1666666666666667 0.1666666666666667 0.1666666666666667 0.1666666666666667 0.1666666666666667 0.1666666666666667 0.1666666666666667 0.1666666666666667 0.1666666666666667 0.1666666666666667 0.1666666666666667 0.1666666666666667 0.1666666666666667 0.1666666666666667 0.1666666666666667 0.1666666666666667 0.1666666666666667 0.1666666666666667 0.1666666666666667 0.1666666666666667 0.1666666666666667 0.1666666666666667 0.1666666666666667 0.1666666666666667 0.1666666666666667 0.1666666666666667 0.1666666666666667 0.1666666666666667 0.1666666666666667 0.1666666666666667 0.1666666666666667 0.1666666666666667 0.1666666666666667 0.1666666666666667 0.1666666666666667 0.1666666666666667 0.1666666666666667 0.1666666666666667 0.1666666666666667 0.1666666666666667 0.1666666666666667 0.1666666666666667 0.1666666666666667 0.1666666666666667 0.1666666666666667 0.1666666666666667 0.1666666666666667 0.1666666666666667 0.1666666666666667 0.1666666666666667 0.1666666666666667 0.1666666666666667 0.1666666666666667 0.1666666666666667 0.1666666666666667 0.1666666666666667 0.1666666666666667 0.1666666666666667 0.1666666666666667 0.1666666666666667 0.1666666666666667 0.1666666666666667 0.1666666666666667 0.1666666666666667 0.1666666666666667 0.1666666666666667 0.1666666666666667 0.1666666666666667 0.1666666666666667 0.1666666666666667 0.1666666666666667 0.1666666666666667 0.1666666666666667 0.1666666666666667 0.1666666666666667 0.1666666666666667 0.1666666666666667 0.1666666666666667 0.1666666666666667 0.1666666666666667 0.1666666666666667 0.1666666666666667 0.1666666666666667 0.1666666666666667 0.1666666666666667 0.1666666666666667 0.1666666666666667 0.1666666666666667 0.1666666666666667 0.1666666666666667 0.1666666666666667 0.1666666666666667 0.1666666666666667 0.1666666666666667 0.1666666666666667 0.1666666666666667 0.1666666666666667 0.1666666666666667 0.1666666666666667 0.1666666666666667 0.1666666666666667 0.1666666666666667 0.1666666666666667 0.1666666666666667 0.1666666666666667 0.1666666666666667 0.1666666666666667 0.1666666666666667 0.1666666666666667 0.1666666666666667 0.1666666666666667 0.1666666666666667 0.1666666666666667 0.1666666666666667 0.1666666666666667 0.1666666666666667 0.1666666666666667 0.1666666666666667 0.1666666666666667 0.1666666666666667 0.1666666666666667 0.1666666666666667 0.1666666666666667 0.1666666666666667 0.1666666666666667 0.1666666666666667 0.1666666666666667 0.1666666666666667 0.1666666666666667 0.1666666666666667 0.1666666666666667 0.1666666666666667 0.1666666666666667 0.1666666666666667 0.1666666666666667 0.1666666666666667 0.1666666666666667 0.1666666666666667 0.1666666666666667 0.1666666666666667 0.1666666666666667 0.1666666666666667 0.1666666666666667 0.1666666666666667 0.1666666666666667 0.1666666666666667 0.1666666666666667 0.1666666666666667 0.1666666666666667 0.1666666666666667 0.1666666666666667 0.1666666666666667 0.1666666666666667 0.1666666666666667 0.1666666666666667 0.1666666666666667 0.1666666666666667 0.1666666666666667 0.1666666666666667 0.1666666666666667 0.1666666666666667 0.1666666666666667 0.1666666666666667 0.1666666666666667 0.1666666666666667 0.1666666666666667 0.1666666666666667 0.1666666666666667 0.1666666666666667 0.1666666666666667 0.1666666666666667 0.1666666666666667 0.1666666666666667 0.1666666666666667 0.1666666666666667 0.1666666666666667 0.1666666666666667 0.1666666666666667 0.1666666666666667 0.1666666666666667 0.1666666666666667 0.1666666666666667 0.1666666666666667 0.1666666666666667 0.1666666666666667 0.1666666666666667 0.1666666666666667 0.1666666666666667 0.1666666666666667 0.1666666666666667 0.1666666666666667 0.1666666666666667 0.1666666666666667 0.1666666666666667 0.1666666666666667 0.1666666666666667 0.1666666666666667 0.1666666666666667 0.1666666666666667 0.1666666666666667 0.1666666666666667 0.1666666666666667 0.1666666666666667 0.1666666666666667 0.1666666666666667 0.1666666666666667 0.1666666666666667 0.1666666666666667 0.1666666666666667 0.1666666666666667 0.1666666666666667 0.1666666666666667 0.1666666666666667 0.1666666666666667 0.1666666666666667 0.1666666666666667 0.1666666666666667 0.1666666666666667 0.1666666666666667 0.1666666666666667 0.1666666666666667 0.1666666666666667 0.1666666666666667 0.1666666666666667 0.1666666666666667 0.1666666666666667 0.1666666666666667 0.1666666666666667 0.1666666666666667 0.1666666666666667 0.1666666666666667 0.1666666666666667 0.1666666666666667 0.1666666666666667 0.1666666666666667 0.1666666666666667 0.1666666666666667 0.1666666666666667 0.1666666666666667 0.1666666666666667 0.1666666666666667 0.1666666666666667 0.1666666666666667 0.1666666666666667 0.1666666666666667 0.1666666666666667 0.1666666666666667 0.1666666666666667 0.1666666666666667 0.1666666666666667 0.1666666666666667 0.1666666666666667 0.1666666666666667 0.1666666666666667 0.1666666666666667 0.1666666666666667 0.1666666666666667 0.1666666666666667 0.1666666666666667 0.1666666666666667 0.1666666666666667 0.1666666666666667 0.1666666666666667 0.1666666666666667 0.1666666666666667 0.1666666666666667 0.1666666666666667 0.1666666666666667 0.1666666666666667 0.1666666666666667 0.1666666666666667 0.1666666666666667 0.1666666666666667 0.1666666666666667 0.1666666666666667 0.1666666666666667 0.1666666666666667 0.1666666666666667 0.1666666666666667 0.1666666666666667 0.1666666666666667 0.1666666666666667 0.1666666666666667 0.1666666666666667 0.1666666666666667 0.1666666666666667 0.1666666666666667 0.1666666666666667 0.1666666666666667 0.1666666666666667 0.1666666666666667 0.1666666666666667 0.1666666666666667 0.1666666666666667 0.1666666666666667 0.1666666666666667 0.1666666666666667 0.1666666666666667 0.1666666666666667 0.1666666666666667 0.1666666666666667 0.1666666666666667 0.1666666666666667 0.1666666666666667 0.1666666666666667 0.1666666666666667 0.1666666666666667 0.1666666666666667 0.1666666666666667 0.1666666666666667 0.1666666666666667 0.1666666666666667 0.1666666666666667 0.1666666666666667 0.1666666666666667 0.1666666666666667 0.1666666666666667 0.1666666666666667 0.1666666666666667 0.1666666666666667 0.1666666666666667 0.1666666666666667 0.1666666666666667 0.1666666666666667 0.1666666666666667 0.1666666666666667 0.1666666666666667 0.1666666666666667 0.1666666666666667 0.1666666666666667 0.1666666666666667 0.1666666666666667 0.1666666666666667 0.1666666666666667 0.1666666666666667 0.1666666666666667 0.1666666666666667 0.1666666666666667 0.1666666666666667 0.1666666666666667 0.1666666666666667 0.1666666666666667 0.1666666666666667 0.1666666666666667 0.1666666666666667 0.1666666666666667 0.1666666666666667 0.1666666666666667 0.1666666666666667 0.1666666666666667 0.1666666666666667 0.1666666666666667 0.1666666666666667 0.1666666666666667 0.1666666666666667 0.1666666666666667 0.1666666666666667 0.1666666666666667 0.1666666666666667 0.1666666666666667 0.1666666666666667 0.1666666666666667 0.1666666666666667 0.1666666666666667 0.1666666666666667 0.1666666666666667 0.1666666666666667 0.1666666666666667 0.1666666666666667 0.1666666666666667 0.1666666666666667 0.1666666666666667 0.1666666666666667 0.1666666666666667 0.1666666666666667 0.1666666666666667 0.1666666666666667 0.1666666666666667 0.1666666666666667 0.1666666666666667 0.1666666666666667 0.1666666666666667 0.1666666666666667 0.1666666666666667 0.1666666666666667 0.1666666666666667 0.1666666666666667 0.1666666666666667 0.1666666666666667 0.1666666666666667 0.1666666666666667 0.1666666666666667 0.1666666666666667 0.1666666666666667 0.1666666666666667 0.1666666666666667 0.1666666666666667 0.1666666666666667 0.1666666666666667 0.1666666666666667 0.1666666666666667 0.1666666666666667 0.1666666666666667 0.1666666666666667 0.1666666666666667 0.1666666666666667 0.1666666666666667 0.1666666666666667 0.1666666666666667 0.1666666666666667 0.1666666666666667 0.1666666666666667 0.1666666666666667 0.1666666666666667 0.1666666666666667 0.1666666666666667 0.1666666666666667 0.1666666666666667 0.1666666666666667 0.1666666666666667 0.1666666666666667 0.1666666666666667 0.1666666666666667 0.1666666666666667 0.1666666666666667 0.1666666666666667 0.1666666666666667 0.1666666666666667 0.1666666666666667 0.1666666666666667 0.1666666666666667 0.1666666666666667 0.1666666666666667 0.1666666666666667 0.1666666666666667 0.1666666666666667 0.1666666666666667 0.1666666666666667 0.1666666666666667 0.1666666666666667 0.1666666666666667 0.1666666666666667 0.1666666666666667 0.1666666666666667 0.1666666666666667 0.1666666666666667 0.1666666666666667 0.1666666666666667 0.1666666666666667 0.1666666666666667 0.1666666666666667 0.1666666666666667 0.1666666666666667 0.1666666666666667 0.1666666666666667 0.1666666666666667 0.1666666666666667 0.1666666666666667 0.1666666666666667 0.1666666666666667 0.1666666666666667 0.1666666666666667 0.1666666666666667 0.1666666666666667 0.1666666666666667 0.1666666666666667 0.1666666666666667 0.1666666666666667 0.1666666666666667 0.1666666666666667 0.1666666666666667 0.1666666666666667 0.1666666666666667 0.1666666666666667 0.1666666666666667 0.1666666666666667 0.1666666666666667 0.1666666666666667 0.1666666666666667 0.1666666666666667 0.1666666666666667 0.1666666666666667 0.1666666666666667 0.1666666666666667 0.1666666666666667 0.1666666666666667 0.1666666666666667 0.1666666666666667 0.1666666666666667 0.1666666666666667 0.1666666666666667 0.1666666666666667 0.1666666666666667 0.1666666666666667 0.1666666666666667 0.1666666666666667 0.1666666666666667 0.1666666666666667 0.1666666666666667 0.1666666666666667 0.1666666666666667 0.1666666666666667 0.1666666666666667 0.1666666666666667 0.1666666666666667 0.1666666666666667 0.1666666666666667 0.1666666666666667 0.1666666666666667 0.1666666666666667 0.1666666666666667 0.1666666666666667 0.1666666666666667 0.1666666666666667 0.1666666666666667 0.1666666666666667 0.1666666666666667 0.1666666666666667 0.1666666666666667 0.1666666666666667 0.1666666666666667 0.1666666666666667 0.1666666666666667 0.1666666666666667 0.1666666666666667 0.1666666666666667 0.1666666666666667 0.1666666666666667 0.1666666666666667 0.1666666666666667 0.1666666666666667 0.1666666666666667 0.1666666666666667 0.1666666666666667 0.1666666666666667 0.1666666666666667 0.1666666666666667 0.1666666666666667 0.1666666666666667 0.1666666666666667 0.1666666666666667 0.1666666666666667 0.1666666666666667 0.1666666666666667 0.1666666666666667 0.1666666666666667 0.1666666666666667 0.1666666666666667 0.1666666666666667 0.1666666666666667 0.1666666666666667 0.1666666666666667 0.1666666666666667 0.1666666666666667 0.1666666666666667 0.1666666666666667 0.1666666666666667 0.1666666666666667 0.1666666666666667 0.1666666666666667 0.1666666666666667 0.1666666666666667 0.1666666666666667 0.1666666666666667 0.1666666666666667 0.1666666666666667 0.1666666666666667 0.1666666666666667 0.1666666666666667 0.1666666666666667 0.1666666666666667 0.1666666666666667 0.1666666666666667 0.1666666666666667 0.1666666666666667 0.1666666666666667 0.1666666666666667 0.1666666666666667 0.1666666666666667 0.1666666666666667 0.1666666666666667 0.1666666666666667 0.1666666666666667 0.1666666666666667 0.1666666666666667 0.1666666666666667 0.1666666666666667 0.1666666666666667 0.1666666666666667 0.1666666666666667 0.1666666666666667 0.1666666666666667 0.1666666666666667 0.1666666666666667 0.1666666666666667 0.1666666666666667 0.1666666666666667 0.1666666666666667 0.1666666666666667 0.1666666666666667 0.1666666666666667 0.1666666666666667 0.1666666666666667 0.1666666666666667 0.1666666666666667 0.1666666666666667 0.1666666666666667 0.1666666666666667 0.1666666666666667 0.1666666666666667 0.1666666666666667 0.1666666666666667 0.1666666666666667 0.1666666666666667 0.1666666666666667 0.1666666666666667 0.1666666666666667 0.1666666666666667 0.1666666666666667 0.1666666666666667 0.1666666666666667 0.1666666666666667 0.1666666666666667 0.1666666666666667 0.1666666666666667 0.1666666666666667 0.1666666666666667 0.1666666666666667 0.1666666666666667 0.1666666666666667 0.1666666666666667 0.1666666666666667 0.1666666666666667 0.1666666666666667 0.1666666666666667 0.1666666666666667 0.1666666666666667 0.1666666666666667 0.1666666666666667 0.1666666666666667 0.1666666666666667 0.1666666666666667 0.1666666666666667 0.1666666666666667 0.1666666666666667 0.1666666666666667 0.1666666666666667 0.1666666666666667 0.1666666666666667 0.1666666666666667 0.1666666666666667 0.1666666666666667 0.1666666666666667 0.1666666666666667 0.1666666666666667 0.1666666666666667 0.1666666666666667 0.1666666666666667 0.1666666666666667 0.1666666666666667 0.1666666666666667 0.1666666666666667 0.1666666666666667 0.1666666666666667 0.1666666666666667 0.1666666666666667 0.1666666666666667 0.1666666666666667 0.1666666666666667 0.1666666666666667 0.1666666666666667 0.1666666666666667 0.1666666666666667 0.1666666666666667 0.1666666666666667 0.1666666666666667 0.1666666666666667 0.1666666666666667 0.1666666666666667 0.1666666666666667 0.1666666666666667 0.1666666666666667 0.1666666666666667 0.1666666666666667 0.1666666666666667 0.1666666666666667 0.1666666666666667 0.1666666666666667 0.1666666666666667 0.1666666666666667 0.1666666666666667 0.1666666666666667 0.1666666666666667 0.1666666666666667 0.1666666666666667 0.1666666666666667 0.1666666666666667 0.1666666666666667 0.1666666666666667 0.1666666666666667 0.1666666666666667 0.1666666666666667 0.1666666666666667 0.1666666666666667 0.1666666666666667 0.1666666666666667 0.1666666666666667 0.1666666666666667 0.1666666666666667 0.1666666666666667 0.1666666666666667 0.1666666666666667 0.1666666666666667 0.1666666666666667 0.1666666666666667 0.1666666666666667 0.1666666666666667 0.1666666666666667 0.1666666666666667 0.1666666666666667 0.1666666666666667 0.1666666666666667 0.1666666666666667 0.1666666666666667 0.1666666666666667 0.1666666666666667 0.1666666666666667 0.1666666666666667 0.1666666666666667 0.1666666666666667 0.1666666666666667 0.1666666666666667 0.1666666666666667 0.1666666666666667 0.1666666666666667 0.1666666666666667 0.1666666666666667 0.1666666666666667 0.1666666666666667 0.1666666666666667 0.1666666666666667 0.1666666666666667 0.1666666666666667 0.1666666666666667 0.1666666666666667 0.1666666666666667 0.1666666666666667 0.1666666666666667 0.1666666666666667 0.1666666666666667 0.1666666666666667 0.1666666666666667 0.1666666666666667 0.1666666666666667 0.1666666666666667 0.1666666666666667 0.1666666666666667 0.1666666666666667 0.1666666666666667 0.1666666666666667 0.1666666666666667 0.1666666666666667 0.1666666666666667 0.1666666666666667 0.1666666666666667 0.1666666666666667 0.1666666666666667 0.1666666666666667 0.1666666666666667 0.1666666666666667 0.1666666666666667 0.1666666666666667 0.1666666666666667 0.1666666666666667 0.1666666666666667 0.1666666666666667 0.1666666666666667 0.1666666666666667 0.1666666666666667 0.1666666666666667 0.1666666666666667 0.1666666666666667 0.1666666666666667 0.1666666666666667 0.1666666666666667 0.1666666666666667 0.1666666666666667 0.1666666666666667 0.1666666666666667 0.1666666666666667 0.1666666666666667 0.1666666666666667 0.1666666666666667 0.1666666666666667 0.1666666666666667 0.1666666666666667 0.1666666666666667 0.1666666666666667 0.1666666666666667 0.1666666666666667 0.1666666666666667 0.1666666666666667 0.1666666666666667 0.1666666666666667 0.1666666666666667 0.1666666666666667 0.1666666666666667 0.1666666666666667 0.1666666666666667 0.1666666666666667 0.1666666666666667 0.1666666666666667 0.1666666666666667 0.1666666666666667 0.1666666666666667 0.1666666666666667 0.1666666666666667 0.1666666666666667 0.1666666666666667 0.1666666666666667 0.1666666666666667 0.1666666666666667 0.1666666666666667 0.1666666666666667 0.1666666666666667 0.1666666666666667 0.1666666666666667 0.1666666666666667 0.1666666666666667 0.1666666666666667 0.1666666666666667 0.1666666666666667 0.1666666666666667 0.1666666666666667 0.1666666666666667 0.1666666666666667 0.1666666666666667 0.1666666666666667 0.1666666666666667 0.1666666666666667 0.1666666666666667 0.1666666666666667 0.1666666666666667 0.1666666666666667 0.1666666666666667 0.1666666666666667 0.1666666666666667 0.1666666666666667 0.1666666666666667 0.1666666666666667 0.1666666666666667 0.1666666666666667 0.1666666666666667 0.1666666666666667 0.1666666666666667 0.1666666666666667 0.1666666666666667 0.1666666666666667 0.1666666666666667 0.1666666666666667 0.1666666666666667 0.1666666666666667 0.1666666666666667 0.1666666666666667 0.1666666666666667 0.1666666666666667 0.1666666666666667 0.1666666666666667 0.1666666666666667 0.1666666666666667 0.1666666666666667 0.1666666666666667 0.1666666666666667 0.1666666666666667 0.1666666666666667 0.1666666666666667 0.1666666666666667 0.1666666666666667 0.1666666666666667 0.1666666666666667 0.1666666666666667 0.1666666666666667 0.1666666666666667 0.1666666666666667 0.1666666666666667 0.1666666666666667 0.1666666666666667 0.1666666666666667 0.1666666666666667 0.1666666666666667 0.1666666666666667 0.1666666666666667 0.1666666666666667 0.1666666666666667 0.1666666666666667 0.1666666666666667 0.1666666666666667 0.1666666666666667 0.1666666666666667 0.1666666666666667 0.1666666666666667 0.1666666666666667 0.1666666666666667 0.1666666666666667 0.1666666666666667 0.1666666666666667 0.1666666666666667 0.1666666666666667 0.1666666666666667 0.1666666666666667 0.1666666666666667 0.1666666666666667 0.1666666666666667 0.1666666666666667 0.1666666666666667 0.1666666666666667 0.1666666666666667 0.1666666666666667 0.1666666666666667 0.1666666666666667 0.1666666666666667 0.1666666666666667 0.1666666666666667 0.1666666666666667 0.1666666666666667 0.1666666666666667 0.1666666666666667 0.1666666666666667 0.1666666666666667 0.1666666666666667 0.1666666666666667 0.1666666666666667 0.1666666666666667 0.1666666666666667 0.1666666666666667 0.1666666666666667 0.1666666666666667 0.1666666666666667 0.1666666666666667 0.1666666666666667 0.1666666666666667 0.1666666666666667 0.1666666666666667 0.1666666666666667 0.1666666666666667 0.1666666666666667 0.1666666666666667 0.1666666666666667 0.1666666666666667 0.1666666666666667 0.1666666666666667 0.1666666666666667 0.1666666666666667 0.1666666666666667 0.1666666666666667 0.1666666666666667 0.1666666666666667 0.1666666666666667 0.1666666666666667 0.1666666666666667 0.1666666666666667 0.1666666666666667 0.1666666666666667 0.1666666666666667 0.1666666666666667 0.1666666666666667 0.1666666666666667 0.1666666666666667 0.1666666666666667 0.1666666666666667 0.1666666666666667 0.1666666666666667 0.1666666666666667 0.1666666666666667 0.1666666666666667 0.1666666666666667 0.1666666666666667 0.1666666666666667 0.1666666666666667 0.1666666666666667 0.1666666666666667 0.1666666666666667 0.1666666666666667 0.1666666666666667 0.1666666666666667 0.1666666666666667 0.1666666666666667 0.1666666666666667 0.1666666666666667 0.1666666666666667 0.1666666666666667 0.1666666666666667 0.1666666666666667 0.1666666666666667 0.1666666666666667 0.1666666666666667 0.1666666666666667 0.1666666666666667 0.1666666666666667 0.1666666666666667 0.1666666666666667 0.1666666666666667 0.1666666666666667 0.1666666666666667 0.1666666666666667 0.1666666666666667 0.1666666666666667 0.1666666666666667 0.1666666666666667 0.1666666666666667 0.1666666666666667 0.1666666666666667 0.1666666666666667 0.1666666666666667 0.1666666666666667 0.1666666666666667 0.1666666666666667 0.1666666666666667 0.1666666666666667 0.1666666666666667 0.1666666666666667 0.1666666666666667 0.1666666666666667 0.1666666666666667 0.1666666666666667 0.1666666666666667 0.1666666666666667 0.1666666666666667 0.1666666666666667 0.1666666666666667 0.1666666666666667 0.1666666666666667 0.1666666666666667 0.1666666666666667 0.1666666666666667 0.1666666666666667 0.1666666666666667 0.1666666666666667 0.1666666666666667 0.1666666666666667 0.1666666666666667 0.1666666666666667 0.1666666666666667 0.1666666666666667 0.1666666666666667 0.1666666666666667 0.1666666666666667 0.1666666666666667 0.1666666666666667 0.1666666666666667 0.1666666666666667 0.1666666666666667 0.1666666666666667 0.1666666666666667 0.1666666666666667 0.1666666666666667 0.1666666666666667 0.1666666666666667 0.1666666666666667 0.1666666666666667 0.1666666666666667 0.1666666666666667 0.1666666666666667 0.1666666666666667 0.1666666666666667 0.1666666666666667 0.1666666666666667 0.1666666666666667 0.1666666666666667 0.1666666666666667 0.1666666666666667 0.1666666666666667 0.1666666666666667 0.1666666666666667 0.1666666666666667 0.1666666666666667 0.1666666666666667 0.1666666666666667 0.1666666666666667 0.1666666666666667 0.1666666666666667 0.1666666666666667 0.1666666666666667 0.1666666666666667 0.1666666666666667 0.1666666666666667 0.1666666666666667 0.1666666666666667 0.1666666666666667 0.1666666666666667 0.1666666666666667 0.1666666666666667 0.1666666666666667 0.1666666666666667 0.1666666666666667 0.1666666666666667 0.1666666666666667 0.1666666666666667 0.1666666666666667 0.1666666666666667 0.1666666666666667 0.1666666666666667 0.1666666666666667 0.1666666666666667 0.1666666666666667 0.1666666666666667 0.1666666666666667 0.1666666666666667 0.1666666666666667 0.1666666666666667 0.1666666666666667 0.1666666666666667 0.1666666666666667 0.1666666666666667 0.1666666666666667 0.1666666666666667 0.1666666666666667 0.1666666666666667 0.1666666666666667 0.1666666666666667 0.1666666666666667 0.1666666666666667 0.1666666666666667 0.1666666666666667 0.1666666666666667 0.1666666666666667 0.1666666666666667 0.1666666666666667 0.1666666666666667 0.1666666666666667 0.1666666666666667 0.1666666666666667 0.1666666666666667 0.1666666666666667 0.1666666666666667 0.1666666666666667 0.1666666666666667 0.1666666666666667 0.1666666666666667 0.1666666666666667 0.1666666666666667 0.1666666666666667 0.1666666666666667 0.1666666666666667 0.1666666666666667 0.1666666666666667 0.1666666666666667 0.1666666666666667 0.1666666666666667 0.1666666666666667 0.1666666666666667 0.1666666666666667 0.1666666666666667 0.1666666666666667 0.1666666666666667 0.1666666666666667 0.1666666666666667 0.1666666666666667 0.1666666666666667 0.1666666666666667 0.1666666666666667 0.1666666666666667 0.1666666666666667 0.1666666666666667 0.1666666666666667 0.1666666666666667 0.1666666666666667 0.1666666666666667 0.1666666666666667 0.1666666666666667 0.1666666666666667 0.1666666666666667 0.1666666666666667 0.1666666666666667 0.1666666666666667 0.1666666666666667 0.1666666666666667 0.1666666666666667 0.1666666666666667 0.1666666666666667 0.1666666666666667 0.1666666666666667 0.1666666666666667 0.1666666666666667 0.1666666666666667 0.1666666666666667 0.1666666666666667 0.1666666666666667 0.1666666666666667 0.1666666666666667 0.1666666666666667 0.1666666666666667 0.1666666666666667 0.1666666666666667 0.1666666666666667 0.1666666666666667 0.1666666666666667 0.1666666666666667 0.1666666666666667 0.1666666666666667 0.1666666666666667 0.1666666666666667 0.1666666666666667 0.1666666666666667 0.1666666666666667 0.1666666666666667 0.1666666666666667 0.1666666666666667 0.1666666666666667 0.1666666666666667 0.1666666666666667 0.1666666666666667 0.1666666666666667 0.1666666666666667 0.1666666666666667 0.1666666666666667 0.1666666666666667 0.1666666666666667 0.1666666666666667 0.1666666666666667 0.1666666666666667 0.1666666666666667 0.1666666666666667 0.1666666666666667 0.1666666666666667 0.1666666666666667 0.1666666666666667 0.1666666666666667 0.1666666666666667 0.1666666666666667 0.1666666666666667 0.1666666666666667 0.1666666666666667 0.1666666666666667 0.1666666666666667 0.1666666666666667 0.1666666666666667 0.1666666666666667 0.1666666666666667 0.1666666666666667 0.1666666666666667 0.1666666666666667 0.1666666666666667 0.1666666666666667 0.1666666666666667 0.1666666666666667 0.1666666666666667 0.1666666666666667 0.1666666666666667 0.1666666666666667 0.1666666666666667 0.1666666666666667 0.1666666666666667 0.1666666666666667 0.1666666666666667 0.1666666666666667 0.1666666666666667 0.1666666666666667 0.1666666666666667 0.1666666666666667 0.1666666666666667 0.1666666666666667 0.1666666666666667 0.1666666666666667 0.1666666666666667 0.1666666666666667 0.1666666666666667 0.1666666666666667 0.1666666666666667 0.1666666666666667 0.1666666666666667 0.1666666666666667 0.1666666666666667 0.1666666666666667 0.1666666666666667 0.1666666666666667 0.1666666666666667 0.1666666666666667 0.1666666666666667 0.1666666666666667 0.1666666666666667 