<?xml version="1.0" encoding="UTF-8"?>
<!-- This network was created in GeNIe Academic, which can be used for academic teaching and research purposes only -->
<smile version="1.0" id="Network1" numsamples="10000" discsamples="10000">
	<nodes>
		<cpt id="SuspectGender">
			<state id="Male" />
			<state id="Female" />
			<probabilities>0.825631500742942 0.1743684992570579</probabilities>
		</cpt>
		<cpt id="CommunicationMethod">
			<state id="offlineCommunication" />
			<state id="illegalOnline" />
			<state id="legalOnline" />
			<state id="legalOnlineAbroad" />
			<state id="financialExchange" />
			<state id="traditionalTelephoneCommunication" />
			<probabilities>0.2994304110946013 0.007602773650321941 0.007157008420009905 0.01830113917781079 0.02691926696384348 0.6405894006934125</probabilities>
		</cpt>
		<cpt id="SuspectAbility">
			<state id="Low" />
			<state id="Medium" />
			<state id="High" />
			<probabilities>0.241802872709262 0.7527984150569589 0.005398712233779099</probabilities>
		</cpt>
		<cpt id="SuspectAge">
			<state id="Kids" />
			<state id="Teenagers" />
			<state id="Adult20To30" />
			<state id="Adult30To40" />
			<state id="Adult40To50" />
			<state id="Adult50To60" />
			<state id="Adult60To70" />
			<state id="Adult70To80" />
			<state id="Adult80To90" />
			<state id="Adult90To100" />
			<parents>CommunicationMethod SuspectAbility</parents>
			<probabilities>0.0002450980392156863 0.06151960784313726 0.1791666666666666 0.4781862745098039 0.1816176470588235 0.08357843137254903 0.01495098039215686 0.0002450980392156863 0.0002450980392156863 0.0002450980392156863 6.273525721455458e-05 0.03582183186951066 0.3614178168130489 0.395922208281054 0.1474905897114178 0.04899623588456712 0.009473023839397741 0.0006900878293601004 6.273525721455458e-05 6.273525721455458e-05 0.006250000000000002 0.06875000000000002 0.5687500000000001 0.13125 0.06875000000000002 0.13125 0.006250000000000002 0.006250000000000002 0.006250000000000002 0.006250000000000002 0.008333333333333333 0.2583333333333333 0.2583333333333333 0.3416666666666666 0.09166666666666667 0.008333333333333333 0.008333333333333333 0.008333333333333333 0.008333333333333333 0.008333333333333333 0.002439024390243903 0.002439024390243903 0.4414634146341464 0.3682926829268293 0.07560975609756099 0.07560975609756099 0.02682926829268293 0.002439024390243903 0.002439024390243903 0.002439024390243903 0.1 0.1 0.1 0.1 0.1 0.1 0.1 0.1 0.1 0.1 0.007142857142857144 0.007142857142857144 0.2928571428571429 0.4357142857142858 0.15 0.07857142857142858 0.007142857142857144 0.007142857142857144 0.007142857142857144 0.007142857142857144 0.002777777777777778 0.002777777777777778 0.2805555555555555 0.3916666666666666 0.2805555555555555 0.03055555555555556 0.002777777777777778 0.002777777777777778 0.002777777777777778 0.002777777777777778 0.1 0.1 0.1 0.1 0.1 0.1 0.1 0.1 0.1 0.1 0.004 0.044 0.204 0.244 0.204 0.284 0.004 0.004 0.004 0.004 0.001020408163265306 0.06224489795918366 0.4806122448979592 0.3275510204081633 0.07244897959183673 0.0520408163265306 0.001020408163265306 0.001020408163265306 0.001020408163265306 0.001020408163265306 0.03333333333333333 0.3666666666666666 0.3666666666666666 0.03333333333333333 0.03333333333333333 0.03333333333333333 0.03333333333333333 0.03333333333333333 0.03333333333333333 0.03333333333333333 0.002040816326530612 0.3489795918367347 0.2061224489795918 0.2265306122448979 0.1244897959183673 0.08367346938775509 0.002040816326530612 0.002040816326530612 0.002040816326530612 0.002040816326530612 0.0007575757575757577 0.1068181818181818 0.4325757575757576 0.3492424242424242 0.09166666666666666 0.01590909090909091 0.0007575757575757577 0.0007575757575757577 0.0007575757575757577 0.0007575757575757577 0.03333333333333333 0.03333333333333333 0.03333333333333333 0.03333333333333333 0.3666666666666666 0.3666666666666666 0.03333333333333333 0.03333333333333333 0.03333333333333333 0.03333333333333333 8.888888888888889e-05 0.04897777777777778 0.3423111111111111 0.3467555555555556 0.1592 0.08364444444444444 0.01697777777777778 0.0009777777777777779 0.0009777777777777779 8.888888888888889e-05 3.153579312519711e-05 0.05048880479344056 0.4106275622831915 0.3639545884578997 0.111668243456323 0.05679596341847998 0.005707978555660676 0.0006622516556291392 3.153579312519711e-05 3.153579312519711e-05 0.005555555555555556 0.005555555555555556 0.3388888888888889 0.3388888888888889 0.1166666666666667 0.1166666666666667 0.06111111111111112 0.005555555555555556 0.005555555555555556 0.005555555555555556</probabilities>
		</cpt>
		<cpt id="SuspectEducation">
			<state id="primarySchool" />
			<state id="middleSchool" />
			<state id="highSchool" />
			<state id="vocationalCollege" />
			<state id="college" />
			<state id="majorCollege" />
			<state id="masterDegree" />
			<state id="doctoralDegree" />
			<state id="unknown" />
			<state id="noEducationExperience" />
			<parents>CommunicationMethod SuspectGender SuspectAge</parents>
			<probabilities>0.1 0.1 0.1 0.1 0.1 0.1 0.1 0.1 0.1 0.1 0.06455696202531645 0.6848101265822785 0.001265822784810127 0.2164556962025317 0.02658227848101266 0.001265822784810127 0.001265822784810127 0.001265822784810127 0.001265822784810127 0.001265822784810127 0.06524163568773234 0.4425650557620818 0.08382899628252788 0.1433085501858736 0.1358736059479554 0.1210037174721189 0.00762081784386617 0.0001858736059479554 0.0001858736059479554 0.0001858736059479554 0.1157037037037037 0.5394074074074074 0.09496296296296294 0.09051851851851851 0.08014814814814815 0.0757037037037037 0.003111111111111111 0.0001481481481481481 0.0001481481481481481 0.0001481481481481481 0.2305 0.4955 0.0755 0.07049999999999999 0.0655 0.0605 0.0005 0.0005 0.0005 0.0005 0.3050632911392405 0.4443037974683545 0.1151898734177215 0.03924050632911392 0.03924050632911392 0.05189873417721518 0.001265822784810127 0.001265822784810127 0.001265822784810127 0.001265822784810127 0.1615384615384615 0.4692307692307692 0.2384615384615385 0.007692307692307693 0.08461538461538462 0.007692307692307693 0.007692307692307693 0.007692307692307693 0.007692307692307693 0.007692307692307693 0.04999999999999999 0.04999999999999999 0.5499999999999999 0.04999999999999999 0.04999999999999999 0.04999999999999999 0.04999999999999999 0.04999999999999999 0.04999999999999999 0.04999999999999999 0.1 0.1 0.1 0.1 0.1 0.1 0.1 0.1 0.1 0.1 0.1 0.1 0.1 0.1 0.1 0.1 0.1 0.1 0.1 0.1 0.1 0.1 0.1 0.1 0.1 0.1 0.1 0.1 0.1 0.1 0.01666666666666667 0.1833333333333333 0.1833333333333333 0.5166666666666666 0.01666666666666667 0.01666666666666667 0.01666666666666667 0.01666666666666667 0.01666666666666667 0.01666666666666667 0.0008196721311475411 0.2877049180327869 0.07459016393442623 0.2057377049180328 0.2549180327868853 0.1729508196721312 0.0008196721311475411 0.0008196721311475411 0.0008196721311475411 0.0008196721311475411 0.05870967741935484 0.4135483870967742 0.1232258064516129 0.07806451612903226 0.1941935483870968 0.1232258064516129 0.007096774193548388 0.0006451612903225806 0.0006451612903225806 0.0006451612903225806 0.1705357142857143 0.4473214285714285 0.1080357142857143 0.1348214285714286 0.07232142857142856 0.06339285714285714 0.0008928571428571428 0.0008928571428571428 0.0008928571428571428 0.0008928571428571428 0.1918918918918919 0.354054054054054 0.245945945945946 0.1108108108108108 0.02972972972972973 0.05675675675675676 0.002702702702702703 0.002702702702702703 0.002702702702702703 0.002702702702702703 0.11 0.01 0.21 0.41 0.21 0.01 0.01 0.01 0.01 0.01 0.1 0.1 0.1 0.1 0.1 0.1 0.1 0.1 0.1 0.1 0.1 0.1 0.1 0.1 0.1 0.1 0.1 0.1 0.1 0.1 0.1 0.1 0.1 0.1 0.1 0.1 0.1 0.1 0.1 0.1 0.1 0.1 0.1 0.1 0.1 0.1 0.1 0.1 0.1 0.1 0.025 0.775 0.025 0.025 0.025 0.025 0.025 0.025 0.025 0.025 0.1 0.3380952380952381 0.1 0.1952380952380952 0.1 0.1476190476190476 0.004761904761904762 0.004761904761904762 0.004761904761904762 0.004761904761904762 0.1166666666666667 0.3388888888888889 0.06111111111111112 0.1166666666666667 0.1722222222222222 0.1722222222222222 0.005555555555555556 0.005555555555555556 0.005555555555555556 0.005555555555555556 0.02 0.6200000000000001 0.22 0.02 0.02 0.02 0.02 0.02 0.02 0.02 0.03333333333333333 0.03333333333333333 0.03333333333333333 0.03333333333333333 0.3666666666666666 0.3666666666666666 0.03333333333333333 0.03333333333333333 0.03333333333333333 0.03333333333333333 0.1 0.1 0.1 0.1 0.1 0.1 0.1 0.1 0.1 0.1 0.1 0.1 0.1 0.1 0.1 0.1 0.1 0.1 0.1 0.1 0.1 0.1 0.1 0.1 0.1 0.1 0.1 0.1 0.1 0.1 0.1 0.1 0.1 0.1 0.1 0.1 0.1 0.1 0.1 0.1 0.1 0.1 0.1 0.1 0.1 0.1 0.1 0.1 0.1 0.1 0.1 0.1 0.1 0.1 0.1 0.1 0.1 0.1 0.1 0.1 0.04999999999999999 0.5499999999999999 0.04999999999999999 0.04999999999999999 0.04999999999999999 0.04999999999999999 0.04999999999999999 0.04999999999999999 0.04999999999999999 0.04999999999999999 0.03333333333333333 0.03333333333333333 0.3666666666666666 0.03333333333333333 0.3666666666666666 0.03333333333333333 0.03333333333333333 0.03333333333333333 0.03333333333333333 0.03333333333333333 0.1 0.1 0.1 0.1 0.1 0.1 0.1 0.1 0.1 0.1 0.04999999999999999 0.5499999999999999 0.04999999999999999 0.04999999999999999 0.04999999999999999 0.04999999999999999 0.04999999999999999 0.04999999999999999 0.04999999999999999 0.04999999999999999 0.04999999999999999 0.04999999999999999 0.5499999999999999 0.04999999999999999 0.04999999999999999 0.04999999999999999 0.04999999999999999 0.04999999999999999 0.04999999999999999 0.04999999999999999 0.1 0.1 0.1 0.1 0.1 0.1 0.1 0.1 0.1 0.1 0.1 0.1 0.1 0.1 0.1 0.1 0.1 0.1 0.1 0.1 0.1 0.1 0.1 0.1 0.1 0.1 0.1 0.1 0.1 0.1 0.1 0.1 0.1 0.1 0.1 0.1 0.1 0.1 0.1 0.1 0.1 0.1 0.1 0.1 0.1 0.1 0.1 0.1 0.1 0.1 0.2928571428571429 0.4357142857142858 0.0785714285714286 0.0785714285714286 0.007142857142857145 0.0785714285714286 0.007142857142857145 0.007142857142857145 0.007142857142857145 0.007142857142857145 0.175 0.5916666666666667 0.008333333333333335 0.008333333333333335 0.09166666666666669 0.09166666666666669 0.008333333333333335 0.008333333333333335 0.008333333333333335 0.008333333333333335 0.1375 0.5125000000000001 0.1375 0.0125 0.0125 0.1375 0.0125 0.0125 0.0125 0.0125 0.5499999999999999 0.04999999999999999 0.04999999999999999 0.04999999999999999 0.04999999999999999 0.04999999999999999 0.04999999999999999 0.04999999999999999 0.04999999999999999 0.04999999999999999 0.1 0.1 0.1 0.1 0.1 0.1 0.1 0.1 0.1 0.1 0.1 0.1 0.1 0.1 0.1 0.1 0.1 0.1 0.1 0.1 0.1 0.1 0.1 0.1 0.1 0.1 0.1 0.1 0.1 0.1 0.1 0.1 0.1 0.1 0.1 0.1 0.1 0.1 0.1 0.1 0.1 0.1 0.1 0.1 0.1 0.1 0.1 0.1 0.1 0.1 0.1 0.1 0.1 0.1 0.1 0.1 0.1 0.1 0.1 0.1 0.04999999999999999 0.04999999999999999 0.04999999999999999 0.5499999999999999 0.04999999999999999 0.04999999999999999 0.04999999999999999 0.04999999999999999 0.04999999999999999 0.04999999999999999 0.01 0.61 0.11 0.01 0.21 0.01 0.01 0.01 0.01 0.01 0.01666666666666667 0.1833333333333333 0.1833333333333333 0.35 0.1833333333333333 0.01666666666666667 0.01666666666666667 0.01666666666666667 0.01666666666666667 0.01666666666666667 0.04999999999999999 0.5499999999999999 0.04999999999999999 0.04999999999999999 0.04999999999999999 0.04999999999999999 0.04999999999999999 0.04999999999999999 0.04999999999999999 0.04999999999999999 0.1 0.1 0.1 0.1 0.1 0.1 0.1 0.1 0.1 0.1 0.1 0.1 0.1 0.1 0.1 0.1 0.1 0.1 0.1 0.1 0.1 0.1 0.1 0.1 0.1 0.1 0.1 0.1 0.1 0.1 0.1 0.1 0.1 0.1 0.1 0.1 0.1 0.1 0.1 0.1 0.1 0.1 0.1 0.1 0.1 0.1 0.1 0.1 0.1 0.1 0.01111111111111111 0.1222222222222223 0.01111111111111111 0.01111111111111111 0.01111111111111111 0.788888888888889 0.01111111111111111 0.01111111111111111 0.01111111111111111 0.01111111111111111 0.10625 0.54375 0.08541666666666664 0.04374999999999999 0.002083333333333333 0.2104166666666666 0.002083333333333333 0.002083333333333333 0.002083333333333333 0.002083333333333333 0.1758620689655172 0.4517241379310344 0.1068965517241379 0.1758620689655172 0.03793103448275862 0.03793103448275862 0.003448275862068965 0.003448275862068965 0.003448275862068965 0.003448275862068965 0.1909090909090909 0.3727272727272727 0.1 0.009090909090909092 0.1909090909090909 0.1 0.009090909090909092 0.009090909090909092 0.009090909090909092 0.009090909090909092 0.5125000000000001 0.1375 0.0125 0.1375 0.0125 0.1375 0.0125 0.0125 0.0125 0.0125 0.1 0.1 0.1 0.1 0.1 0.1 0.1 0.1 0.1 0.1 0.1 0.1 0.1 0.1 0.1 0.1 0.1 0.1 0.1 0.1 0.1 0.1 0.1 0.1 0.1 0.1 0.1 0.1 0.1 0.1 0.1 0.1 0.1 0.1 0.1 0.1 0.1 0.1 0.1 0.1 0.1 0.1 0.1 0.1 0.1 0.1 0.1 0.1 0.1 0.1 0.1 0.1 0.1 0.1 0.1 0.1 0.1 0.1 0.1 0.1 0.01428571428571429 0.1571428571428571 0.01428571428571429 0.1571428571428571 0.3 0.3 0.01428571428571429 0.01428571428571429 0.01428571428571429 0.01428571428571429 0.1 0.3727272727272727 0.1 0.1909090909090909 0.1909090909090909 0.009090909090909092 0.009090909090909092 0.009090909090909092 0.009090909090909092 0.009090909090909092 0.03333333333333333 0.3666666666666666 0.03333333333333333 0.03333333333333333 0.3666666666666666 0.03333333333333333 0.03333333333333333 0.03333333333333333 0.03333333333333333 0.03333333333333333 0.35 0.01666666666666667 0.01666666666666667 0.1833333333333333 0.35 0.01666666666666667 0.01666666666666667 0.01666666666666667 0.01666666666666667 0.01666666666666667 0.1 0.1 0.1 0.1 0.1 0.1 0.1 0.1 0.1 0.1 0.1 0.1 0.1 0.1 0.1 0.1 0.1 0.1 0.1 0.1 0.1 0.1 0.1 0.1 0.1 0.1 0.1 0.1 0.1 0.1 0.1 0.1 0.1 0.1 0.1 0.1 0.1 0.1 0.1 0.1 0.1 0.1 0.1 0.1 0.1 0.1 0.1 0.1 0.1 0.1 0.003571428571428571 0.8249999999999998 0.07499999999999998 0.03928571428571428 0.003571428571428571 0.03928571428571428 0.003571428571428571 0.003571428571428571 0.003571428571428571 0.003571428571428571 0.0894736842105263 0.4228070175438596 0.0543859649122807 0.1771929824561403 0.1421052631578947 0.1070175438596491 0.001754385964912281 0.001754385964912281 0.001754385964912281 0.001754385964912281 0.09999999999999999 0.5390243902439025 0.124390243902439 0.148780487804878 0.02682926829268293 0.05121951219512196 0.002439024390243903 0.002439024390243903 0.002439024390243903 0.002439024390243903 0.4437500000000001 0.25625 0.1937500000000001 0.006250000000000002 0.006250000000000002 0.06875000000000002 0.006250000000000002 0.006250000000000002 0.006250000000000002 0.006250000000000002 0.03333333333333333 0.3666666666666666 0.3666666666666666 0.03333333333333333 0.03333333333333333 0.03333333333333333 0.03333333333333333 0.03333333333333333 0.03333333333333333 0.03333333333333333 0.1 0.1 0.1 0.1 0.1 0.1 0.1 0.1 0.1 0.1 0.1 0.1 0.1 0.1 0.1 0.1 0.1 0.1 0.1 0.1 0.1 0.1 0.1 0.1 0.1 0.1 0.1 0.1 0.1 0.1 0.1 0.1 0.1 0.1 0.1 0.1 0.1 0.1 0.1 0.1 0.1 0.1 0.1 0.1 0.1 0.1 0.1 0.1 0.1 0.1 0.02 0.22 0.02 0.6200000000000001 0.02 0.02 0.02 0.02 0.02 0.02 0.008333333333333335 0.3416666666666667 0.008333333333333335 0.2583333333333334 0.2583333333333334 0.09166666666666669 0.008333333333333335 0.008333333333333335 0.008333333333333335 0.008333333333333335 0.005555555555555556 0.1722222222222222 0.1722222222222222 0.3388888888888889 0.1166666666666667 0.1722222222222222 0.005555555555555556 0.005555555555555556 0.005555555555555556 0.005555555555555556 0.02 0.02 0.22 0.22 0.42 0.02 0.02 0.02 0.02 0.02 0.1833333333333333 0.5166666666666666 0.1833333333333333 0.01666666666666667 0.01666666666666667 0.01666666666666667 0.01666666666666667 0.01666666666666667 0.01666666666666667 0.01666666666666667 0.1 0.1 0.1 0.1 0.1 0.1 0.1 0.1 0.1 0.1 0.1 0.1 0.1 0.1 0.1 0.1 0.1 0.1 0.1 0.1 0.1 0.1 0.1 0.1 0.1 0.1 0.1 0.1 0.1 0.1 0.1 0.1 0.1 0.1 0.1 0.1 0.1 0.1 0.1 0.1 0.1 0.1 0.1 0.1 0.1 0.1 0.1 0.1 0.1 0.1 0.03678756476683939 0.3580310880829016 0.08341968911917101 0.3580310880829016 0.03160621761658031 0.1248704663212436 0.0005181347150259068 0.005699481865284976 0.0005181347150259068 0.0005181347150259068 0.08929279576999338 0.4997356245869134 0.09458030403172504 0.1619960343688037 0.064177131526768 0.08797091870456047 0.0007270323859881031 6.609385327164574e-05 6.609385327164574e-05 0.00138797091870456 0.1602941176470588 0.4993034055727555 0.1130804953560371 0.09527863777089783 0.04961300309597523 0.07747678018575851 0.003173374613003096 0.0008513931888544893 7.739938080495357e-05 0.0008513931888544893 0.3 0.4270983213429256 0.103357314148681 0.05059952038369304 0.04580335731414868 0.06738609112709833 0.002637889688249401 0.0002398081534772182 0.0002398081534772182 0.002637889688249401 0.3274038461538462 0.4620192307692308 0.1158653846153846 0.03894230769230769 0.03413461538461539 0.01971153846153846 0.0004807692307692308 0.0004807692307692308 0.0004807692307692308 0.0004807692307692308 0.2394736842105263 0.4236842105263158 0.1868421052631579 0.002631578947368421 0.002631578947368421 0.08157894736842106 0.002631578947368421 0.002631578947368421 0.002631578947368421 0.05526315789473684 0.02499999999999999 0.275 0.275 0.275 0.02499999999999999 0.02499999999999999 0.02499999999999999 0.02499999999999999 0.02499999999999999 0.02499999999999999 0.04999999999999999 0.5499999999999999 0.04999999999999999 0.04999999999999999 0.04999999999999999 0.04999999999999999 0.04999999999999999 0.04999999999999999 0.04999999999999999 0.04999999999999999 0.1 0.1 0.1 0.1 0.1 0.1 0.1 0.1 0.1 0.1 0.1 0.1 0.1 0.1 0.1 0.1 0.1 0.1 0.1 0.1 0.004166666666666667 0.2541666666666667 0.04583333333333334 0.4208333333333333 0.004166666666666667 0.2541666666666667 0.004166666666666667 0.004166666666666667 0.004166666666666667 0.004166666666666667 0.01153846153846154 0.3082417582417583 0.08296703296703298 0.1928571428571429 0.1543956043956044 0.2423076923076923 0.006043956043956045 0.0005494505494505496 0.0005494505494505496 0.0005494505494505496 0.08884615384615385 0.3503846153846154 0.1042307692307692 0.1696153846153846 0.135 0.1465384615384616 0.0003846153846153847 0.0003846153846153847 0.0003846153846153847 0.004230769230769232 0.2341666666666667 0.3425 0.1175 0.1258333333333333 0.0925 0.05916666666666667 0.0008333333333333334 0.0008333333333333334 0.0008333333333333334 0.02583333333333333 0.2014285714285714 0.3585714285714286 0.1728571428571428 0.1157142857142857 0.05857142857142857 0.03 0.001428571428571429 0.01571428571428572 0.001428571428571429 0.04428571428571428 0.04999999999999999 0.5499999999999999 0.04999999999999999 0.04999999999999999 0.04999999999999999 0.04999999999999999 0.04999999999999999 0.04999999999999999 0.04999999999999999 0.04999999999999999 0.1 0.1 0.1 0.1 0.1 0.1 0.1 0.1 0.1 0.1 0.1 0.1 0.1 0.1 0.1 0.1 0.1 0.1 0.1 0.1 0.1 0.1 0.1 0.1 0.1 0.1 0.1 0.1 0.1 0.1</probabilities>
		</cpt>
		<cpt id="SuspectOccupation">
			<state id="RepairManufacturingPersonnel" />
			<state id="LegalProfessionals" />
			<state id="HeadsofEnterprises" />
			<state id="Military" />
			<state id="Management" />
			<state id="NewsPublishingCultural" />
			<state id="PublicInstitutionStaff" />
			<state id="StateOrgans" />
			<state id="SocialProductionLifeService" />
			<state id="HeadsofStateOrgans" />
			<state id="HeadsofMassOrganizations" />
			<state id="HeadsofPartyStateOrgans" />
			<state id="Manufacturing" />
			<state id="Student" />
			<state id="Clerical" />
			<state id="EducationCultureSportsEntertainment" />
			<state id="PublicInstitutionWorker" />
			<state id="ProfessionalTechnical" />
			<state id="PublicInstitutionManager" />
			<state id="EducationProfessionals" />
			<state id="AgricultureForestryAnimalHusbandryFisheryWorkers" />
			<state id="Education" />
			<state id="CulturalProfessionals" />
			<state id="TeachingStaff" />
			<state id="Administrative" />
			<parents>CommunicationMethod SuspectGender SuspectAge SuspectEducation</parents>
			<probabilities>0.04 0.04 0.04 0.04 0.04 0.04 0.04 0.04 0.04 0.04 0.04 0.04 0.04 0.04 0.04 0.04 0.04 0.04 0.04 0.04 0.04 0.04 0.04 0.04 0.04 0.04 0.04 0.04 0.04 0.04 0.04 0.04 0.04 0.04 0.04 0.04 0.04 0.04 0.04 0.04 0.04 0.04 0.04 0.04 0.04 0.04 0.04 0.04 0.04 0.04 0.04 0.04 0.04 0.04 0.04 0.04 0.04 0.04 0.04 0.04 0.04 0.04 0.04 0.04 0.04 0.04 0.04 0.04 0.04 0.04 0.04 0.04 0.04 0.04 0.04 0.04 0.04 0.04 0.04 0.04 0.04 0.04 0.04 0.04 0.04 0.04 0.04 0.04 0.04 0.04 0.04 0.04 0.04 0.04 0.04 0.04 0.04 0.04 0.04 0.04 0.04 0.04 0.04 0.04 0.04 0.04 0.04 0.04 0.04 0.04 0.04 0.04 0.04 0.04 0.04 0.04 0.04 0.04 0.04 0.04 0.04 0.04 0.04 0.04 0.04 0.04 0.04 0.04 0.04 0.04 0.04 0.04 0.04 0.04 0.04 0.04 0.04 0.04 0.04 0.04 0.04 0.04 0.04 0.04 0.04 0.04 0.04 0.04 0.04 0.04 0.04 0.04 0.04 0.04 0.04 0.04 0.04 0.04 0.04 0.04 0.04 0.04 0.04 0.04 0.04 0.04 0.04 0.04 0.04 0.04 0.04 0.04 0.04 0.04 0.04 0.04 0.04 0.04 0.04 0.04 0.04 0.04 0.04 0.04 0.04 0.04 0.04 0.04 0.04 0.04 0.04 0.04 0.04 0.04 0.04 0.04 0.04 0.04 0.04 0.04 0.04 0.04 0.04 0.04 0.04 0.04 0.04 0.04 0.04 0.04 0.04 0.04 0.04 0.04 0.04 0.04 0.04 0.04 0.04 0.04 0.04 0.04 0.04 0.04 0.04 0.04 0.04 0.04 0.04 0.04 0.04 0.04 0.04 0.04 0.04 0.04 0.04 0.04 0.04 0.04 0.04 0.04 0.04 0.04 0.04 0.04 0.04 0.04 0.04 0.04 0.006666666666666665 0.006666666666666665 0.006666666666666665 0.006666666666666665 0.006666666666666665 0.006666666666666665 0.006666666666666665 0.006666666666666665 0.1733333333333333 0.006666666666666665 0.006666666666666665 0.006666666666666665 0.1733333333333333 0.006666666666666665 0.006666666666666665 0.006666666666666665 0.006666666666666665 0.006666666666666665 0.006666666666666665 0.006666666666666665 0.5066666666666666 0.006666666666666665 0.006666666666666665 0.006666666666666665 0.006666666666666665 0.0007272727272727273 0.0007272727272727273 0.0007272727272727273 0.0007272727272727273 0.0007272727272727273 0.0007272727272727273 0.0007272727272727273 0.0007272727272727273 0.6370909090909092 0.0007272727272727273 0.0007272727272727273 0.0007272727272727273 0.05527272727272728 0.0007272727272727273 0.0007272727272727273 0.0007272727272727273 0.0007272727272727273 0.05527272727272728 0.0007272727272727273 0.0007272727272727273 0.2370909090909091 0.0007272727272727273 0.0007272727272727273 0.0007272727272727273 0.0007272727272727273 0.04 0.04 0.04 0.04 0.04 0.04 0.04 0.04 0.04 0.04 0.04 0.04 0.04 0.04 0.04 0.04 0.04 0.04 0.04 0.04 0.04 0.04 0.04 0.04 0.04 0.002222222222222223 0.002222222222222223 0.002222222222222223 0.002222222222222223 0.002222222222222223 0.002222222222222223 0.002222222222222223 0.002222222222222223 0.6133333333333334 0.002222222222222223 0.002222222222222223 0.002222222222222223 0.05777777777777779 0.002222222222222223 0.002222222222222223 0.002222222222222223 0.002222222222222223 0.002222222222222223 0.002222222222222223 0.002222222222222223 0.2800000000000001 0.002222222222222223 0.002222222222222223 0.002222222222222223 0.002222222222222223 0.01333333333333333 0.01333333333333333 0.01333333333333333 0.01333333333333333 0.01333333333333333 0.01333333333333333 0.01333333333333333 0.01333333333333333 0.01333333333333333 0.01333333333333333 0.01333333333333333 0.01333333333333333 0.01333333333333333 0.6799999999999998 0.01333333333333333 0.01333333333333333 0.01333333333333333 0.01333333333333333 0.01333333333333333 0.01333333333333333 0.01333333333333333 0.01333333333333333 0.01333333333333333 0.01333333333333333 0.01333333333333333 0.04 0.04 0.04 0.04 0.04 0.04 0.04 0.04 0.04 0.04 0.04 0.04 0.04 0.04 0.04 0.04 0.04 0.04 0.04 0.04 0.04 0.04 0.04 0.04 0.04 0.04 0.04 0.04 0.04 0.04 0.04 0.04 0.04 0.04 0.04 0.04 0.04 0.04 0.04 0.04 0.04 0.04 0.04 0.04 0.04 0.04 0.04 0.04 0.04 0.04 0.04 0.04 0.04 0.04 0.04 0.04 0.04 0.04 0.04 0.04 0.04 0.04 0.04 0.04 0.04 0.04 0.04 0.04 0.04 0.04 0.04 0.04 0.04 0.04 0.04 0.04 0.04 0.04 0.04 0.04 0.04 0.04 0.04 0.04 0.04 0.04 0.04 0.04 0.04 0.04 0.04 0.04 0.04 0.04 0.04 0.04 0.04 0.04 0.04 0.04 0.04 0.04 0.04 0.04 0.04 0.04 0.04 0.04 0.04 0.04 0.04 0.04 0.04 0.04 0.04 0.04 0.04 0.04 0.04 0.04 0.04 0.04 0.04 0.04 0.04 0.001111111111111111 0.001111111111111111 0.001111111111111111 0.001111111111111111 0.001111111111111111 0.001111111111111111 0.001111111111111111 0.001111111111111111 0.5011111111111112 0.001111111111111111 0.001111111111111111 0.02888888888888889 0.2511111111111111 0.001111111111111111 0.001111111111111111 0.001111111111111111 0.001111111111111111 0.001111111111111111 0.001111111111111111 0.001111111111111111 0.1955555555555556 0.001111111111111111 0.001111111111111111 0.001111111111111111 0.001111111111111111 0.0001673640167364017 0.0001673640167364017 0.0294560669456067 0.0001673640167364017 0.0001673640167364017 0.0001673640167364017 0.0001673640167364017 0.0001673640167364017 0.7491213389121339 0.0001673640167364017 0.0001673640167364017 0.008535564853556487 0.1005857740585774 0.0001673640167364017 0.004351464435146444 0.0001673640167364017 0.0001673640167364017 0.0001673640167364017 0.0001673640167364017 0.0001673640167364017 0.1047698744769875 0.0001673640167364017 0.0001673640167364017 0.0001673640167364017 0.0001673640167364017 0.0008695652173913045 0.0008695652173913045 0.0008695652173913045 0.0008695652173913045 0.0008695652173913045 0.0008695652173913045 0.0008695652173913045 0.0008695652173913045 0.8269565217391305 0.0008695652173913045 0.0008695652173913045 0.02260869565217392 0.06608695652173914 0.0008695652173913045 0.0008695652173913045 0.0008695652173913045 0.0008695652173913045 0.06608695652173914 0.0008695652173913045 0.0008695652173913045 0.0008695652173913045 0.0008695652173913045 0.0008695652173913045 0.0008695652173913045 0.0008695652173913045 0.0005128205128205127 0.0005128205128205127 0.02615384615384615 0.0005128205128205127 0.0005128205128205127 0.0005128205128205127 0.0005128205128205127 0.0005128205128205127 0.8979487179487178 0.0005128205128205127 0.0005128205128205127 0.0005128205128205127 0.02615384615384615 0.0005128205128205127 0.0005128205128205127 0.0005128205128205127 0.0005128205128205127 0.02615384615384615 0.0005128205128205127 0.0005128205128205127 0.0005128205128205127 0.01333333333333333 0.0005128205128205127 0.0005128205128205127 0.0005128205128205127 0.0005405405405405403 0.0005405405405405403 0.0005405405405405403 0.0005405405405405403 0.0005405405405405403 0.0005405405405405403 0.0005405405405405403 0.0005405405405405403 0.9599999999999997 0.0005405405405405403 0.0005405405405405403 0.0005405405405405403 0.01405405405405405 0.0005405405405405403 0.0005405405405405403 0.0005405405405405403 0.0005405405405405403 0.01405405405405405 0.0005405405405405403 0.0005405405405405403 0.0005405405405405403 0.0005405405405405403 0.0005405405405405403 0.0005405405405405403 0.0005405405405405403 0.000606060606060606 0.000606060606060606 0.000606060606060606 0.000606060606060606 0.000606060606060606 0.000606060606060606 0.000606060606060606 0.000606060606060606 0.8945454545454543 0.000606060606060606 0.000606060606060606 0.000606060606060606 0.09151515151515149 0.000606060606060606 0.000606060606060606 0.000606060606060606 0.000606060606060606 0.000606060606060606 0.000606060606060606 0.000606060606060606 0.000606060606060606 0.000606060606060606 0.000606060606060606 0.000606060606060606 0.000606060606060606 0.007999999999999998 0.007999999999999998 0.007999999999999998 0.007999999999999998 0.007999999999999998 0.007999999999999998 0.007999999999999998 0.007999999999999998 0.208 0.007999999999999998 0.007999999999999998 0.007999999999999998 0.208 0.007999999999999998 0.007999999999999998 0.007999999999999998 0.007999999999999998 0.4079999999999999 0.007999999999999998 0.007999999999999998 0.007999999999999998 0.007999999999999998 0.007999999999999998 0.007999999999999998 0.007999999999999998 0.04 0.04 0.04 0.04 0.04 0.04 0.04 0.04 0.04 0.04 0.04 0.04 0.04 0.04 0.04 0.04 0.04 0.04 0.04 0.04 0.04 0.04 0.04 0.04 0.04 0.04 0.04 0.04 0.04 0.04 0.04 0.04 0.04 0.04 0.04 0.04 0.04 0.04 0.04 0.04 0.04 0.04 0.04 0.04 0.04 0.04 0.04 0.04 0.04 0.04 0.04 0.04 0.04 0.04 0.04 0.04 0.04 0.04 0.04 0.04 0.04 0.04 0.04 0.04 0.04 0.04 0.04 0.04 0.04 0.04 0.04 0.04 0.04 0.04 0.04 0.0005063291139240506 0.0005063291139240506 0.02582278481012658 0.0005063291139240506 0.0005063291139240506 0.0005063291139240506 0.0005063291139240506 0.0005063291139240506 0.8612658227848101 0.0005063291139240506 0.0005063291139240506 0.0005063291139240506 0.1017721518987341 0.0005063291139240506 0.0005063291139240506 0.0005063291139240506 0.0005063291139240506 0.0005063291139240506 0.0005063291139240506 0.0005063291139240506 0.0005063291139240506 0.0005063291139240506 0.0005063291139240506 0.0005063291139240506 0.0005063291139240506 0.0001095890410958904 0.0001095890410958904 0.02202739726027396 0.0001095890410958904 0.0001095890410958904 0.0001095890410958904 0.0001095890410958904 0.0001095890410958904 0.7343561643835614 0.0001095890410958904 0.0001095890410958904 0.0001095890410958904 0.1261369863013698 0.0001095890410958904 0.0001095890410958904 0.0001095890410958904 0.0001095890410958904 0.00284931506849315 0.0001095890410958904 0.0001095890410958904 0.1124383561643835 0.0001095890410958904 0.0001095890410958904 0.0001095890410958904 0.0001095890410958904 0.0006153846153846154 0.0006153846153846154 0.016 0.0006153846153846154 0.0006153846153846154 0.0006153846153846154 0.0006153846153846154 0.0006153846153846154 0.8929230769230769 0.0006153846153846154 0.0006153846153846154 0.0006153846153846154 0.0006153846153846154 0.0006153846153846154 0.0006153846153846154 0.0006153846153846154 0.0006153846153846154 0.0006153846153846154 0.0006153846153846154 0.0006153846153846154 0.07753846153846154 0.0006153846153846154 0.0006153846153846154 0.0006153846153846154 0.0006153846153846154 0.0006451612903225808 0.0006451612903225808 0.08129032258064518 0.0006451612903225808 0.0006451612903225808 0.0006451612903225808 0.0006451612903225808 0.0006451612903225808 0.7425806451612904 0.0006451612903225808 0.0006451612903225808 0.0006451612903225808 0.1458064516129032 0.0006451612903225808 0.0006451612903225808 0.0006451612903225808 0.0006451612903225808 0.0167741935483871 0.0006451612903225808 0.0006451612903225808 0.0006451612903225808 0.0006451612903225808 0.0006451612903225808 0.0006451612903225808 0.0006451612903225808 0.0007272727272727273 0.0007272727272727273 0.128 0.0007272727272727273 0.0007272727272727273 0.0007272727272727273 0.0007272727272727273 0.0007272727272727273 0.6552727272727273 0.0007272727272727273 0.0007272727272727273 0.0007272727272727273 0.1098181818181818 0.0007272727272727273 0.01890909090909091 0.0007272727272727273 0.0007272727272727273 0.07345454545454547 0.0007272727272727273 0.0007272727272727273 0.0007272727272727273 0.0007272727272727273 0.0007272727272727273 0.0007272727272727273 0.0007272727272727273 0.0007692307692307693 0.0007692307692307693 0.05846153846153847 0.0007692307692307693 0.0007692307692307693 0.0007692307692307693 0.0007692307692307693 0.0007692307692307693 0.8661538461538462 0.0007692307692307693 0.0007692307692307693 0.0007692307692307693 0.05846153846153847 0.0007692307692307693 0.0007692307692307693 0.0007692307692307693 0.0007692307692307693 0.0007692307692307693 0.0007692307692307693 0.0007692307692307693 0.0007692307692307693 0.0007692307692307693 0.0007692307692307693 0.0007692307692307693 0.0007692307692307693 0.01333333333333333 0.01333333333333333 0.01333333333333333 0.01333333333333333 0.01333333333333333 0.01333333333333333 0.01333333333333333 0.01333333333333333 0.6799999999999998 0.01333333333333333 0.01333333333333333 0.01333333333333333 0.01333333333333333 0.01333333333333333 0.01333333333333333 0.01333333333333333 0.01333333333333333 0.01333333333333333 0.01333333333333333 0.01333333333333333 0.01333333333333333 0.01333333333333333 0.01333333333333333 0.01333333333333333 0.01333333333333333 0.04 0.04 0.04 0.04 0.04 0.04 0.04 0.04 0.04 0.04 0.04 0.04 0.04 0.04 0.04 0.04 0.04 0.04 0.04 0.04 0.04 0.04 0.04 0.04 0.04 0.04 0.04 0.04 0.04 0.04 0.04 0.04 0.04 0.04 0.04 0.04 0.04 0.04 0.04 0.04 0.04 0.04 0.04 0.04 0.04 0.04 0.04 0.04 0.04 0.04 0.04 0.04 0.04 0.04 0.04 0.04 0.04 0.04 0.04 0.04 0.04 0.04 0.04 0.04 0.04 0.04 0.04 0.04 0.04 0.04 0.04 0.04 0.04 0.04 0.04 0.0008510638297872341 0.0008510638297872341 0.04340425531914895 0.0008510638297872341 0.0008510638297872341 0.0008510638297872341 0.0008510638297872341 0.0008510638297872341 0.5965957446808511 0.0008510638297872341 0.0008510638297872341 0.0008510638297872341 0.1285106382978723 0.0008510638297872341 0.0008510638297872341 0.0008510638297872341 0.0008510638297872341 0.0008510638297872341 0.0008510638297872341 0.0008510638297872341 0.2136170212765958 0.0008510638297872341 0.0008510638297872341 0.0008510638297872341 0.0008510638297872341 0.0104 0.0004 0.0104 0.0004 0.0004 0.0004 0.0004 0.0004 0.7704 0.0004 0.0004 0.0004 0.1004 0.0004 0.0004 0.0004 0.0004 0.0004 0.0004 0.0004 0.1004 0.0004 0.0004 0.0004 0.0004 0.0025 0.0025 0.0025 0.0025 0.0025 0.0025 0.0025 0.0025 0.6900000000000001 0.0025 0.0025 0.0025 0.1275 0.0025 0.0025 0.0025 0.0025 0.1275 0.0025 0.0025 0.0025 0.0025 0.0025 0.0025 0.0025 0.002666666666666667 0.002666666666666667 0.2693333333333334 0.002666666666666667 0.002666666666666667 0.002666666666666667 0.002666666666666667 0.002666666666666667 0.4693333333333334 0.002666666666666667 0.002666666666666667 0.002666666666666667 0.136 0.002666666666666667 0.002666666666666667 0.002666666666666667 0.002666666666666667 0.06933333333333334 0.002666666666666667 0.002666666666666667 0.002666666666666667 0.002666666666666667 0.002666666666666667 0.002666666666666667 0.002666666666666667 0.002857142857142858 0.002857142857142858 0.0742857142857143 0.002857142857142858 0.002857142857142858 0.002857142857142858 0.002857142857142858 0.002857142857142858 0.6457142857142858 0.002857142857142858 0.002857142857142858 0.002857142857142858 0.1457142857142857 0.002857142857142858 0.002857142857142858 0.002857142857142858 0.002857142857142858 0.0742857142857143 0.002857142857142858 0.002857142857142858 0.002857142857142858 0.002857142857142858 0.002857142857142858 0.002857142857142858 0.002857142857142858 0.003076923076923078 0.003076923076923078 0.003076923076923078 0.003076923076923078 0.003076923076923078 0.003076923076923078 0.003076923076923078 0.003076923076923078 0.8492307692307693 0.003076923076923078 0.003076923076923078 0.003076923076923078 0.003076923076923078 0.003076923076923078 0.08000000000000002 0.003076923076923078 0.003076923076923078 0.003076923076923078 0.003076923076923078 0.003076923076923078 0.003076923076923078 0.003076923076923078 0.003076923076923078 0.003076923076923078 0.003076923076923078 0.04 0.04 0.04 0.04 0.04 0.04 0.04 0.04 0.04 0.04 0.04 0.04 0.04 0.04 0.04 0.04 0.04 0.04 0.04 0.04 0.04 0.04 0.04 0.04 0.04 0.04 0.04 0.04 0.04 0.04 0.04 0.04 0.04 0.04 0.04 0.04 0.04 0.04 0.04 0.04 0.04 0.04 0.04 0.04 0.04 0.04 0.04 0.04 0.04 0.04 0.04 0.04 0.04 0.04 0.04 0.04 0.04 0.04 0.04 0.04 0.04 0.04 0.04 0.04 0.04 0.04 0.04 0.04 0.04 0.04 0.04 0.04 0.04 0.04 0.04 0.04 0.04 0.04 0.04 0.04 0.04 0.04 0.04 0.04 0.04 0.04 0.04 0.04 0.04 0.04 0.04 0.04 0.04 0.04 0.04 0.04 0.04 0.04 0.04 0.04 0.001600000000000001 0.001600000000000001 0.001600000000000001 0.001600000000000001 0.001600000000000001 0.001600000000000001 0.001600000000000001 0.001600000000000001 0.6816000000000002 0.001600000000000001 0.001600000000000001 0.001600000000000001 0.04160000000000002 0.001600000000000001 0.001600000000000001 0.001600000000000001 0.001600000000000001 0.001600000000000001 0.001600000000000001 0.001600000000000001 0.2416000000000001 0.001600000000000001 0.001600000000000001 0.001600000000000001 0.001600000000000001 0.001111111111111111 0.001111111111111111 0.001111111111111111 0.001111111111111111 0.001111111111111111 0.001111111111111111 0.001111111111111111 0.001111111111111111 0.7511111111111113 0.001111111111111111 0.001111111111111111 0.001111111111111111 0.14 0.001111111111111111 0.001111111111111111 0.001111111111111111 0.001111111111111111 0.001111111111111111 0.001111111111111111 0.001111111111111111 0.08444444444444446 0.001111111111111111 0.001111111111111111 0.001111111111111111 0.001111111111111111 0.004000000000000001 0.004000000000000001 0.004000000000000001 0.004000000000000001 0.004000000000000001 0.004000000000000001 0.004000000000000001 0.004000000000000001 0.7040000000000002 0.004000000000000001 0.004000000000000001 0.004000000000000001 0.104 0.004000000000000001 0.104 0.004000000000000001 0.004000000000000001 0.004000000000000001 0.004000000000000001 0.004000000000000001 0.004000000000000001 0.004000000000000001 0.004000000000000001 0.004000000000000001 0.004000000000000001 0.01 0.01 0.01 0.01 0.01 0.01 0.01 0.01 0.76 0.01 0.01 0.01 0.01 0.01 0.01 0.01 0.01 0.01 0.01 0.01 0.01 0.01 0.01 0.01 0.01 0.01 0.01 0.01 0.01 0.01 0.01 0.01 0.01 0.76 0.01 0.01 0.01 0.01 0.01 0.01 0.01 0.01 0.01 0.01 0.01 0.01 0.01 0.01 0.01 0.01 0.007999999999999998 0.007999999999999998 0.208 0.007999999999999998 0.007999999999999998 0.007999999999999998 0.007999999999999998 0.007999999999999998 0.6079999999999999 0.007999999999999998 0.007999999999999998 0.007999999999999998 0.007999999999999998 0.007999999999999998 0.007999999999999998 0.007999999999999998 0.007999999999999998 0.007999999999999998 0.007999999999999998 0.007999999999999998 0.007999999999999998 0.007999999999999998 0.007999999999999998 0.007999999999999998 0.007999999999999998 0.04 0.04 0.04 0.04 0.04 0.04 0.04 0.04 0.04 0.04 0.04 0.04 0.04 0.04 0.04 0.04 0.04 0.04 0.04 0.04 0.04 0.04 0.04 0.04 0.04 0.04 0.04 0.04 0.04 0.04 0.04 0.04 0.04 0.04 0.04 0.04 0.04 0.04 0.04 0.04 0.04 0.04 0.04 0.04 0.04 0.04 0.04 0.04 0.04 0.04 0.04 0.04 0.04 0.04 0.04 0.04 0.04 0.04 0.04 0.04 0.04 0.04 0.04 0.04 0.04 0.04 0.04 0.04 0.04 0.04 0.04 0.04 0.04 0.04 0.04 0.04 0.04 0.04 0.04 0.04 0.04 0.04 0.04 0.04 0.04 0.04 0.04 0.04 0.04 0.04 0.04 0.04 0.04 0.04 0.04 0.04 0.04 0.04 0.04 0.04 0.01333333333333333 0.01333333333333333 0.01333333333333333 0.01333333333333333 0.01333333333333333 0.01333333333333333 0.01333333333333333 0.01333333333333333 0.3466666666666666 0.01333333333333333 0.01333333333333333 0.01333333333333333 0.01333333333333333 0.01333333333333333 0.01333333333333333 0.01333333333333333 0.01333333333333333 0.01333333333333333 0.01333333333333333 0.01333333333333333 0.3466666666666666 0.01333333333333333 0.01333333333333333 0.01333333333333333 0.01333333333333333 0.005714285714285714 0.005714285714285714 0.005714285714285714 0.005714285714285714 0.005714285714285714 0.005714285714285714 0.005714285714285714 0.005714285714285714 0.5771428571428571 0.005714285714285714 0.005714285714285714 0.005714285714285714 0.1485714285714286 0.005714285714285714 0.005714285714285714 0.005714285714285714 0.005714285714285714 0.005714285714285714 0.005714285714285714 0.005714285714285714 0.1485714285714286 0.005714285714285714 0.005714285714285714 0.005714285714285714 0.005714285714285714 0.01 0.01 0.01 0.01 0.01 0.01 0.01 0.01 0.76 0.01 0.01 0.01 0.01 0.01 0.01 0.01 0.01 0.01 0.01 0.01 0.01 0.01 0.01 0.01 0.01 0.04 0.04 0.04 0.04 0.04 0.04 0.04 0.04 0.04 0.04 0.04 0.04 0.04 0.04 0.04 0.04 0.04 0.04 0.04 0.04 0.04 0.04 0.04 0.04 0.04 0.02 0.02 0.02 0.02 0.02 0.02 0.02 0.02 0.52 0.02 0.02 0.02 0.02 0.02 0.02 0.02 0.02 0.02 0.02 0.02 0.02 0.02 0.02 0.02 0.02 0.04 0.04 0.04 0.04 0.04 0.04 0.04 0.04 0.04 0.04 0.04 0.04 0.04 0.04 0.04 0.04 0.04 0.04 0.04 0.04 0.04 0.04 0.04 0.04 0.04 0.04 0.04 0.04 0.04 0.04 0.04 0.04 0.04 0.04 0.04 0.04 0.04 0.04 0.04 0.04 0.04 0.04 0.04 0.04 0.04 0.04 0.04 0.04 0.04 0.04 0.04 0.04 0.04 0.04 0.04 0.04 0.04 0.04 0.04 0.04 0.04 0.04 0.04 0.04 0.04 0.04 0.04 0.04 0.04 0.04 0.04 0.04 0.04 0.04 0.04 0.04 0.04 0.04 0.04 0.04 0.04 0.04 0.04 0.04 0.04 0.04 0.04 0.04 0.04 0.04 0.04 0.04 0.04 0.04 0.04 0.04 0.04 0.04 0.04 0.04 0.04 0.04 0.04 0.04 0.04 0.04 0.04 0.04 0.04 0.04 0.04 0.04 0.04 0.04 0.04 0.04 0.04 0.04 0.04 0.04 0.04 0.04 0.04 0.04 0.04 0.04 0.04 0.04 0.04 0.04 0.04 0.04 0.04 0.04 0.04 0.04 0.04 0.04 0.04 0.04 0.04 0.04 0.04 0.04 0.04 0.04 0.04 0.04 0.04 0.04 0.04 0.04 0.04 0.04 0.04 0.04 0.04 0.04 0.04 0.04 0.04 0.04 0.04 0.04 0.04 0.04 0.04 0.04 0.04 0.04 0.04 0.04 0.04 0.04 0.04 0.02 0.02 0.02 0.02 0.02 0.02 0.02 0.02 0.52 0.02 0.02 0.02 0.02 0.02 0.02 0.02 0.02 0.02 0.02 0.02 0.02 0.02 0.02 0.02 0.02 0.04 0.04 0.04 0.04 0.04 0.04 0.04 0.04 0.04 0.04 0.04 0.04 0.04 0.04 0.04 0.04 0.04 0.04 0.04 0.04 0.04 0.04 0.04 0.04 0.04 0.04 0.04 0.04 0.04 0.04 0.04 0.04 0.04 0.04 0.04 0.04 0.04 0.04 0.04 0.04 0.04 0.04 0.04 0.04 0.04 0.04 0.04 0.04 0.04 0.04 0.04 0.04 0.04 0.04 0.04 0.04 0.04 0.04 0.04 0.04 0.04 0.04 0.04 0.04 0.04 0.04 0.04 0.04 0.04 0.04 0.04 0.04 0.04 0.04 0.04 0.04 0.04 0.04 0.04 0.04 0.04 0.04 0.04 0.04 0.04 0.04 0.04 0.04 0.04 0.04 0.04 0.04 0.04 0.04 0.04 0.04 0.04 0.04 0.04 0.04 0.04 0.04 0.04 0.04 0.04 0.04 0.04 0.04 0.04 0.04 0.04 0.04 0.04 0.04 0.04 0.04 0.04 0.04 0.04 0.04 0.04 0.04 0.04 0.04 0.04 0.04 0.04 0.04 0.04 0.04 0.04 0.04 0.04 0.04 0.04 0.04 0.04 0.04 0.04 0.04 0.04 0.04 0.04 0.04 0.04 0.04 0.04 0.04 0.04 0.04 0.04 0.04 0.04 0.04 0.04 0.04 0.04 0.04 0.04 0.04 0.04 0.04 0.04 0.04 0.04 0.04 0.04 0.04 0.04 0.04 0.04 0.04 0.04 0.04 0.04 0.04 0.04 0.04 0.04 0.04 0.04 0.04 0.04 0.04 0.04 0.04 0.04 0.04 0.04 0.04 0.04 0.04 0.04 0.04 0.04 0.04 0.04 0.04 0.04 0.04 0.04 0.04 0.04 0.04 0.04 0.04 0.04 0.04 0.04 0.04 0.04 0.04 0.04 0.04 0.04 0.04 0.04 0.04 0.04 0.04 0.04 0.04 0.04 0.04 0.04 0.04 0.04 0.04 0.04 0.04 0.04 0.04 0.04 0.04 0.04 0.04 0.04 0.04 0.04 0.04 0.04 0.04 0.04 0.04 0.04 0.04 0.04 0.04 0.04 0.04 0.04 0.04 0.04 0.04 0.04 0.04 0.04 0.04 0.04 0.04 0.04 0.04 0.04 0.04 0.04 0.04 0.04 0.04 0.04 0.04 0.04 0.04 0.04 0.04 0.04 0.04 0.04 0.04 0.04 0.04 0.04 0.04 0.04 0.04 0.04 0.04 0.04 0.04 0.04 0.04 0.04 0.04 0.04 0.04 0.04 0.04 0.04 0.04 0.04 0.04 0.04 0.04 0.04 0.04 0.04 0.04 0.04 0.04 0.04 0.04 0.04 0.04 0.04 0.04 0.04 0.04 0.04 0.04 0.04 0.04 0.04 0.04 0.04 0.04 0.04 0.04 0.04 0.04 0.04 0.04 0.04 0.04 0.04 0.04 0.04 0.04 0.04 0.04 0.04 0.04 0.04 0.04 0.04 0.04 0.04 0.04 0.04 0.04 0.04 0.04 0.04 0.04 0.04 0.04 0.04 0.04 0.04 0.04 0.04 0.04 0.04 0.04 0.04 0.04 0.04 0.04 0.04 0.04 0.04 0.04 0.04 0.04 0.04 0.04 0.04 0.04 0.04 0.04 0.04 0.04 0.04 0.04 0.04 0.04 0.04 0.04 0.04 0.04 0.04 0.04 0.04 0.04 0.04 0.04 0.04 0.04 0.04 0.04 0.04 0.04 0.04 0.04 0.04 0.04 0.04 0.04 0.04 0.04 0.04 0.04 0.04 0.04 0.04 0.04 0.04 0.04 0.04 0.04 0.04 0.04 0.04 0.04 0.04 0.04 0.04 0.04 0.04 0.04 0.04 0.04 0.04 0.04 0.04 0.04 0.04 0.04 0.04 0.04 0.04 0.04 0.04 0.04 0.04 0.04 0.04 0.04 0.04 0.04 0.04 0.04 0.04 0.04 0.04 0.04 0.04 0.04 0.04 0.04 0.04 0.04 0.04 0.04 0.04 0.04 0.04 0.04 0.04 0.04 0.04 0.04 0.04 0.04 0.04 0.04 0.04 0.04 0.04 0.04 0.04 0.04 0.04 0.04 0.04 0.04 0.04 0.04 0.04 0.04 0.04 0.04 0.04 0.04 0.04 0.04 0.04 0.04 0.04 0.04 0.04 0.04 0.04 0.04 0.04 0.04 0.04 0.04 0.04 0.04 0.04 0.04 0.04 0.04 0.04 0.04 0.04 0.04 0.04 0.04 0.04 0.04 0.04 0.04 0.04 0.04 0.04 0.04 0.04 0.04 0.04 0.04 0.04 0.04 0.04 0.04 0.04 0.04 0.04 0.04 0.04 0.04 0.04 0.04 0.04 0.04 0.04 0.04 0.04 0.04 0.04 0.04 0.04 0.04 0.04 0.04 0.04 0.04 0.04 0.04 0.04 0.04 0.04 0.04 0.04 0.04 0.04 0.04 0.04 0.04 0.04 0.04 0.04 0.04 0.04 0.04 0.04 0.04 0.04 0.04 0.04 0.04 0.04 0.04 0.04 0.04 0.04 0.04 0.04 0.04 0.04 0.04 0.04 0.04 0.04 0.04 0.04 0.04 0.04 0.04 0.04 0.04 0.04 0.04 0.04 0.04 0.04 0.04 0.04 0.04 0.04 0.04 0.04 0.04 0.04 0.04 0.04 0.04 0.04 0.04 0.04 0.04 0.04 0.04 0.04 0.04 0.04 0.04 0.04 0.04 0.04 0.04 0.04 0.04 0.04 0.04 0.04 0.04 0.04 0.04 0.04 0.04 0.04 0.04 0.04 0.04 0.04 0.04 0.04 0.04 0.04 0.04 0.04 0.04 0.04 0.04 0.04 0.04 0.04 0.04 0.04 0.04 0.04 0.04 0.04 0.04 0.04 0.04 0.04 0.04 0.04 0.04 0.04 0.04 0.04 0.04 0.04 0.04 0.04 0.04 0.04 0.04 0.04 0.04 0.04 0.04 0.04 0.04 0.04 0.04 0.04 0.04 0.04 0.04 0.04 0.04 0.04 0.04 0.04 0.04 0.04 0.04 0.04 0.04 0.04 0.04 0.04 0.04 0.04 0.04 0.04 0.04 0.04 0.04 0.04 0.04 0.04 0.04 0.04 0.04 0.04 0.04 0.04 0.04 0.04 0.04 0.04 0.04 0.04 0.04 0.04 0.04 0.04 0.04 0.04 0.04 0.04 0.04 0.04 0.04 0.04 0.04 0.04 0.04 0.04 0.04 0.04 0.04 0.04 0.04 0.04 0.04 0.04 0.04 0.04 0.04 0.04 0.04 0.04 0.04 0.04 0.04 0.04 0.04 0.04 0.04 0.04 0.04 0.04 0.04 0.04 0.04 0.04 0.04 0.04 0.04 0.04 0.04 0.04 0.04 0.04 0.04 0.04 0.04 0.04 0.04 0.04 0.04 0.04 0.04 0.04 0.04 0.04 0.04 0.04 0.04 0.04 0.04 0.04 0.04 0.04 0.04 0.04 0.04 0.04 0.04 0.04 0.04 0.04 0.04 0.04 0.04 0.04 0.04 0.04 0.04 0.04 0.04 0.04 0.04 0.04 0.04 0.04 0.04 0.04 0.04 0.04 0.04 0.04 0.04 0.04 0.04 0.04 0.04 0.04 0.04 0.04 0.04 0.04 0.04 0.04 0.04 0.04 0.04 0.04 0.04 0.04 0.04 0.04 0.04 0.04 0.04 0.04 0.04 0.04 0.04 0.04 0.04 0.04 0.04 0.04 0.04 0.04 0.04 0.04 0.04 0.04 0.04 0.04 0.04 0.04 0.04 0.04 0.04 0.04 0.04 0.04 0.04 0.04 0.04 0.04 0.04 0.04 0.04 0.04 0.04 0.04 0.04 0.04 0.04 0.04 0.04 0.04 0.04 0.04 0.04 0.04 0.04 0.04 0.04 0.04 0.04 0.04 0.04 0.04 0.04 0.04 0.04 0.04 0.04 0.04 0.04 0.04 0.04 0.04 0.04 0.04 0.04 0.04 0.04 0.04 0.04 0.04 0.04 0.04 0.04 0.04 0.04 0.04 0.04 0.04 0.04 0.04 0.04 0.04 0.04 0.04 0.04 0.04 0.04 0.04 0.04 0.04 0.04 0.04 0.04 0.04 0.04 0.04 0.04 0.04 0.04 0.02 0.02 0.52 0.02 0.02 0.02 0.02 0.02 0.02 0.02 0.02 0.02 0.02 0.02 0.02 0.02 0.02 0.02 0.02 0.02 0.02 0.02 0.02 0.02 0.02 0.02 0.02 0.02 0.02 0.02 0.02 0.02 0.02 0.52 0.02 0.02 0.02 0.02 0.02 0.02 0.02 0.02 0.02 0.02 0.02 0.02 0.02 0.02 0.02 0.02 0.01 0.01 0.01 0.01 0.01 0.01 0.01 0.01 0.76 0.01 0.01 0.01 0.01 0.01 0.01 0.01 0.01 0.01 0.01 0.01 0.01 0.01 0.01 0.01 0.01 0.04 0.04 0.04 0.04 0.04 0.04 0.04 0.04 0.04 0.04 0.04 0.04 0.04 0.04 0.04 0.04 0.04 0.04 0.04 0.04 0.04 0.04 0.04 0.04 0.04 0.04 0.04 0.04 0.04 0.04 0.04 0.04 0.04 0.04 0.04 0.04 0.04 0.04 0.04 0.04 0.04 0.04 0.04 0.04 0.04 0.04 0.04 0.04 0.04 0.04 0.04 0.04 0.04 0.04 0.04 0.04 0.04 0.04 0.04 0.04 0.04 0.04 0.04 0.04 0.04 0.04 0.04 0.04 0.04 0.04 0.04 0.04 0.04 0.04 0.04 0.04 0.04 0.04 0.04 0.04 0.04 0.04 0.04 0.04 0.04 0.04 0.04 0.04 0.04 0.04 0.04 0.04 0.04 0.04 0.04 0.04 0.04 0.04 0.04 0.04 0.04 0.04 0.04 0.04 0.04 0.04 0.04 0.04 0.04 0.04 0.04 0.04 0.04 0.04 0.04 0.04 0.04 0.04 0.04 0.04 0.04 0.04 0.04 0.04 0.04 0.04 0.04 0.04 0.04 0.04 0.04 0.04 0.04 0.04 0.04 0.04 0.04 0.04 0.04 0.04 0.04 0.04 0.04 0.04 0.04 0.04 0.04 0.04 0.04 0.04 0.04 0.04 0.04 0.04 0.04 0.04 0.04 0.04 0.04 0.04 0.04 0.04 0.04 0.04 0.04 0.04 0.04 0.04 0.04 0.04 0.04 0.04 0.04 0.04 0.04 0.001111111111111111 0.001111111111111111 0.05666666666666668 0.001111111111111111 0.001111111111111111 0.001111111111111111 0.001111111111111111 0.001111111111111111 0.8344444444444445 0.001111111111111111 0.001111111111111111 0.001111111111111111 0.001111111111111111 0.001111111111111111 0.001111111111111111 0.001111111111111111 0.001111111111111111 0.001111111111111111 0.001111111111111111 0.001111111111111111 0.08444444444444446 0.001111111111111111 0.001111111111111111 0.001111111111111111 0.001111111111111111 0.004000000000000001 0.004000000000000001 0.004000000000000001 0.004000000000000001 0.004000000000000001 0.004000000000000001 0.004000000000000001 0.004000000000000001 0.7040000000000002 0.004000000000000001 0.004000000000000001 0.004000000000000001 0.104 0.004000000000000001 0.004000000000000001 0.004000000000000001 0.004000000000000001 0.004000000000000001 0.104 0.004000000000000001 0.004000000000000001 0.004000000000000001 0.004000000000000001 0.004000000000000001 0.004000000000000001 0.001538461538461539 0.001538461538461539 0.001538461538461539 0.001538461538461539 0.001538461538461539 0.001538461538461539 0.001538461538461539 0.001538461538461539 0.9246153846153848 0.001538461538461539 0.001538461538461539 0.001538461538461539 0.001538461538461539 0.001538461538461539 0.001538461538461539 0.001538461538461539 0.001538461538461539 0.001538461538461539 0.04000000000000001 0.001538461538461539 0.001538461538461539 0.001538461538461539 0.001538461538461539 0.001538461538461539 0.001538461538461539 0.00125 0.00125 0.00125 0.00125 0.00125 0.00125 0.00125 0.00125 0.7200000000000001 0.00125 0.00125 0.00125 0.06375000000000001 0.00125 0.00125 0.00125 0.00125 0.1887500000000001 0.00125 0.00125 0.00125 0.00125 0.00125 0.00125 0.00125 0.001818181818181819 0.001818181818181819 0.1381818181818182 0.001818181818181819 0.001818181818181819 0.1381818181818182 0.001818181818181819 0.001818181818181819 0.6381818181818183 0.001818181818181819 0.001818181818181819 0.001818181818181819 0.04727272727272729 0.001818181818181819 0.001818181818181819 0.001818181818181819 0.001818181818181819 0.001818181818181819 0.001818181818181819 0.001818181818181819 0.001818181818181819 0.001818181818181819 0.001818181818181819 0.001818181818181819 0.001818181818181819 0.04 0.04 0.04 0.04 0.04 0.04 0.04 0.04 0.04 0.04 0.04 0.04 0.04 0.04 0.04 0.04 0.04 0.04 0.04 0.04 0.04 0.04 0.04 0.04 0.04 0.04 0.04 0.04 0.04 0.04 0.04 0.04 0.04 0.04 0.04 0.04 0.04 0.04 0.04 0.04 0.04 0.04 0.04 0.04 0.04 0.04 0.04 0.04 0.04 0.04 0.04 0.04 0.04 0.04 0.04 0.04 0.04 0.04 0.04 0.04 0.04 0.04 0.04 0.04 0.04 0.04 0.04 0.04 0.04 0.04 0.04 0.04 0.04 0.04 0.04 0.04 0.04 0.04 0.04 0.04 0.04 0.04 0.04 0.04 0.04 0.04 0.04 0.04 0.04 0.04 0.04 0.04 0.04 0.04 0.04 0.04 0.04 0.04 0.04 0.04 0.004000000000000001 0.004000000000000001 0.004000000000000001 0.004000000000000001 0.004000000000000001 0.004000000000000001 0.004000000000000001 0.004000000000000001 0.804 0.004000000000000001 0.004000000000000001 0.004000000000000001 0.004000000000000001 0.004000000000000001 0.004000000000000001 0.004000000000000001 0.004000000000000001 0.004000000000000001 0.004000000000000001 0.004000000000000001 0.104 0.004000000000000001 0.004000000000000001 0.004000000000000001 0.004000000000000001 0.0006153846153846154 0.0006153846153846154 0.0006153846153846154 0.0006153846153846154 0.0006153846153846154 0.0006153846153846154 0.0006153846153846154 0.0006153846153846154 0.8929230769230769 0.0006153846153846154 0.0006153846153846154 0.0006153846153846154 0.06215384615384616 0.0006153846153846154 0.0006153846153846154 0.0006153846153846154 0.0006153846153846154 0.0006153846153846154 0.0006153846153846154 0.0006153846153846154 0.03138461538461539 0.0006153846153846154 0.0006153846153846154 0.0006153846153846154 0.0006153846153846154 0.002 0.002 0.202 0.002 0.002 0.002 0.002 0.002 0.7020000000000001 0.002 0.002 0.002 0.002 0.002 0.05200000000000001 0.002 0.002 0.002 0.002 0.002 0.002 0.002 0.002 0.002 0.002 0.003076923076923078 0.003076923076923078 0.08000000000000002 0.003076923076923078 0.003076923076923078 0.003076923076923078 0.003076923076923078 0.003076923076923078 0.8492307692307693 0.003076923076923078 0.003076923076923078 0.003076923076923078 0.003076923076923078 0.003076923076923078 0.003076923076923078 0.003076923076923078 0.003076923076923078 0.003076923076923078 0.003076923076923078 0.003076923076923078 0.003076923076923078 0.003076923076923078 0.003076923076923078 0.003076923076923078 0.003076923076923078 0.001290322580645162 0.001290322580645162 0.1303225806451613 0.001290322580645162 0.001290322580645162 0.001290322580645162 0.001290322580645162 0.001290322580645162 0.7432258064516131 0.001290322580645162 0.001290322580645162 0.06580645161290324 0.0335483870967742 0.001290322580645162 0.001290322580645162 0.001290322580645162 0.001290322580645162 0.001290322580645162 0.001290322580645162 0.001290322580645162 0.001290322580645162 0.001290322580645162 0.001290322580645162 0.001290322580645162 0.001290322580645162 0.002 0.002 0.002 0.002 0.002 0.002 0.002 0.002 0.8020000000000002 0.002 0.002 0.002 0.102 0.002 0.05200000000000001 0.002 0.002 0.002 0.002 0.002 0.002 0.002 0.002 0.002 0.002 0.02 0.02 0.02 0.02 0.02 0.02 0.02 0.02 0.02 0.02 0.02 0.02 0.02 0.02 0.02 0.02 0.02 0.52 0.02 0.02 0.02 0.02 0.02 0.02 0.02 0.04 0.04 0.04 0.04 0.04 0.04 0.04 0.04 0.04 0.04 0.04 0.04 0.04 0.04 0.04 0.04 0.04 0.04 0.04 0.04 0.04 0.04 0.04 0.04 0.04 0.04 0.04 0.04 0.04 0.04 0.04 0.04 0.04 0.04 0.04 0.04 0.04 0.04 0.04 0.04 0.04 0.04 0.04 0.04 0.04 0.04 0.04 0.04 0.04 0.04 0.04 0.04 0.04 0.04 0.04 0.04 0.04 0.04 0.04 0.04 0.04 0.04 0.04 0.04 0.04 0.04 0.04 0.04 0.04 0.04 0.04 0.04 0.04 0.04 0.04 0.002000000000000001 0.002000000000000001 0.002000000000000001 0.002000000000000001 0.002000000000000001 0.002000000000000001 0.002000000000000001 0.002000000000000001 0.9020000000000002 0.002000000000000001 0.002000000000000001 0.05200000000000002 0.002000000000000001 0.002000000000000001 0.002000000000000001 0.002000000000000001 0.002000000000000001 0.002000000000000001 0.002000000000000001 0.002000000000000001 0.002000000000000001 0.002000000000000001 0.002000000000000001 0.002000000000000001 0.002000000000000001 0.0007843137254901963 0.0007843137254901963 0.0203921568627451 0.0007843137254901963 0.0007843137254901963 0.0007843137254901963 0.0007843137254901963 0.0007843137254901963 0.9223529411764707 0.0007843137254901963 0.0007843137254901963 0.0007843137254901963 0.0007843137254901963 0.0007843137254901963 0.0007843137254901963 0.0007843137254901963 0.0007843137254901963 0.0007843137254901963 0.0007843137254901963 0.0007843137254901963 0.04000000000000001 0.0007843137254901963 0.0007843137254901963 0.0007843137254901963 0.0007843137254901963 0.003076923076923078 0.003076923076923078 0.08000000000000002 0.003076923076923078 0.003076923076923078 0.003076923076923078 0.003076923076923078 0.003076923076923078 0.8492307692307693 0.003076923076923078 0.003076923076923078 0.003076923076923078 0.003076923076923078 0.003076923076923078 0.003076923076923078 0.003076923076923078 0.003076923076923078 0.003076923076923078 0.003076923076923078 0.003076923076923078 0.003076923076923078 0.003076923076923078 0.003076923076923078 0.003076923076923078 0.003076923076923078 0.0025 0.0025 0.0025 0.0025 0.0025 0.0025 0.0025 0.0025 0.8775000000000002 0.0025 0.0025 0.0025 0.0025 0.0025 0.06500000000000002 0.0025 0.0025 0.0025 0.0025 0.0025 0.0025 0.0025 0.0025 0.0025 0.0025 0.004444444444444444 0.004444444444444444 0.004444444444444444 0.004444444444444444 0.004444444444444444 0.004444444444444444 0.004444444444444444 0.004444444444444444 0.2266666666666667 0.004444444444444444 0.004444444444444444 0.4488888888888889 0.1155555555555556 0.004444444444444444 0.1155555555555556 0.004444444444444444 0.004444444444444444 0.004444444444444444 0.004444444444444444 0.004444444444444444 0.004444444444444444 0.004444444444444444 0.004444444444444444 0.004444444444444444 0.004444444444444444 0.005 0.005 0.005 0.005 0.005 0.005 0.005 0.005 0.38 0.005 0.005 0.005 0.255 0.005 0.005 0.005 0.005 0.255 0.005 0.005 0.005 0.005 0.005 0.005 0.005 0.04 0.04 0.04 0.04 0.04 0.04 0.04 0.04 0.04 0.04 0.04 0.04 0.04 0.04 0.04 0.04 0.04 0.04 0.04 0.04 0.04 0.04 0.04 0.04 0.04 0.04 0.04 0.04 0.04 0.04 0.04 0.04 0.04 0.04 0.04 0.04 0.04 0.04 0.04 0.04 0.04 0.04 0.04 0.04 0.04 0.04 0.04 0.04 0.04 0.04 0.04 0.04 0.04 0.04 0.04 0.04 0.04 0.04 0.04 0.04 0.04 0.04 0.04 0.04 0.04 0.04 0.04 0.04 0.04 0.04 0.04 0.04 0.04 0.04 0.04 0.04 0.04 0.04 0.04 0.04 0.04 0.04 0.04 0.04 0.04 0.04 0.04 0.04 0.04 0.04 0.04 0.04 0.04 0.04 0.04 0.04 0.04 0.04 0.04 0.04 0.005 0.005 0.005 0.005 0.005 0.005 0.005 0.005 0.63 0.005 0.005 0.005 0.005 0.005 0.005 0.005 0.005 0.005 0.005 0.005 0.255 0.005 0.005 0.005 0.005 0.002857142857142858 0.002857142857142858 0.002857142857142858 0.002857142857142858 0.002857142857142858 0.002857142857142858 0.002857142857142858 0.002857142857142858 0.9314285714285717 0.002857142857142858 0.002857142857142858 0.002857142857142858 0.002857142857142858 0.002857142857142858 0.002857142857142858 0.002857142857142858 0.002857142857142858 0.002857142857142858 0.002857142857142858 0.002857142857142858 0.002857142857142858 0.002857142857142858 0.002857142857142858 0.002857142857142858 0.002857142857142858 0.004000000000000002 0.004000000000000002 0.004000000000000002 0.004000000000000002 0.004000000000000002 0.004000000000000002 0.004000000000000002 0.004000000000000002 0.9040000000000002 0.004000000000000002 0.004000000000000002 0.004000000000000002 0.004000000000000002 0.004000000000000002 0.004000000000000002 0.004000000000000002 0.004000000000000002 0.004000000000000002 0.004000000000000002 0.004000000000000002 0.004000000000000002 0.004000000000000002 0.004000000000000002 0.004000000000000002 0.004000000000000002 0.007999999999999998 0.007999999999999998 0.007999999999999998 0.007999999999999998 0.007999999999999998 0.007999999999999998 0.208 0.007999999999999998 0.4079999999999999 0.007999999999999998 0.007999999999999998 0.007999999999999998 0.007999999999999998 0.007999999999999998 0.007999999999999998 0.007999999999999998 0.007999999999999998 0.007999999999999998 0.007999999999999998 0.007999999999999998 0.208 0.007999999999999998 0.007999999999999998 0.007999999999999998 0.007999999999999998 0.02 0.02 0.02 0.02 0.02 0.02 0.02 0.02 0.52 0.02 0.02 0.02 0.02 0.02 0.02 0.02 0.02 0.02 0.02 0.02 0.02 0.02 0.02 0.02 0.02 0.01333333333333333 0.01333333333333333 0.01333333333333333 0.01333333333333333 0.01333333333333333 0.01333333333333333 0.01333333333333333 0.01333333333333333 0.6799999999999998 0.01333333333333333 0.01333333333333333 0.01333333333333333 0.01333333333333333 0.01333333333333333 0.01333333333333333 0.01333333333333333 0.01333333333333333 0.01333333333333333 0.01333333333333333 0.01333333333333333 0.01333333333333333 0.01333333333333333 0.01333333333333333 0.01333333333333333 0.01333333333333333 0.04 0.04 0.04 0.04 0.04 0.04 0.04 0.04 0.04 0.04 0.04 0.04 0.04 0.04 0.04 0.04 0.04 0.04 0.04 0.04 0.04 0.04 0.04 0.04 0.04 0.04 0.04 0.04 0.04 0.04 0.04 0.04 0.04 0.04 0.04 0.04 0.04 0.04 0.04 0.04 0.04 0.04 0.04 0.04 0.04 0.04 0.04 0.04 0.04 0.04 0.04 0.04 0.04 0.04 0.04 0.04 0.04 0.04 0.04 0.04 0.04 0.04 0.04 0.04 0.04 0.04 0.04 0.04 0.04 0.04 0.04 0.04 0.04 0.04 0.04 0.04 0.04 0.04 0.04 0.04 0.04 0.04 0.04 0.04 0.04 0.04 0.04 0.04 0.04 0.04 0.04 0.04 0.04 0.04 0.04 0.04 0.04 0.04 0.04 0.04 0.02 0.02 0.02 0.02 0.02 0.02 0.02 0.02 0.52 0.02 0.02 0.02 0.02 0.02 0.02 0.02 0.02 0.02 0.02 0.02 0.02 0.02 0.02 0.02 0.02 0.04 0.04 0.04 0.04 0.04 0.04 0.04 0.04 0.04 0.04 0.04 0.04 0.04 0.04 0.04 0.04 0.04 0.04 0.04 0.04 0.04 0.04 0.04 0.04 0.04 0.01333333333333333 0.01333333333333333 0.01333333333333333 0.01333333333333333 0.01333333333333333 0.01333333333333333 0.01333333333333333 0.01333333333333333 0.6799999999999998 0.01333333333333333 0.01333333333333333 0.01333333333333333 0.01333333333333333 0.01333333333333333 0.01333333333333333 0.01333333333333333 0.01333333333333333 0.01333333333333333 0.01333333333333333 0.01333333333333333 0.01333333333333333 0.01333333333333333 0.01333333333333333 0.01333333333333333 0.01333333333333333 0.007999999999999998 0.007999999999999998 0.007999999999999998 0.007999999999999998 0.007999999999999998 0.007999999999999998 0.208 0.007999999999999998 0.6079999999999999 0.007999999999999998 0.007999999999999998 0.007999999999999998 0.007999999999999998 0.007999999999999998 0.007999999999999998 0.007999999999999998 0.007999999999999998 0.007999999999999998 0.007999999999999998 0.007999999999999998 0.007999999999999998 0.007999999999999998 0.007999999999999998 0.007999999999999998 0.007999999999999998 0.01333333333333333 0.01333333333333333 0.01333333333333333 0.01333333333333333 0.01333333333333333 0.01333333333333333 0.01333333333333333 0.01333333333333333 0.6799999999999998 0.01333333333333333 0.01333333333333333 0.01333333333333333 0.01333333333333333 0.01333333333333333 0.01333333333333333 0.01333333333333333 0.01333333333333333 0.01333333333333333 0.01333333333333333 0.01333333333333333 0.01333333333333333 0.01333333333333333 0.01333333333333333 0.01333333333333333 0.01333333333333333 0.04 0.04 0.04 0.04 0.04 0.04 0.04 0.04 0.04 0.04 0.04 0.04 0.04 0.04 0.04 0.04 0.04 0.04 0.04 0.04 0.04 0.04 0.04 0.04 0.04 0.04 0.04 0.04 0.04 0.04 0.04 0.04 0.04 0.04 0.04 0.04 0.04 0.04 0.04 0.04 0.04 0.04 0.04 0.04 0.04 0.04 0.04 0.04 0.04 0.04 0.04 0.04 0.04 0.04 0.04 0.04 0.04 0.04 0.04 0.04 0.04 0.04 0.04 0.04 0.04 0.04 0.04 0.04 0.04 0.04 0.04 0.04 0.04 0.04 0.04 0.04 0.04 0.04 0.04 0.04 0.04 0.04 0.04 0.04 0.04 0.04 0.04 0.04 0.04 0.04 0.04 0.04 0.04 0.04 0.04 0.04 0.04 0.04 0.04 0.04 0.04 0.04 0.04 0.04 0.04 0.04 0.04 0.04 0.04 0.04 0.04 0.04 0.04 0.04 0.04 0.04 0.04 0.04 0.04 0.04 0.04 0.04 0.04 0.04 0.04 0.04 0.04 0.04 0.04 0.04 0.04 0.04 0.04 0.04 0.04 0.04 0.04 0.04 0.04 0.04 0.04 0.04 0.04 0.04 0.04 0.04 0.04 0.04 0.04 0.04 0.04 0.04 0.04 0.04 0.04 0.04 0.04 0.04 0.04 0.04 0.04 0.04 0.04 0.04 0.04 0.04 0.04 0.04 0.04 0.04 0.04 0.04 0.04 0.04 0.04 0.04 0.04 0.04 0.04 0.04 0.04 0.04 0.04 0.04 0.04 0.04 0.04 0.04 0.04 0.04 0.04 0.04 0.04 0.04 0.04 0.04 0.04 0.04 0.04 0.04 0.04 0.04 0.04 0.04 0.04 0.04 0.04 0.04 0.04 0.04 0.04 0.04 0.04 0.04 0.04 0.04 0.04 0.04 0.04 0.04 0.04 0.04 0.04 0.04 0.04 0.04 0.04 0.04 0.04 0.04 0.04 0.04 0.04 0.04 0.04 0.04 0.04 0.04 0.04 0.04 0.04 0.04 0.04 0.04 0.04 0.04 0.04 0.04 0.04 0.04 0.04 0.04 0.04 0.04 0.04 0.04 0.04 0.04 0.04 0.04 0.04 0.04 0.04 0.04 0.04 0.04 0.04 0.04 0.04 0.04 0.04 0.04 0.04 0.04 0.04 0.04 0.04 0.04 0.04 0.04 0.04 0.04 0.04 0.04 0.04 0.04 0.04 0.04 0.04 0.04 0.04 0.04 0.04 0.04 0.04 0.04 0.04 0.04 0.04 0.04 0.04 0.04 0.04 0.04 0.04 0.04 0.04 0.04 0.04 0.04 0.04 0.04 0.04 0.04 0.04 0.04 0.04 0.04 0.04 0.04 0.04 0.04 0.04 0.04 0.04 0.04 0.04 0.04 0.04 0.04 0.04 0.04 0.04 0.04 0.04 0.04 0.04 0.04 0.04 0.04 0.04 0.04 0.04 0.04 0.04 0.04 0.04 0.04 0.04 0.04 0.04 0.04 0.04 0.04 0.04 0.04 0.04 0.04 0.04 0.04 0.04 0.04 0.04 0.04 0.04 0.04 0.04 0.04 0.04 0.04 0.04 0.04 0.04 0.04 0.04 0.04 0.04 0.04 0.04 0.04 0.04 0.04 0.04 0.04 0.04 0.04 0.04 0.04 0.04 0.04 0.04 0.04 0.04 0.04 0.04 0.04 0.04 0.04 0.04 0.04 0.04 0.04 0.04 0.04 0.04 0.04 0.04 0.04 0.04 0.04 0.04 0.04 0.04 0.04 0.04 0.04 0.04 0.04 0.04 0.04 0.04 0.04 0.04 0.04 0.04 0.04 0.04 0.04 0.04 0.04 0.04 0.04 0.04 0.04 0.04 0.04 0.04 0.04 0.04 0.04 0.04 0.04 0.04 0.04 0.04 0.04 0.04 0.04 0.04 0.04 0.04 0.04 0.04 0.04 0.04 0.04 0.04 0.04 0.04 0.04 0.04 0.04 0.04 0.04 0.04 0.04 0.04 0.04 0.04 0.04 0.04 0.04 0.04 0.04 0.04 0.04 0.04 0.04 0.04 0.04 0.04 0.04 0.04 0.04 0.04 0.04 0.04 0.04 0.04 0.04 0.04 0.04 0.04 0.04 0.04 0.04 0.04 0.04 0.04 0.04 0.04 0.04 0.04 0.04 0.04 0.04 0.04 0.04 0.04 0.04 0.04 0.04 0.04 0.04 0.04 0.04 0.04 0.04 0.04 0.04 0.04 0.04 0.04 0.04 0.04 0.04 0.04 0.04 0.04 0.04 0.04 0.04 0.04 0.04 0.04 0.04 0.04 0.04 0.04 0.04 0.04 0.04 0.04 0.04 0.04 0.04 0.04 0.04 0.04 0.04 0.04 0.04 0.04 0.04 0.04 0.04 0.04 0.04 0.04 0.04 0.04 0.04 0.04 0.04 0.04 0.04 0.04 0.04 0.04 0.04 0.04 0.04 0.04 0.04 0.04 0.04 0.04 0.04 0.04 0.04 0.04 0.04 0.04 0.04 0.04 0.04 0.04 0.04 0.04 0.04 0.04 0.04 0.04 0.04 0.04 0.04 0.04 0.04 0.04 0.04 0.04 0.04 0.04 0.04 0.04 0.04 0.04 0.04 0.04 0.04 0.04 0.04 0.04 0.04 0.04 0.04 0.04 0.04 0.04 0.04 0.04 0.04 0.04 0.04 0.04 0.04 0.04 0.04 0.04 0.04 0.04 0.04 0.04 0.04 0.04 0.04 0.04 0.04 0.04 0.04 0.04 0.04 0.04 0.04 0.04 0.04 0.04 0.04 0.04 0.04 0.04 0.04 0.04 0.04 0.04 0.04 0.04 0.04 0.04 0.04 0.04 0.04 0.04 0.04 0.04 0.04 0.04 0.04 0.04 0.04 0.04 0.04 0.04 0.04 0.04 0.04 0.04 0.04 0.04 0.04 0.04 0.04 0.04 0.04 0.04 0.04 0.04 0.04 0.04 0.04 0.04 0.04 0.04 0.04 0.04 0.04 0.04 0.04 0.04 0.04 0.04 0.04 0.04 0.04 0.04 0.04 0.04 0.04 0.04 0.04 0.04 0.04 0.04 0.04 0.04 0.04 0.04 0.04 0.04 0.04 0.04 0.04 0.04 0.04 0.04 0.04 0.04 0.04 0.04 0.04 0.04 0.04 0.04 0.04 0.04 0.04 0.04 0.04 0.04 0.04 0.04 0.04 0.04 0.04 0.04 0.04 0.04 0.04 0.04 0.04 0.04 0.04 0.04 0.04 0.04 0.04 0.04 0.04 0.04 0.04 0.04 0.04 0.04 0.04 0.04 0.04 0.04 0.04 0.04 0.04 0.04 0.04 0.04 0.04 0.04 0.04 0.04 0.04 0.04 0.04 0.04 0.04 0.04 0.04 0.04 0.04 0.04 0.04 0.04 0.04 0.04 0.04 0.04 0.04 0.04 0.04 0.04 0.04 0.04 0.04 0.04 0.04 0.04 0.04 0.04 0.04 0.04 0.04 0.04 0.04 0.04 0.04 0.04 0.04 0.04 0.04 0.04 0.04 0.04 0.04 0.04 0.04 0.04 0.04 0.04 0.04 0.04 0.04 0.04 0.04 0.04 0.04 0.04 0.04 0.04 0.04 0.04 0.04 0.04 0.04 0.04 0.04 0.04 0.04 0.04 0.04 0.04 0.04 0.04 0.04 0.04 0.04 0.04 0.04 0.04 0.04 0.04 0.04 0.04 0.04 0.04 0.04 0.04 0.04 0.04 0.04 0.04 0.04 0.04 0.04 0.04 0.04 0.04 0.04 0.04 0.04 0.04 0.04 0.04 0.04 0.04 0.04 0.04 0.04 0.04 0.04 0.04 0.04 0.04 0.04 0.04 0.04 0.04 0.04 0.04 0.04 0.04 0.04 0.04 0.04 0.04 0.04 0.04 0.04 0.04 0.04 0.04 0.04 0.04 0.04 0.04 0.04 0.04 0.04 0.04 0.04 0.04 0.04 0.04 0.04 0.04 0.04 0.04 0.04 0.04 0.04 0.04 0.04 0.04 0.04 0.04 0.04 0.04 0.04 0.04 0.04 0.04 0.04 0.04 0.04 0.04 0.04 0.04 0.04 0.04 0.04 0.04 0.04 0.04 0.04 0.04 0.04 0.04 0.04 0.04 0.04 0.04 0.04 0.04 0.04 0.04 0.04 0.04 0.04 0.04 0.04 0.04 0.04 0.04 0.04 0.04 0.04 0.04 0.04 0.04 0.04 0.04 0.04 0.04 0.04 0.04 0.04 0.04 0.04 0.04 0.04 0.04 0.04 0.04 0.04 0.04 0.04 0.04 0.04 0.04 0.04 0.04 0.04 0.04 0.04 0.04 0.04 0.04 0.04 0.04 0.04 0.04 0.04 0.04 0.04 0.04 0.04 0.04 0.04 0.04 0.04 0.04 0.04 0.04 0.04 0.04 0.04 0.04 0.04 0.04 0.04 0.04 0.04 0.04 0.04 0.04 0.04 0.04 0.04 0.04 0.04 0.04 0.04 0.04 0.04 0.04 0.04 0.04 0.04 0.04 0.04 0.04 0.04 0.04 0.04 0.04 0.04 0.04 0.04 0.04 0.04 0.04 0.04 0.04 0.04 0.04 0.04 0.04 0.04 0.04 0.04 0.04 0.04 0.04 0.04 0.04 0.04 0.04 0.04 0.04 0.04 0.04 0.04 0.04 0.04 0.04 0.04 0.04 0.04 0.04 0.04 0.04 0.04 0.04 0.04 0.04 0.04 0.04 0.04 0.04 0.04 0.04 0.04 0.04 0.04 0.04 0.04 0.04 0.04 0.04 0.04 0.04 0.04 0.04 0.04 0.04 0.04 0.04 0.04 0.04 0.04 0.04 0.04 0.04 0.04 0.04 0.04 0.04 0.04 0.04 0.04 0.04 0.04 0.04 0.04 0.04 0.04 0.04 0.04 0.04 0.04 0.04 0.04 0.04 0.04 0.04 0.04 0.04 0.04 0.04 0.04 0.04 0.04 0.04 0.04 0.01 0.01 0.01 0.01 0.01 0.01 0.01 0.01 0.01 0.01 0.01 0.01 0.51 0.01 0.01 0.01 0.01 0.01 0.01 0.01 0.26 0.01 0.01 0.01 0.01 0.04 0.04 0.04 0.04 0.04 0.04 0.04 0.04 0.04 0.04 0.04 0.04 0.04 0.04 0.04 0.04 0.04 0.04 0.04 0.04 0.04 0.04 0.04 0.04 0.04 0.04 0.04 0.04 0.04 0.04 0.04 0.04 0.04 0.04 0.04 0.04 0.04 0.04 0.04 0.04 0.04 0.04 0.04 0.04 0.04 0.04 0.04 0.04 0.04 0.04 0.04 0.04 0.04 0.04 0.04 0.04 0.04 0.04 0.04 0.04 0.04 0.04 0.04 0.04 0.04 0.04 0.04 0.04 0.04 0.04 0.04 0.04 0.04 0.04 0.04 0.04 0.04 0.04 0.04 0.04 0.04 0.04 0.04 0.04 0.04 0.04 0.04 0.04 0.04 0.04 0.04 0.04 0.04 0.04 0.04 0.04 0.04 0.04 0.04 0.04 0.04 0.04 0.04 0.04 0.04 0.04 0.04 0.04 0.04 0.04 0.04 0.04 0.04 0.04 0.04 0.04 0.04 0.04 0.04 0.04 0.04 0.04 0.04 0.04 0.04 0.04 0.04 0.04 0.04 0.04 0.04 0.04 0.04 0.04 0.04 0.04 0.04 0.04 0.04 0.04 0.04 0.04 0.04 0.04 0.04 0.04 0.04 0.04 0.04 0.04 0.04 0.04 0.04 0.04 0.04 0.04 0.04 0.04 0.04 0.04 0.04 0.04 0.04 0.04 0.04 0.04 0.04 0.04 0.04 0.04 0.04 0.04 0.04 0.04 0.04 0.04 0.04 0.04 0.04 0.04 0.04 0.04 0.04 0.04 0.04 0.04 0.04 0.04 0.04 0.04 0.04 0.04 0.04 0.04 0.04 0.04 0.04 0.04 0.04 0.04 0.01333333333333333 0.01333333333333333 0.01333333333333333 0.01333333333333333 0.01333333333333333 0.01333333333333333 0.01333333333333333 0.01333333333333333 0.6799999999999998 0.01333333333333333 0.01333333333333333 0.01333333333333333 0.01333333333333333 0.01333333333333333 0.01333333333333333 0.01333333333333333 0.01333333333333333 0.01333333333333333 0.01333333333333333 0.01333333333333333 0.01333333333333333 0.01333333333333333 0.01333333333333333 0.01333333333333333 0.01333333333333333 0.005 0.005 0.13 0.005 0.005 0.005 0.005 0.005 0.38 0.005 0.005 0.005 0.38 0.005 0.005 0.005 0.005 0.005 0.005 0.005 0.005 0.005 0.005 0.005 0.005 0.01333333333333333 0.01333333333333333 0.01333333333333333 0.01333333333333333 0.01333333333333333 0.01333333333333333 0.01333333333333333 0.01333333333333333 0.6799999999999998 0.01333333333333333 0.01333333333333333 0.01333333333333333 0.01333333333333333 0.01333333333333333 0.01333333333333333 0.01333333333333333 0.01333333333333333 0.01333333333333333 0.01333333333333333 0.01333333333333333 0.01333333333333333 0.01333333333333333 0.01333333333333333 0.01333333333333333 0.01333333333333333 0.007999999999999998 0.007999999999999998 0.007999999999999998 0.007999999999999998 0.007999999999999998 0.007999999999999998 0.007999999999999998 0.007999999999999998 0.8079999999999998 0.007999999999999998 0.007999999999999998 0.007999999999999998 0.007999999999999998 0.007999999999999998 0.007999999999999998 0.007999999999999998 0.007999999999999998 0.007999999999999998 0.007999999999999998 0.007999999999999998 0.007999999999999998 0.007999999999999998 0.007999999999999998 0.007999999999999998 0.007999999999999998 0.01333333333333333 0.01333333333333333 0.01333333333333333 0.01333333333333333 0.01333333333333333 0.01333333333333333 0.01333333333333333 0.01333333333333333 0.6799999999999998 0.01333333333333333 0.01333333333333333 0.01333333333333333 0.01333333333333333 0.01333333333333333 0.01333333333333333 0.01333333333333333 0.01333333333333333 0.01333333333333333 0.01333333333333333 0.01333333333333333 0.01333333333333333 0.01333333333333333 0.01333333333333333 0.01333333333333333 0.01333333333333333 0.01 0.01 0.01 0.01 0.01 0.01 0.01 0.01 0.26 0.01 0.01 0.01 0.51 0.01 0.01 0.01 0.01 0.01 0.01 0.01 0.01 0.01 0.01 0.01 0.01 0.04 0.04 0.04 0.04 0.04 0.04 0.04 0.04 0.04 0.04 0.04 0.04 0.04 0.04 0.04 0.04 0.04 0.04 0.04 0.04 0.04 0.04 0.04 0.04 0.04 0.04 0.04 0.04 0.04 0.04 0.04 0.04 0.04 0.04 0.04 0.04 0.04 0.04 0.04 0.04 0.04 0.04 0.04 0.04 0.04 0.04 0.04 0.04 0.04 0.04 0.04 0.04 0.04 0.04 0.04 0.04 0.04 0.04 0.04 0.04 0.04 0.04 0.04 0.04 0.04 0.04 0.04 0.04 0.04 0.04 0.04 0.04 0.04 0.04 0.04 0.04 0.04 0.04 0.04 0.04 0.04 0.04 0.04 0.04 0.04 0.04 0.04 0.04 0.04 0.04 0.04 0.04 0.04 0.04 0.04 0.04 0.04 0.04 0.04 0.04 0.01333333333333333 0.01333333333333333 0.01333333333333333 0.01333333333333333 0.01333333333333333 0.01333333333333333 0.01333333333333333 0.01333333333333333 0.3466666666666666 0.01333333333333333 0.01333333333333333 0.01333333333333333 0.01333333333333333 0.01333333333333333 0.01333333333333333 0.01333333333333333 0.01333333333333333 0.01333333333333333 0.01333333333333333 0.01333333333333333 0.3466666666666666 0.01333333333333333 0.01333333333333333 0.01333333333333333 0.01333333333333333 0.005714285714285714 0.005714285714285714 0.005714285714285714 0.005714285714285714 0.005714285714285714 0.005714285714285714 0.005714285714285714 0.005714285714285714 0.8628571428571428 0.005714285714285714 0.005714285714285714 0.005714285714285714 0.005714285714285714 0.005714285714285714 0.005714285714285714 0.005714285714285714 0.005714285714285714 0.005714285714285714 0.005714285714285714 0.005714285714285714 0.005714285714285714 0.005714285714285714 0.005714285714285714 0.005714285714285714 0.005714285714285714 0.02 0.02 0.52 0.02 0.02 0.02 0.02 0.02 0.02 0.02 0.02 0.02 0.02 0.02 0.02 0.02 0.02 0.02 0.02 0.02 0.02 0.02 0.02 0.02 0.02 0.01333333333333333 0.01333333333333333 0.01333333333333333 0.01333333333333333 0.01333333333333333 0.01333333333333333 0.01333333333333333 0.01333333333333333 0.6799999999999998 0.01333333333333333 0.01333333333333333 0.01333333333333333 0.01333333333333333 0.01333333333333333 0.01333333333333333 0.01333333333333333 0.01333333333333333 0.01333333333333333 0.01333333333333333 0.01333333333333333 0.01333333333333333 0.01333333333333333 0.01333333333333333 0.01333333333333333 0.01333333333333333 0.01 0.01 0.01 0.01 0.01 0.01 0.01 0.01 0.26 0.01 0.01 0.01 0.51 0.01 0.01 0.01 0.01 0.01 0.01 0.01 0.01 0.01 0.01 0.01 0.01 0.01 0.01 0.01 0.01 0.01 0.01 0.01 0.01 0.26 0.01 0.01 0.01 0.51 0.01 0.01 0.01 0.01 0.01 0.01 0.01 0.01 0.01 0.01 0.01 0.01 0.04 0.04 0.04 0.04 0.04 0.04 0.04 0.04 0.04 0.04 0.04 0.04 0.04 0.04 0.04 0.04 0.04 0.04 0.04 0.04 0.04 0.04 0.04 0.04 0.04 0.04 0.04 0.04 0.04 0.04 0.04 0.04 0.04 0.04 0.04 0.04 0.04 0.04 0.04 0.04 0.04 0.04 0.04 0.04 0.04 0.04 0.04 0.04 0.04 0.04 0.04 0.04 0.04 0.04 0.04 0.04 0.04 0.04 0.04 0.04 0.04 0.04 0.04 0.04 0.04 0.04 0.04 0.04 0.04 0.04 0.04 0.04 0.04 0.04 0.04 0.04 0.04 0.04 0.04 0.04 0.04 0.04 0.04 0.04 0.04 0.04 0.04 0.04 0.04 0.04 0.04 0.04 0.04 0.04 0.04 0.04 0.04 0.04 0.04 0.04 0.04 0.04 0.04 0.04 0.04 0.04 0.04 0.04 0.04 0.04 0.04 0.04 0.04 0.04 0.04 0.04 0.04 0.04 0.04 0.04 0.04 0.04 0.04 0.04 0.04 0.01 0.01 0.01 0.01 0.01 0.01 0.01 0.01 0.26 0.01 0.01 0.01 0.01 0.01 0.01 0.01 0.01 0.01 0.01 0.01 0.51 0.01 0.01 0.01 0.01 0.02 0.02 0.02 0.02 0.02 0.02 0.02 0.02 0.02 0.02 0.02 0.02 0.52 0.02 0.02 0.02 0.02 0.02 0.02 0.02 0.02 0.02 0.02 0.02 0.02 0.04 0.04 0.04 0.04 0.04 0.04 0.04 0.04 0.04 0.04 0.04 0.04 0.04 0.04 0.04 0.04 0.04 0.04 0.04 0.04 0.04 0.04 0.04 0.04 0.04 0.04 0.04 0.04 0.04 0.04 0.04 0.04 0.04 0.04 0.04 0.04 0.04 0.04 0.04 0.04 0.04 0.04 0.04 0.04 0.04 0.04 0.04 0.04 0.04 0.04 0.04 0.04 0.04 0.04 0.04 0.04 0.04 0.04 0.04 0.04 0.04 0.04 0.04 0.04 0.04 0.04 0.04 0.04 0.04 0.04 0.04 0.04 0.04 0.04 0.04 0.04 0.04 0.04 0.04 0.04 0.04 0.04 0.04 0.04 0.04 0.04 0.04 0.04 0.04 0.04 0.04 0.04 0.04 0.04 0.04 0.04 0.04 0.04 0.04 0.04 0.04 0.04 0.04 0.04 0.04 0.04 0.04 0.04 0.04 0.04 0.04 0.04 0.04 0.04 0.04 0.04 0.04 0.04 0.04 0.04 0.04 0.04 0.04 0.04 0.04 0.04 0.04 0.04 0.04 0.04 0.04 0.04 0.04 0.04 0.04 0.04 0.04 0.04 0.04 0.04 0.04 0.04 0.04 0.04 0.04 0.04 0.04 0.04 0.04 0.04 0.04 0.04 0.04 0.04 0.04 0.04 0.04 0.04 0.04 0.04 0.04 0.04 0.04 0.04 0.04 0.04 0.04 0.04 0.04 0.04 0.04 0.04 0.04 0.04 0.04 0.04 0.04 0.04 0.04 0.04 0.04 0.04 0.04 0.04 0.04 0.04 0.04 0.04 0.04 0.04 0.04 0.04 0.04 0.04 0.04 0.04 0.04 0.04 0.04 0.04 0.04 0.04 0.04 0.04 0.04 0.04 0.04 0.04 0.04 0.04 0.04 0.04 0.04 0.04 0.04 0.04 0.04 0.04 0.04 0.04 0.04 0.04 0.04 0.04 0.04 0.04 0.04 0.04 0.04 0.04 0.04 0.04 0.04 0.04 0.04 0.04 0.04 0.04 0.04 0.04 0.04 0.04 0.04 0.04 0.04 0.04 0.04 0.04 0.04 0.04 0.04 0.04 0.04 0.04 0.04 0.04 0.04 0.04 0.04 0.04 0.04 0.04 0.04 0.04 0.04 0.04 0.04 0.04 0.04 0.04 0.04 0.04 0.04 0.04 0.04 0.02 0.02 0.02 0.02 0.02 0.02 0.02 0.02 0.52 0.02 0.02 0.02 0.02 0.02 0.02 0.02 0.02 0.02 0.02 0.02 0.02 0.02 0.02 0.02 0.02 0.02 0.02 0.02 0.02 0.02 0.02 0.02 0.02 0.02 0.02 0.02 0.02 0.52 0.02 0.02 0.02 0.02 0.02 0.02 0.02 0.02 0.02 0.02 0.02 0.02 0.04 0.04 0.04 0.04 0.04 0.04 0.04 0.04 0.04 0.04 0.04 0.04 0.04 0.04 0.04 0.04 0.04 0.04 0.04 0.04 0.04 0.04 0.04 0.04 0.04 0.04 0.04 0.04 0.04 0.04 0.04 0.04 0.04 0.04 0.04 0.04 0.04 0.04 0.04 0.04 0.04 0.04 0.04 0.04 0.04 0.04 0.04 0.04 0.04 0.04 0.04 0.04 0.04 0.04 0.04 0.04 0.04 0.04 0.04 0.04 0.04 0.04 0.04 0.04 0.04 0.04 0.04 0.04 0.04 0.04 0.04 0.04 0.04 0.04 0.04 0.04 0.04 0.04 0.04 0.04 0.04 0.04 0.04 0.04 0.04 0.04 0.04 0.04 0.04 0.04 0.04 0.04 0.04 0.04 0.04 0.04 0.04 0.04 0.04 0.04 0.04 0.04 0.04 0.04 0.04 0.04 0.04 0.04 0.04 0.04 0.04 0.04 0.04 0.04 0.04 0.04 0.04 0.04 0.04 0.04 0.04 0.04 0.04 0.04 0.04 0.04 0.04 0.04 0.04 0.04 0.04 0.04 0.04 0.04 0.04 0.04 0.04 0.04 0.04 0.04 0.04 0.04 0.04 0.04 0.04 0.04 0.04 0.04 0.04 0.04 0.04 0.04 0.04 0.04 0.04 0.04 0.04 0.04 0.04 0.04 0.04 0.04 0.04 0.04 0.04 0.04 0.04 0.04 0.04 0.04 0.04 0.04 0.04 0.04 0.04 0.04 0.04 0.04 0.04 0.04 0.04 0.04 0.04 0.04 0.04 0.04 0.04 0.04 0.04 0.04 0.04 0.04 0.04 0.04 0.04 0.04 0.04 0.04 0.04 0.04 0.04 0.04 0.04 0.04 0.04 0.04 0.04 0.04 0.04 0.04 0.04 0.04 0.04 0.04 0.04 0.04 0.04 0.04 0.04 0.04 0.04 0.04 0.04 0.04 0.04 0.04 0.04 0.04 0.04 0.04 0.04 0.04 0.04 0.04 0.04 0.04 0.04 0.04 0.04 0.04 0.04 0.04 0.04 0.04 0.04 0.04 0.04 0.04 0.04 0.04 0.04 0.04 0.04 0.04 0.04 0.04 0.04 0.04 0.04 0.04 0.04 0.04 0.04 0.04 0.04 0.04 0.04 0.04 0.04 0.04 0.04 0.04 0.04 0.04 0.04 0.04 0.04 0.04 0.04 0.04 0.04 0.04 0.04 0.04 0.04 0.04 0.04 0.04 0.04 0.04 0.04 0.04 0.04 0.04 0.04 0.04 0.04 0.04 0.04 0.04 0.04 0.04 0.04 0.04 0.04 0.04 0.04 0.04 0.04 0.04 0.04 0.04 0.04 0.04 0.04 0.04 0.04 0.04 0.04 0.04 0.04 0.04 0.04 0.04 0.04 0.04 0.04 0.04 0.04 0.04 0.04 0.04 0.04 0.04 0.04 0.04 0.04 0.04 0.04 0.04 0.04 0.04 0.04 0.04 0.04 0.04 0.04 0.04 0.04 0.04 0.04 0.04 0.04 0.04 0.04 0.04 0.04 0.04 0.04 0.04 0.04 0.04 0.04 0.04 0.04 0.04 0.04 0.04 0.04 0.04 0.04 0.04 0.04 0.04 0.04 0.04 0.04 0.04 0.04 0.04 0.04 0.04 0.04 0.04 0.04 0.04 0.04 0.04 0.04 0.04 0.04 0.04 0.04 0.04 0.04 0.04 0.04 0.04 0.04 0.04 0.04 0.04 0.04 0.04 0.04 0.04 0.04 0.04 0.04 0.04 0.04 0.04 0.04 0.04 0.04 0.04 0.04 0.04 0.04 0.04 0.04 0.04 0.04 0.04 0.04 0.04 0.04 0.04 0.04 0.04 0.04 0.04 0.04 0.04 0.04 0.04 0.04 0.04 0.04 0.04 0.04 0.04 0.04 0.04 0.04 0.04 0.04 0.04 0.04 0.04 0.04 0.04 0.04 0.04 0.04 0.04 0.04 0.04 0.04 0.04 0.04 0.04 0.04 0.04 0.04 0.04 0.04 0.04 0.04 0.04 0.04 0.04 0.04 0.04 0.04 0.04 0.04 0.04 0.04 0.04 0.04 0.04 0.04 0.04 0.04 0.04 0.04 0.04 0.04 0.04 0.04 0.04 0.04 0.04 0.04 0.04 0.04 0.04 0.04 0.04 0.04 0.04 0.04 0.04 0.04 0.04 0.04 0.04 0.04 0.04 0.04 0.04 0.04 0.04 0.04 0.04 0.04 0.04 0.04 0.04 0.04 0.04 0.04 0.04 0.04 0.04 0.04 0.04 0.04 0.04 0.04 0.04 0.04 0.04 0.04 0.04 0.04 0.04 0.04 0.04 0.04 0.04 0.04 0.04 0.04 0.04 0.04 0.04 0.04 0.04 0.04 0.04 0.04 0.04 0.04 0.04 0.04 0.04 0.04 0.04 0.04 0.04 0.04 0.04 0.04 0.04 0.04 0.04 0.04 0.04 0.04 0.04 0.04 0.04 0.04 0.04 0.04 0.04 0.04 0.04 0.04 0.04 0.04 0.04 0.04 0.04 0.04 0.04 0.04 0.04 0.04 0.04 0.04 0.04 0.04 0.04 0.04 0.04 0.04 0.04 0.04 0.04 0.04 0.04 0.04 0.04 0.04 0.04 0.04 0.04 0.04 0.04 0.04 0.04 0.04 0.04 0.04 0.04 0.04 0.04 0.04 0.04 0.04 0.04 0.04 0.04 0.04 0.04 0.04 0.04 0.04 0.04 0.04 0.04 0.04 0.04 0.04 0.04 0.04 0.04 0.04 0.04 0.04 0.04 0.04 0.04 0.04 0.04 0.04 0.04 0.04 0.04 0.04 0.04 0.04 0.04 0.04 0.04 0.04 0.04 0.04 0.04 0.04 0.04 0.04 0.04 0.04 0.04 0.04 0.04 0.04 0.04 0.04 0.04 0.04 0.04 0.04 0.04 0.04 0.04 0.04 0.04 0.04 0.04 0.04 0.04 0.04 0.04 0.04 0.04 0.04 0.04 0.04 0.04 0.04 0.04 0.04 0.04 0.04 0.04 0.04 0.04 0.04 0.04 0.04 0.04 0.04 0.04 0.04 0.04 0.04 0.04 0.04 0.04 0.04 0.04 0.04 0.04 0.04 0.04 0.04 0.04 0.04 0.04 0.04 0.04 0.04 0.04 0.04 0.04 0.04 0.04 0.04 0.04 0.04 0.04 0.04 0.04 0.04 0.04 0.04 0.04 0.04 0.04 0.04 0.04 0.04 0.04 0.04 0.04 0.04 0.04 0.04 0.04 0.04 0.04 0.04 0.04 0.04 0.04 0.04 0.04 0.04 0.04 0.04 0.04 0.04 0.04 0.04 0.04 0.04 0.04 0.04 0.04 0.04 0.04 0.04 0.04 0.04 0.04 0.04 0.04 0.04 0.04 0.04 0.04 0.04 0.04 0.04 0.04 0.04 0.04 0.04 0.04 0.04 0.04 0.04 0.04 0.04 0.04 0.04 0.04 0.04 0.04 0.04 0.04 0.04 0.04 0.04 0.04 0.04 0.04 0.04 0.04 0.04 0.04 0.04 0.04 0.04 0.04 0.04 0.04 0.04 0.04 0.04 0.04 0.04 0.04 0.04 0.04 0.04 0.04 0.04 0.04 0.04 0.04 0.04 0.04 0.04 0.04 0.04 0.04 0.04 0.04 0.04 0.04 0.04 0.04 0.04 0.04 0.04 0.04 0.04 0.04 0.04 0.04 0.04 0.04 0.04 0.04 0.04 0.04 0.04 0.04 0.04 0.04 0.04 0.04 0.04 0.04 0.04 0.04 0.04 0.04 0.04 0.04 0.04 0.04 0.04 0.04 0.04 0.04 0.04 0.04 0.04 0.04 0.04 0.04 0.04 0.04 0.04 0.04 0.04 0.04 0.04 0.04 0.04 0.04 0.04 0.04 0.04 0.04 0.04 0.04 0.04 0.04 0.04 0.04 0.04 0.04 0.04 0.04 0.04 0.04 0.04 0.04 0.04 0.04 0.04 0.04 0.04 0.04 0.04 0.04 0.04 0.04 0.04 0.04 0.04 0.04 0.04 0.04 0.04 0.04 0.04 0.04 0.04 0.04 0.04 0.04 0.04 0.04 0.04 0.04 0.04 0.04 0.04 0.04 0.04 0.04 0.04 0.04 0.04 0.04 0.04 0.04 0.04 0.04 0.04 0.04 0.04 0.04 0.04 0.04 0.04 0.04 0.04 0.04 0.04 0.04 0.04 0.04 0.04 0.04 0.04 0.04 0.04 0.04 0.04 0.04 0.04 0.04 0.04 0.04 0.04 0.04 0.04 0.04 0.04 0.04 0.04 0.04 0.04 0.04 0.04 0.04 0.04 0.04 0.04 0.04 0.04 0.04 0.04 0.04 0.04 0.04 0.04 0.04 0.04 0.04 0.04 0.04 0.04 0.04 0.04 0.04 0.04 0.04 0.04 0.04 0.04 0.04 0.04 0.04 0.04 0.04 0.04 0.04 0.04 0.04 0.04 0.04 0.04 0.04 0.04 0.04 0.04 0.04 0.04 0.04 0.04 0.04 0.04 0.04 0.04 0.04 0.04 0.04 0.04 0.04 0.04 0.04 0.04 0.04 0.04 0.04 0.04 0.04 0.04 0.04 0.04 0.04 0.04 0.04 0.04 0.04 0.04 0.04 0.04 0.04 0.04 0.04 0.04 0.04 0.04 0.04 0.04 0.04 0.04 0.04 0.04 0.04 0.04 0.04 0.04 0.04 0.04 0.04 0.04 0.04 0.04 0.04 0.04 0.04 0.04 0.04 0.04 0.04 0.04 0.04 0.04 0.04 0.04 0.04 0.04 0.04 0.04 0.04 0.04 0.04 0.04 0.04 0.04 0.04 0.04 0.04 0.04 0.04 0.04 0.04 0.04 0.04 0.04 0.04 0.04 0.04 0.04 0.04 0.04 0.04 0.04 0.04 0.04 0.04 0.04 0.04 0.04 0.04 0.04 0.04 0.04 0.04 0.04 0.04 0.04 0.04 0.04 0.04 0.04 0.04 0.04 0.04 0.04 0.04 0.04 0.04 0.04 0.04 0.04 0.04 0.04 0.04 0.04 0.04 0.04 0.04 0.04 0.04 0.04 0.04 0.04 0.04 0.04 0.04 0.04 0.04 0.04 0.04 0.04 0.04 0.04 0.04 0.04 0.04 0.04 0.04 0.04 0.04 0.04 0.04 0.04 0.04 0.04 0.04 0.04 0.04 0.04 0.04 0.04 0.04 0.04 0.04 0.04 0.04 0.04 0.04 0.04 0.04 0.04 0.04 0.04 0.04 0.04 0.04 0.04 0.04 0.04 0.04 0.04 0.04 0.04 0.04 0.04 0.04 0.04 0.04 0.04 0.04 0.04 0.04 0.04 0.04 0.04 0.04 0.04 0.04 0.04 0.04 0.04 0.04 0.04 0.04 0.04 0.04 0.04 0.04 0.04 0.04 0.04 0.04 0.04 0.04 0.04 0.04 0.04 0.04 0.04 0.04 0.04 0.04 0.04 0.04 0.04 0.04 0.04 0.04 0.04 0.04 0.04 0.04 0.04 0.04 0.04 0.04 0.04 0.04 0.04 0.04 0.04 0.04 0.04 0.04 0.04 0.04 0.04 0.04 0.04 0.04 0.04 0.04 0.04 0.04 0.04 0.04 0.04 0.04 0.04 0.04 0.04 0.04 0.04 0.04 0.04 0.04 0.04 0.04 0.04 0.04 0.04 0.04 0.04 0.04 0.04 0.04 0.04 0.04 0.04 0.04 0.04 0.04 0.04 0.04 0.04 0.04 0.04 0.04 0.04 0.04 0.04 0.04 0.04 0.04 0.04 0.04 0.04 0.04 0.04 0.04 0.04 0.04 0.04 0.04 0.04 0.04 0.04 0.04 0.04 0.04 0.04 0.04 0.04 0.04 0.04 0.04 0.04 0.04 0.04 0.04 0.04 0.04 0.04 0.04 0.04 0.04 0.04 0.04 0.04 0.04 0.04 0.04 0.04 0.04 0.04 0.04 0.04 0.04 0.04 0.04 0.04 0.04 0.04 0.04 0.04 0.04 0.04 0.04 0.04 0.04 0.04 0.04 0.04 0.04 0.04 0.04 0.04 0.04 0.04 0.04 0.04 0.04 0.04 0.04 0.04 0.04 0.04 0.04 0.04 0.04 0.04 0.04 0.04 0.04 0.04 0.04 0.04 0.04 0.04 0.04 0.04 0.04 0.04 0.04 0.04 0.04 0.04 0.04 0.04 0.04 0.04 0.04 0.04 0.04 0.04 0.04 0.04 0.04 0.04 0.04 0.04 0.04 0.04 0.04 0.04 0.04 0.04 0.04 0.04 0.04 0.04 0.04 0.04 0.04 0.04 0.04 0.04 0.04 0.04 0.04 0.04 0.04 0.04 0.04 0.04 0.04 0.04 0.04 0.04 0.04 0.04 0.04 0.04 0.04 0.04 0.04 0.04 0.04 0.04 0.04 0.04 0.04 0.04 0.04 0.04 0.04 0.04 0.04 0.04 0.04 0.04 0.04 0.04 0.04 0.04 0.04 0.04 0.04 0.04 0.04 0.04 0.04 0.04 0.04 0.04 0.04 0.04 0.04 0.04 0.04 0.04 0.04 0.04 0.04 0.04 0.04 0.04 0.04 0.04 0.04 0.04 0.04 0.04 0.04 0.04 0.04 0.04 0.04 0.04 0.04 0.04 0.04 0.04 0.04 0.04 0.04 0.04 0.04 0.04 0.04 0.04 0.04 0.04 0.04 0.04 0.04 0.04 0.04 0.04 0.04 0.04 0.04 0.04 0.04 0.04 0.04 0.04 0.04 0.04 0.04 0.04 0.04 0.04 0.04 0.04 0.04 0.04 0.04 0.04 0.04 0.04 0.04 0.04 0.04 0.04 0.04 0.04 0.04 0.04 0.04 0.04 0.04 0.04 0.04 0.04 0.04 0.04 0.04 0.04 0.04 0.04 0.04 0.04 0.04 0.04 0.04 0.04 0.04 0.04 0.04 0.04 0.04 0.04 0.04 0.04 0.04 0.04 0.04 0.04 0.04 0.04 0.04 0.04 0.04 0.04 0.04 0.04 0.04 0.04 0.04 0.04 0.04 0.04 0.04 0.04 0.04 0.04 0.02 0.02 0.02 0.02 0.02 0.02 0.02 0.02 0.52 0.02 0.02 0.02 0.02 0.02 0.02 0.02 0.02 0.02 0.02 0.02 0.02 0.02 0.02 0.02 0.02 0.04 0.04 0.04 0.04 0.04 0.04 0.04 0.04 0.04 0.04 0.04 0.04 0.04 0.04 0.04 0.04 0.04 0.04 0.04 0.04 0.04 0.04 0.04 0.04 0.04 0.04 0.04 0.04 0.04 0.04 0.04 0.04 0.04 0.04 0.04 0.04 0.04 0.04 0.04 0.04 0.04 0.04 0.04 0.04 0.04 0.04 0.04 0.04 0.04 0.04 0.04 0.04 0.04 0.04 0.04 0.04 0.04 0.04 0.04 0.04 0.04 0.04 0.04 0.04 0.04 0.04 0.04 0.04 0.04 0.04 0.04 0.04 0.04 0.04 0.04 0.04 0.04 0.04 0.04 0.04 0.04 0.04 0.04 0.04 0.04 0.04 0.04 0.04 0.04 0.04 0.04 0.04 0.04 0.04 0.04 0.04 0.04 0.04 0.04 0.04 0.04 0.04 0.04 0.04 0.04 0.04 0.04 0.04 0.04 0.04 0.04 0.04 0.04 0.04 0.04 0.04 0.04 0.04 0.04 0.04 0.04 0.04 0.04 0.04 0.04 0.04 0.04 0.04 0.04 0.04 0.04 0.04 0.04 0.04 0.04 0.04 0.04 0.04 0.04 0.04 0.04 0.04 0.04 0.04 0.04 0.04 0.04 0.04 0.04 0.04 0.04 0.04 0.04 0.04 0.04 0.04 0.04 0.04 0.04 0.04 0.04 0.04 0.04 0.04 0.04 0.04 0.04 0.04 0.04 0.04 0.04 0.04 0.04 0.04 0.04 0.04 0.04 0.04 0.04 0.04 0.04 0.04 0.04 0.04 0.04 0.04 0.04 0.04 0.04 0.04 0.04 0.04 0.04 0.04 0.04 0.04 0.04 0.04 0.04 0.04 0.04 0.04 0.04 0.04 0.04 0.04 0.04 0.04 0.04 0.04 0.04 0.04 0.04 0.04 0.04 0.04 0.04 0.04 0.04 0.04 0.04 0.04 0.04 0.04 0.04 0.04 0.04 0.04 0.04 0.04 0.04 0.04 0.04 0.04 0.04 0.04 0.04 0.04 0.04 0.04 0.04 0.04 0.04 0.04 0.04 0.04 0.04 0.04 0.04 0.04 0.02 0.02 0.02 0.02 0.02 0.02 0.02 0.02 0.52 0.02 0.02 0.02 0.02 0.02 0.02 0.02 0.02 0.02 0.02 0.02 0.02 0.02 0.02 0.02 0.02 0.04 0.04 0.04 0.04 0.04 0.04 0.04 0.04 0.04 0.04 0.04 0.04 0.04 0.04 0.04 0.04 0.04 0.04 0.04 0.04 0.04 0.04 0.04 0.04 0.04 0.02 0.02 0.02 0.02 0.02 0.52 0.02 0.02 0.02 0.02 0.02 0.02 0.02 0.02 0.02 0.02 0.02 0.02 0.02 0.02 0.02 0.02 0.02 0.02 0.02 0.04 0.04 0.04 0.04 0.04 0.04 0.04 0.04 0.04 0.04 0.04 0.04 0.04 0.04 0.04 0.04 0.04 0.04 0.04 0.04 0.04 0.04 0.04 0.04 0.04 0.04 0.04 0.04 0.04 0.04 0.04 0.04 0.04 0.04 0.04 0.04 0.04 0.04 0.04 0.04 0.04 0.04 0.04 0.04 0.04 0.04 0.04 0.04 0.04 0.04 0.04 0.04 0.04 0.04 0.04 0.04 0.04 0.04 0.04 0.04 0.04 0.04 0.04 0.04 0.04 0.04 0.04 0.04 0.04 0.04 0.04 0.04 0.04 0.04 0.04 0.04 0.04 0.04 0.04 0.04 0.04 0.04 0.04 0.04 0.04 0.04 0.04 0.04 0.04 0.04 0.04 0.04 0.04 0.04 0.04 0.04 0.04 0.04 0.04 0.04 0.04 0.04 0.04 0.04 0.04 0.04 0.04 0.04 0.04 0.04 0.04 0.04 0.04 0.04 0.04 0.04 0.04 0.04 0.04 0.04 0.04 0.04 0.04 0.04 0.04 0.04 0.04 0.04 0.04 0.04 0.04 0.04 0.04 0.04 0.04 0.04 0.04 0.04 0.04 0.04 0.04 0.04 0.04 0.04 0.04 0.04 0.04 0.04 0.04 0.04 0.04 0.04 0.04 0.04 0.04 0.04 0.04 0.04 0.04 0.04 0.04 0.04 0.04 0.04 0.04 0.04 0.04 0.04 0.04 0.04 0.04 0.04 0.04 0.04 0.04 0.04 0.04 0.04 0.04 0.04 0.04 0.04 0.04 0.04 0.04 0.04 0.04 0.04 0.04 0.04 0.04 0.04 0.04 0.04 0.04 0.04 0.04 0.04 0.04 0.04 0.04 0.04 0.04 0.04 0.04 0.04 0.04 0.04 0.04 0.04 0.04 0.04 0.04 0.04 0.04 0.04 0.04 0.04 0.04 0.04 0.04 0.04 0.04 0.04 0.04 0.04 0.04 0.04 0.04 0.04 0.04 0.04 0.04 0.04 0.04 0.04 0.04 0.04 0.04 0.04 0.04 0.04 0.04 0.04 0.04 0.04 0.04 0.04 0.04 0.04 0.04 0.04 0.04 0.04 0.04 0.04 0.04 0.04 0.04 0.04 0.04 0.04 0.04 0.04 0.04 0.04 0.04 0.04 0.04 0.04 0.04 0.04 0.04 0.04 0.04 0.04 0.04 0.04 0.04 0.04 0.04 0.04 0.04 0.04 0.04 0.04 0.04 0.04 0.04 0.04 0.04 0.04 0.04 0.04 0.04 0.04 0.04 0.04 0.04 0.04 0.04 0.04 0.04 0.04 0.04 0.04 0.04 0.04 0.04 0.04 0.04 0.04 0.04 0.04 0.04 0.04 0.04 0.04 0.04 0.04 0.04 0.04 0.04 0.04 0.04 0.04 0.04 0.04 0.04 0.04 0.04 0.04 0.04 0.04 0.04 0.04 0.04 0.04 0.04 0.04 0.04 0.04 0.04 0.04 0.04 0.04 0.04 0.04 0.04 0.04 0.04 0.04 0.04 0.04 0.04 0.04 0.04 0.04 0.04 0.04 0.04 0.04 0.04 0.04 0.04 0.04 0.04 0.04 0.04 0.04 0.04 0.04 0.04 0.04 0.04 0.04 0.04 0.04 0.04 0.04 0.04 0.04 0.04 0.04 0.04 0.04 0.04 0.04 0.04 0.04 0.04 0.04 0.04 0.04 0.04 0.04 0.04 0.04 0.04 0.04 0.02 0.02 0.02 0.02 0.02 0.02 0.02 0.02 0.52 0.02 0.02 0.02 0.02 0.02 0.02 0.02 0.02 0.02 0.02 0.02 0.02 0.02 0.02 0.02 0.02 0.04 0.04 0.04 0.04 0.04 0.04 0.04 0.04 0.04 0.04 0.04 0.04 0.04 0.04 0.04 0.04 0.04 0.04 0.04 0.04 0.04 0.04 0.04 0.04 0.04 0.04 0.04 0.04 0.04 0.04 0.04 0.04 0.04 0.04 0.04 0.04 0.04 0.04 0.04 0.04 0.04 0.04 0.04 0.04 0.04 0.04 0.04 0.04 0.04 0.04 0.04 0.04 0.04 0.04 0.04 0.04 0.04 0.04 0.04 0.04 0.04 0.04 0.04 0.04 0.04 0.04 0.04 0.04 0.04 0.04 0.04 0.04 0.04 0.04 0.04 0.04 0.04 0.04 0.04 0.04 0.04 0.04 0.04 0.04 0.04 0.04 0.04 0.04 0.04 0.04 0.04 0.04 0.04 0.04 0.04 0.04 0.04 0.04 0.04 0.04 0.04 0.04 0.04 0.04 0.04 0.04 0.04 0.04 0.04 0.04 0.04 0.04 0.04 0.04 0.04 0.04 0.04 0.04 0.04 0.04 0.04 0.04 0.04 0.04 0.04 0.04 0.04 0.04 0.04 0.04 0.04 0.04 0.04 0.04 0.04 0.04 0.04 0.04 0.04 0.04 0.04 0.04 0.04 0.04 0.04 0.04 0.04 0.04 0.04 0.04 0.04 0.04 0.04 0.04 0.04 0.04 0.04 0.04 0.04 0.04 0.04 0.04 0.04 0.04 0.04 0.04 0.04 0.04 0.04 0.04 0.04 0.04 0.04 0.04 0.04 0.04 0.04 0.04 0.04 0.04 0.04 0.04 0.04 0.04 0.04 0.04 0.04 0.04 0.04 0.04 0.04 0.04 0.04 0.04 0.04 0.04 0.04 0.04 0.04 0.04 0.04 0.04 0.04 0.04 0.04 0.04 0.04 0.04 0.04 0.04 0.04 0.04 0.04 0.04 0.04 0.04 0.04 0.04 0.04 0.04 0.04 0.04 0.04 0.04 0.04 0.04 0.04 0.04 0.04 0.04 0.04 0.04 0.04 0.04 0.04 0.04 0.04 0.04 0.04 0.04 0.04 0.04 0.04 0.04 0.04 0.04 0.04 0.04 0.04 0.04 0.02 0.02 0.02 0.02 0.02 0.02 0.02 0.02 0.52 0.02 0.02 0.02 0.02 0.02 0.02 0.02 0.02 0.02 0.02 0.02 0.02 0.02 0.02 0.02 0.02 0.04 0.04 0.04 0.04 0.04 0.04 0.04 0.04 0.04 0.04 0.04 0.04 0.04 0.04 0.04 0.04 0.04 0.04 0.04 0.04 0.04 0.04 0.04 0.04 0.04 0.04 0.04 0.04 0.04 0.04 0.04 0.04 0.04 0.04 0.04 0.04 0.04 0.04 0.04 0.04 0.04 0.04 0.04 0.04 0.04 0.04 0.04 0.04 0.04 0.04 0.04 0.04 0.04 0.04 0.04 0.04 0.04 0.04 0.04 0.04 0.04 0.04 0.04 0.04 0.04 0.04 0.04 0.04 0.04 0.04 0.04 0.04 0.04 0.04 0.04 0.04 0.04 0.04 0.04 0.04 0.04 0.04 0.04 0.04 0.04 0.04 0.04 0.04 0.04 0.04 0.04 0.04 0.04 0.04 0.04 0.04 0.04 0.04 0.04 0.04 0.04 0.04 0.04 0.04 0.04 0.04 0.04 0.04 0.04 0.04 0.04 0.04 0.04 0.04 0.04 0.04 0.04 0.04 0.04 0.04 0.04 0.04 0.04 0.04 0.04 0.04 0.04 0.04 0.04 0.04 0.04 0.04 0.04 0.04 0.04 0.04 0.04 0.04 0.04 0.04 0.04 0.04 0.04 0.04 0.04 0.04 0.04 0.04 0.04 0.04 0.04 0.04 0.04 0.04 0.04 0.04 0.04 0.04 0.04 0.04 0.04 0.04 0.04 0.04 0.04 0.04 0.04 0.04 0.04 0.04 0.04 0.04 0.04 0.04 0.04 0.04 0.04 0.04 0.04 0.04 0.04 0.04 0.04 0.04 0.04 0.04 0.04 0.04 0.04 0.04 0.04 0.04 0.04 0.04 0.04 0.04 0.04 0.04 0.04 0.04 0.04 0.04 0.04 0.04 0.04 0.04 0.04 0.04 0.04 0.04 0.04 0.04 0.04 0.04 0.04 0.04 0.04 0.04 0.04 0.04 0.04 0.04 0.04 0.04 0.04 0.04 0.04 0.04 0.04 0.04 0.04 0.04 0.04 0.04 0.04 0.04 0.04 0.04 0.04 0.04 0.04 0.04 0.04 0.04 0.04 0.04 0.04 0.04 0.04 0.04 0.04 0.04 0.04 0.04 0.04 0.04 0.04 0.04 0.04 0.04 0.04 0.04 0.04 0.04 0.04 0.04 0.04 0.04 0.04 0.04 0.04 0.04 0.04 0.04 0.04 0.04 0.04 0.04 0.04 0.04 0.04 0.04 0.04 0.04 0.04 0.04 0.04 0.04 0.04 0.04 0.04 0.04 0.04 0.04 0.04 0.04 0.04 0.04 0.04 0.04 0.04 0.04 0.04 0.04 0.04 0.04 0.04 0.04 0.04 0.04 0.04 0.04 0.04 0.04 0.04 0.04 0.04 0.04 0.04 0.04 0.04 0.04 0.04 0.04 0.04 0.04 0.04 0.04 0.04 0.04 0.04 0.04 0.04 0.04 0.04 0.04 0.04 0.04 0.04 0.04 0.04 0.04 0.04 0.04 0.04 0.04 0.04 0.04 0.04 0.04 0.04 0.04 0.04 0.04 0.04 0.04 0.04 0.04 0.04 0.04 0.04 0.04 0.04 0.04 0.04 0.04 0.04 0.04 0.04 0.04 0.04 0.04 0.04 0.04 0.04 0.04 0.04 0.04 0.04 0.04 0.04 0.04 0.04 0.04 0.04 0.04 0.04 0.04 0.04 0.04 0.04 0.04 0.04 0.04 0.04 0.04 0.04 0.04 0.04 0.04 0.04 0.04 0.04 0.04 0.04 0.04 0.04 0.04 0.04 0.04 0.04 0.04 0.04 0.04 0.04 0.04 0.04 0.04 0.04 0.04 0.04 0.04 0.04 0.04 0.04 0.04 0.04 0.04 0.04 0.04 0.04 0.04 0.04 0.04 0.04 0.04 0.04 0.04 0.04 0.04 0.04 0.04 0.04 0.04 0.04 0.04 0.04 0.04 0.04 0.04 0.04 0.04 0.04 0.04 0.04 0.04 0.04 0.04 0.04 0.04 0.04 0.04 0.04 0.04 0.04 0.04 0.04 0.04 0.04 0.04 0.04 0.04 0.04 0.04 0.04 0.04 0.04 0.04 0.04 0.04 0.04 0.04 0.04 0.04 0.04 0.04 0.04 0.04 0.04 0.04 0.04 0.04 0.04 0.04 0.04 0.04 0.04 0.04 0.04 0.04 0.04 0.04 0.04 0.04 0.04 0.04 0.04 0.04 0.04 0.04 0.04 0.04 0.04 0.04 0.04 0.04 0.04 0.04 0.04 0.04 0.04 0.04 0.04 0.04 0.04 0.04 0.04 0.04 0.04 0.04 0.04 0.04 0.04 0.04 0.04 0.04 0.04 0.04 0.04 0.04 0.04 0.04 0.04 0.04 0.04 0.04 0.04 0.04 0.04 0.04 0.04 0.04 0.04 0.04 0.04 0.04 0.04 0.04 0.04 0.04 0.04 0.04 0.04 0.04 0.04 0.04 0.04 0.04 0.04 0.04 0.04 0.04 0.04 0.04 0.04 0.04 0.04 0.04 0.04 0.04 0.04 0.04 0.04 0.04 0.04 0.04 0.04 0.04 0.04 0.04 0.04 0.04 0.04 0.04 0.04 0.04 0.04 0.04 0.04 0.04 0.04 0.04 0.04 0.04 0.04 0.04 0.04 0.04 0.04 0.04 0.04 0.04 0.04 0.04 0.04 0.04 0.04 0.04 0.04 0.04 0.04 0.04 0.04 0.04 0.04 0.04 0.04 0.04 0.04 0.04 0.04 0.04 0.04 0.04 0.04 0.04 0.04 0.04 0.04 0.04 0.04 0.04 0.04 0.04 0.04 0.04 0.04 0.04 0.04 0.04 0.04 0.04 0.04 0.04 0.04 0.04 0.04 0.04 0.04 0.04 0.04 0.04 0.04 0.04 0.04 0.04 0.04 0.04 0.04 0.04 0.04 0.04 0.04 0.04 0.04 0.04 0.04 0.04 0.04 0.04 0.04 0.04 0.04 0.04 0.04 0.04 0.04 0.04 0.04 0.04 0.04 0.04 0.04 0.04 0.04 0.04 0.04 0.04 0.04 0.04 0.04 0.04 0.04 0.04 0.04 0.04 0.04 0.04 0.04 0.04 0.04 0.04 0.04 0.04 0.04 0.04 0.04 0.04 0.04 0.04 0.04 0.04 0.04 0.04 0.04 0.04 0.04 0.04 0.04 0.04 0.04 0.04 0.04 0.04 0.04 0.04 0.04 0.04 0.04 0.04 0.04 0.04 0.04 0.04 0.04 0.04 0.04 0.04 0.04 0.04 0.04 0.04 0.04 0.04 0.04 0.04 0.04 0.04 0.04 0.04 0.04 0.04 0.04 0.04 0.04 0.04 0.04 0.04 0.04 0.04 0.04 0.04 0.04 0.04 0.04 0.04 0.04 0.04 0.04 0.04 0.04 0.04 0.04 0.04 0.04 0.04 0.04 0.04 0.04 0.04 0.04 0.04 0.04 0.04 0.04 0.04 0.04 0.04 0.04 0.04 0.04 0.04 0.04 0.04 0.04 0.04 0.04 0.04 0.04 0.04 0.04 0.04 0.04 0.04 0.04 0.04 0.04 0.04 0.04 0.04 0.04 0.04 0.04 0.04 0.04 0.04 0.04 0.04 0.04 0.04 0.04 0.04 0.04 0.04 0.04 0.04 0.04 0.04 0.04 0.04 0.04 0.04 0.04 0.04 0.04 0.04 0.04 0.04 0.04 0.04 0.04 0.04 0.04 0.04 0.04 0.04 0.04 0.04 0.04 0.04 0.04 0.04 0.04 0.04 0.04 0.04 0.04 0.04 0.04 0.04 0.04 0.04 0.04 0.04 0.04 0.04 0.04 0.04 0.04 0.04 0.04 0.04 0.04 0.04 0.04 0.04 0.04 0.04 0.04 0.04 0.04 0.04 0.04 0.04 0.04 0.04 0.04 0.04 0.04 0.04 0.04 0.04 0.04 0.04 0.04 0.04 0.04 0.04 0.04 0.04 0.04 0.04 0.04 0.04 0.04 0.04 0.04 0.04 0.04 0.04 0.04 0.04 0.04 0.04 0.04 0.04 0.04 0.04 0.04 0.04 0.04 0.04 0.04 0.04 0.04 0.04 0.04 0.04 0.04 0.04 0.04 0.04 0.04 0.04 0.04 0.04 0.04 0.04 0.04 0.04 0.04 0.04 0.04 0.04 0.04 0.04 0.04 0.04 0.04 0.04 0.04 0.04 0.04 0.04 0.04 0.04 0.04 0.04 0.04 0.04 0.04 0.04 0.04 0.04 0.04 0.04 0.04 0.04 0.04 0.04 0.04 0.04 0.04 0.04 0.04 0.04 0.04 0.04 0.04 0.04 0.04 0.04 0.04 0.04 0.04 0.04 0.04 0.04 0.04 0.04 0.04 0.04 0.04 0.04 0.04 0.04 0.04 0.04 0.04 0.04 0.04 0.04 0.04 0.04 0.04 0.04 0.04 0.04 0.04 0.04 0.04 0.04 0.04 0.04 0.04 0.04 0.04 0.04 0.04 0.04 0.04 0.04 0.04 0.04 0.04 0.04 0.04 0.04 0.04 0.04 0.04 0.04 0.04 0.04 0.04 0.04 0.04 0.04 0.04 0.04 0.04 0.04 0.04 0.04 0.04 0.04 0.04 0.04 0.04 0.04 0.04 0.04 0.04 0.04 0.04 0.04 0.04 0.04 0.04 0.04 0.04 0.04 0.04 0.04 0.04 0.04 0.04 0.04 0.04 0.04 0.04 0.04 0.04 0.04 0.04 0.04 0.04 0.04 0.04 0.04 0.04 0.04 0.04 0.04 0.04 0.04 0.04 0.04 0.04 0.04 0.04 0.04 0.04 0.04 0.04 0.04 0.04 0.04 0.04 0.04 0.04 0.04 0.04 0.04 0.04 0.04 0.04 0.04 0.04 0.04 0.04 0.04 0.04 0.04 0.04 0.04 0.04 0.04 0.04 0.04 0.04 0.04 0.04 0.04 0.04 0.04 0.04 0.04 0.04 0.04 0.04 0.04 0.04 0.04 0.04 0.04 0.04 0.04 0.04 0.04 0.04 0.04 0.04 0.04 0.04 0.04 0.04 0.04 0.04 0.04 0.04 0.04 0.04 0.04 0.04 0.04 0.04 0.04 0.04 0.04 0.04 0.04 0.04 0.04 0.04 0.04 0.04 0.04 0.04 0.04 0.04 0.04 0.04 0.04 0.04 0.04 0.04 0.04 0.04 0.04 0.04 0.04 0.04 0.04 0.04 0.04 0.04 0.04 0.04 0.04 0.04 0.04 0.04 0.04 0.04 0.04 0.04 0.04 0.04 0.04 0.04 0.04 0.04 0.04 0.04 0.04 0.04 0.04 0.04 0.04 0.04 0.04 0.04 0.04 0.04 0.04 0.04 0.04 0.04 0.04 0.04 0.04 0.04 0.04 0.04 0.04 0.04 0.04 0.04 0.04 0.04 0.04 0.04 0.04 0.04 0.04 0.04 0.04 0.04 0.04 0.04 0.04 0.04 0.04 0.04 0.04 0.04 0.04 0.04 0.04 0.04 0.04 0.04 0.04 0.04 0.04 0.04 0.04 0.04 0.04 0.04 0.04 0.04 0.04 0.04 0.04 0.04 0.04 0.04 0.04 0.04 0.04 0.04 0.04 0.04 0.04 0.04 0.04 0.04 0.04 0.04 0.04 0.04 0.04 0.04 0.04 0.04 0.04 0.04 0.04 0.04 0.04 0.04 0.04 0.04 0.04 0.04 0.04 0.04 0.04 0.04 0.04 0.04 0.04 0.04 0.04 0.04 0.04 0.04 0.04 0.04 0.04 0.04 0.04 0.04 0.04 0.04 0.04 0.04 0.04 0.04 0.04 0.04 0.04 0.04 0.04 0.04 0.04 0.04 0.04 0.04 0.04 0.04 0.04 0.04 0.04 0.04 0.04 0.04 0.04 0.04 0.04 0.04 0.04 0.04 0.04 0.04 0.04 0.04 0.04 0.04 0.04 0.04 0.04 0.04 0.04 0.04 0.04 0.04 0.04 0.04 0.04 0.04 0.04 0.04 0.04 0.04 0.04 0.04 0.04 0.04 0.04 0.04 0.04 0.04 0.04 0.04 0.04 0.04 0.04 0.04 0.04 0.04 0.04 0.04 0.04 0.04 0.04 0.04 0.04 0.04 0.04 0.04 0.04 0.04 0.04 0.04 0.04 0.04 0.04 0.04 0.04 0.04 0.04 0.04 0.04 0.04 0.04 0.04 0.04 0.04 0.04 0.04 0.04 0.04 0.007999999999999998 0.007999999999999998 0.007999999999999998 0.007999999999999998 0.007999999999999998 0.007999999999999998 0.007999999999999998 0.007999999999999998 0.8079999999999998 0.007999999999999998 0.007999999999999998 0.007999999999999998 0.007999999999999998 0.007999999999999998 0.007999999999999998 0.007999999999999998 0.007999999999999998 0.007999999999999998 0.007999999999999998 0.007999999999999998 0.007999999999999998 0.007999999999999998 0.007999999999999998 0.007999999999999998 0.007999999999999998 0.005714285714285714 0.005714285714285714 0.005714285714285714 0.005714285714285714 0.005714285714285714 0.005714285714285714 0.005714285714285714 0.005714285714285714 0.72 0.005714285714285714 0.005714285714285714 0.005714285714285714 0.005714285714285714 0.005714285714285714 0.005714285714285714 0.005714285714285714 0.005714285714285714 0.005714285714285714 0.005714285714285714 0.005714285714285714 0.1485714285714286 0.005714285714285714 0.005714285714285714 0.005714285714285714 0.005714285714285714 0.02 0.02 0.02 0.02 0.02 0.02 0.02 0.02 0.52 0.02 0.02 0.02 0.02 0.02 0.02 0.02 0.02 0.02 0.02 0.02 0.02 0.02 0.02 0.02 0.02 0.02 0.02 0.02 0.02 0.02 0.02 0.02 0.02 0.52 0.02 0.02 0.02 0.02 0.02 0.02 0.02 0.02 0.02 0.02 0.02 0.02 0.02 0.02 0.02 0.02 0.04 0.04 0.04 0.04 0.04 0.04 0.04 0.04 0.04 0.04 0.04 0.04 0.04 0.04 0.04 0.04 0.04 0.04 0.04 0.04 0.04 0.04 0.04 0.04 0.04 0.02 0.02 0.02 0.02 0.02 0.02 0.02 0.02 0.52 0.02 0.02 0.02 0.02 0.02 0.02 0.02 0.02 0.02 0.02 0.02 0.02 0.02 0.02 0.02 0.02 0.04 0.04 0.04 0.04 0.04 0.04 0.04 0.04 0.04 0.04 0.04 0.04 0.04 0.04 0.04 0.04 0.04 0.04 0.04 0.04 0.04 0.04 0.04 0.04 0.04 0.04 0.04 0.04 0.04 0.04 0.04 0.04 0.04 0.04 0.04 0.04 0.04 0.04 0.04 0.04 0.04 0.04 0.04 0.04 0.04 0.04 0.04 0.04 0.04 0.04 0.04 0.04 0.04 0.04 0.04 0.04 0.04 0.04 0.04 0.04 0.04 0.04 0.04 0.04 0.04 0.04 0.04 0.04 0.04 0.04 0.04 0.04 0.04 0.04 0.04 0.04 0.04 0.04 0.04 0.04 0.04 0.04 0.04 0.04 0.04 0.04 0.04 0.04 0.04 0.04 0.04 0.04 0.04 0.04 0.04 0.04 0.04 0.04 0.04 0.04 0.01333333333333333 0.01333333333333333 0.01333333333333333 0.01333333333333333 0.01333333333333333 0.01333333333333333 0.01333333333333333 0.01333333333333333 0.3466666666666666 0.01333333333333333 0.01333333333333333 0.01333333333333333 0.01333333333333333 0.01333333333333333 0.01333333333333333 0.01333333333333333 0.01333333333333333 0.01333333333333333 0.01333333333333333 0.01333333333333333 0.3466666666666666 0.01333333333333333 0.01333333333333333 0.01333333333333333 0.01333333333333333 0.005 0.005 0.005 0.005 0.005 0.005 0.005 0.005 0.63 0.005 0.005 0.005 0.255 0.005 0.005 0.005 0.005 0.005 0.005 0.005 0.005 0.005 0.005 0.005 0.005 0.04 0.04 0.04 0.04 0.04 0.04 0.04 0.04 0.04 0.04 0.04 0.04 0.04 0.04 0.04 0.04 0.04 0.04 0.04 0.04 0.04 0.04 0.04 0.04 0.04 0.04 0.04 0.04 0.04 0.04 0.04 0.04 0.04 0.04 0.04 0.04 0.04 0.04 0.04 0.04 0.04 0.04 0.04 0.04 0.04 0.04 0.04 0.04 0.04 0.04 0.02 0.02 0.02 0.02 0.02 0.02 0.02 0.02 0.52 0.02 0.02 0.02 0.02 0.02 0.02 0.02 0.02 0.02 0.02 0.02 0.02 0.02 0.02 0.02 0.02 0.02 0.02 0.02 0.02 0.02 0.02 0.02 0.02 0.52 0.02 0.02 0.02 0.02 0.02 0.02 0.02 0.02 0.02 0.02 0.02 0.02 0.02 0.02 0.02 0.02 0.04 0.04 0.04 0.04 0.04 0.04 0.04 0.04 0.04 0.04 0.04 0.04 0.04 0.04 0.04 0.04 0.04 0.04 0.04 0.04 0.04 0.04 0.04 0.04 0.04 0.04 0.04 0.04 0.04 0.04 0.04 0.04 0.04 0.04 0.04 0.04 0.04 0.04 0.04 0.04 0.04 0.04 0.04 0.04 0.04 0.04 0.04 0.04 0.04 0.04 0.04 0.04 0.04 0.04 0.04 0.04 0.04 0.04 0.04 0.04 0.04 0.04 0.04 0.04 0.04 0.04 0.04 0.04 0.04 0.04 0.04 0.04 0.04 0.04 0.04 0.04 0.04 0.04 0.04 0.04 0.04 0.04 0.04 0.04 0.04 0.04 0.04 0.04 0.04 0.04 0.04 0.04 0.04 0.04 0.04 0.04 0.04 0.04 0.04 0.04 0.02 0.02 0.02 0.02 0.02 0.02 0.02 0.02 0.52 0.02 0.02 0.02 0.02 0.02 0.02 0.02 0.02 0.02 0.02 0.02 0.02 0.02 0.02 0.02 0.02 0.007999999999999998 0.007999999999999998 0.007999999999999998 0.007999999999999998 0.007999999999999998 0.007999999999999998 0.007999999999999998 0.007999999999999998 0.4079999999999999 0.007999999999999998 0.007999999999999998 0.007999999999999998 0.4079999999999999 0.007999999999999998 0.007999999999999998 0.007999999999999998 0.007999999999999998 0.007999999999999998 0.007999999999999998 0.007999999999999998 0.007999999999999998 0.007999999999999998 0.007999999999999998 0.007999999999999998 0.007999999999999998 0.02 0.02 0.02 0.02 0.02 0.02 0.02 0.02 0.52 0.02 0.02 0.02 0.02 0.02 0.02 0.02 0.02 0.02 0.02 0.02 0.02 0.02 0.02 0.02 0.02 0.04 0.04 0.04 0.04 0.04 0.04 0.04 0.04 0.04 0.04 0.04 0.04 0.04 0.04 0.04 0.04 0.04 0.04 0.04 0.04 0.04 0.04 0.04 0.04 0.04 0.04 0.04 0.04 0.04 0.04 0.04 0.04 0.04 0.04 0.04 0.04 0.04 0.04 0.04 0.04 0.04 0.04 0.04 0.04 0.04 0.04 0.04 0.04 0.04 0.04 0.02 0.02 0.02 0.02 0.02 0.02 0.02 0.02 0.52 0.02 0.02 0.02 0.02 0.02 0.02 0.02 0.02 0.02 0.02 0.02 0.02 0.02 0.02 0.02 0.02 0.04 0.04 0.04 0.04 0.04 0.04 0.04 0.04 0.04 0.04 0.04 0.04 0.04 0.04 0.04 0.04 0.04 0.04 0.04 0.04 0.04 0.04 0.04 0.04 0.04 0.04 0.04 0.04 0.04 0.04 0.04 0.04 0.04 0.04 0.04 0.04 0.04 0.04 0.04 0.04 0.04 0.04 0.04 0.04 0.04 0.04 0.04 0.04 0.04 0.04 0.04 0.04 0.04 0.04 0.04 0.04 0.04 0.04 0.04 0.04 0.04 0.04 0.04 0.04 0.04 0.04 0.04 0.04 0.04 0.04 0.04 0.04 0.04 0.04 0.04 0.04 0.04 0.04 0.04 0.04 0.04 0.04 0.04 0.04 0.04 0.04 0.04 0.04 0.04 0.04 0.04 0.04 0.04 0.04 0.04 0.04 0.04 0.04 0.04 0.04 0.02 0.02 0.02 0.02 0.02 0.02 0.02 0.02 0.02 0.02 0.02 0.02 0.02 0.02 0.02 0.02 0.02 0.02 0.02 0.02 0.52 0.02 0.02 0.02 0.02 0.04 0.04 0.04 0.04 0.04 0.04 0.04 0.04 0.04 0.04 0.04 0.04 0.04 0.04 0.04 0.04 0.04 0.04 0.04 0.04 0.04 0.04 0.04 0.04 0.04 0.04 0.04 0.04 0.04 0.04 0.04 0.04 0.04 0.04 0.04 0.04 0.04 0.04 0.04 0.04 0.04 0.04 0.04 0.04 0.04 0.04 0.04 0.04 0.04 0.04 0.04 0.04 0.04 0.04 0.04 0.04 0.04 0.04 0.04 0.04 0.04 0.04 0.04 0.04 0.04 0.04 0.04 0.04 0.04 0.04 0.04 0.04 0.04 0.04 0.04 0.04 0.04 0.04 0.04 0.04 0.04 0.04 0.04 0.04 0.04 0.04 0.04 0.04 0.04 0.04 0.04 0.04 0.04 0.04 0.04 0.04 0.04 0.04 0.04 0.04 0.04 0.04 0.04 0.04 0.04 0.04 0.04 0.04 0.04 0.04 0.04 0.04 0.04 0.04 0.04 0.04 0.04 0.04 0.04 0.04 0.04 0.04 0.04 0.04 0.04 0.04 0.04 0.04 0.04 0.04 0.04 0.04 0.04 0.04 0.04 0.04 0.04 0.04 0.04 0.04 0.04 0.04 0.04 0.04 0.04 0.04 0.04 0.04 0.04 0.04 0.04 0.04 0.04 0.04 0.04 0.04 0.04 0.04 0.04 0.04 0.04 0.04 0.04 0.04 0.04 0.04 0.04 0.04 0.04 0.04 0.04 0.04 0.04 0.04 0.04 0.04 0.04 0.04 0.04 0.04 0.04 0.04 0.04 0.04 0.04 0.04 0.04 0.04 