<?xml version="1.0" encoding="UTF-8"?>
<!-- This network was created in GeNIe Academic, which can be used for academic teaching and research purposes only -->
<smile version="1.0" id="Network1" numsamples="10000" discsamples="10000">
	<nodes>
		<cpt id="VictimSex">
			<state id="Male" />
			<state id="Female" />
			<probabilities>0.623938679245283 0.376061320754717</probabilities>
		</cpt>
		<cpt id="VictimOccupation">
			<state id="RepairManufacturingPersonnel" />
			<state id="LegalProfessionals" />
			<state id="HeadsofEnterprises" />
			<state id="Military" />
			<state id="Management" />
			<state id="NewsPublishingCultural" />
			<state id="PublicInstitutionStaff" />
			<state id="StateOrgans" />
			<state id="SocialProductionLifeService" />
			<state id="HeadsofStateOrgans" />
			<state id="HeadsofMassOrganizations" />
			<state id="HeadsofPartyStateOrgans" />
			<state id="Manufacturing" />
			<state id="Student" />
			<state id="Clerical" />
			<state id="EducationCultureSportsEntertainment" />
			<state id="PublicInstitutionWorker" />
			<state id="ProfessionalTechnical" />
			<state id="PublicInstitutionManager" />
			<state id="EducationProfessionals" />
			<state id="AgricultureForestryAnimalHusbandryFisheryWorkers" />
			<state id="Education" />
			<state id="CulturalProfessionals" />
			<state id="TeachingStaff" />
			<state id="Administrative" />
			<probabilities>2.965511105839093e-05 2.965511105839093e-05 0.03626820082441211 0.001571720886094719 0.0008006879985765551 0.0008006879985765551 2.965511105839093e-05 2.965511105839093e-05 0.6476972806263164 2.965511105839093e-05 2.965511105839093e-05 0.01853444441149433 0.1403576406393643 2.965511105839093e-05 0.01467927997390351 2.965511105839093e-05 0.0008006879985765551 0.04706266124966641 2.965511105839093e-05 2.965511105839093e-05 0.08946947006316543 2.965511105839093e-05 0.0008006879985765551 2.965511105839093e-05 0.0008006879985762438</probabilities>
		</cpt>
		<cpt id="VictimIncome">
			<state id="Low" />
			<state id="Medium" />
			<state id="High" />
			<parents>VictimOccupation</parents>
			<probabilities>0.3333333333333333 0.3333333333333333 0.3333333333333333 0.3333333333333333 0.3333333333333333 0.3333333333333333 0.3333333333333333 0.3333333333333333 0.3333333333333333 0.3333333333333333 0.3333333333333333 0.3333333333333333 0.3333333333333333 0.3333333333333333 0.3333333333333333 0.3333333333333333 0.3333333333333333 0.3333333333333333 0.3333333333333333 0.3333333333333333 0.3333333333333333 0.3333333333333333 0.3333333333333333 0.3333333333333333 0.3333333333333333 0.3333333333333333 0.3333333333333333 0.3333333333333333 0.3333333333333333 0.3333333333333333 0.3333333333333333 0.3333333333333333 0.3333333333333333 0.3333333333333333 0.3333333333333333 0.3333333333333333 0.3333333333333333 0.3333333333333333 0.3333333333333333 0.3333333333333333 0.3333333333333333 0.3333333333333333 0.3333333333333333 0.3333333333333333 0.3333333333333333 0.3333333333333333 0.3333333333333333 0.3333333333333333 0.3333333333333333 0.3333333333333333 0.3333333333333333 0.3333333333333333 0.3333333333333333 0.3333333333333333 0.3333333333333333 0.3333333333333333 0.3333333333333333 0.3333333333333333 0.3333333333333333 0.3333333333333333 0.3333333333333333 0.3333333333333333 0.3333333333333333 0.3333333333333333 0.3333333333333333 0.3333333333333333 0.3333333333333333 0.3333333333333333 0.3333333333333333 0.3333333333333333 0.3333333333333333 0.3333333333333333 0.3333333333333333 0.3333333333333333 0.3333333333333333</probabilities>
		</cpt>
		<cpt id="VictimAge">
			<state id="Kids" />
			<state id="Teenagers" />
			<state id="Adult20To30" />
			<state id="Adult30To40" />
			<state id="Adult40To50" />
			<state id="Adult50To60" />
			<state id="Adult60To70" />
			<state id="Adult70To80" />
			<state id="Adult80To90" />
			<state id="Adult90To100" />
			<parents>VictimSex VictimOccupation</parents>
			<probabilities>0.001885098743267505 0.1338420107719928 0.2532315978456015 0.3331238779174148 0.1670556552962298 0.07908438061041292 0.02791741472172352 0.003680430879712747 8.976660682226212e-05 8.976660682226212e-05 0.001885098743267505 0.1338420107719928 0.2532315978456015 0.3331238779174148 0.1670556552962298 0.07908438061041292 0.02791741472172352 0.003680430879712747 8.976660682226212e-05 8.976660682226212e-05 0.001885098743267505 0.1338420107719928 0.2532315978456015 0.3331238779174148 0.1670556552962298 0.07908438061041292 0.02791741472172352 0.003680430879712747 8.976660682226212e-05 8.976660682226212e-05 0.001885098743267505 0.1338420107719928 0.2532315978456015 0.3331238779174148 0.1670556552962298 0.07908438061041292 0.02791741472172352 0.003680430879712747 8.976660682226212e-05 8.976660682226212e-05 0.001885098743267505 0.1338420107719928 0.2532315978456015 0.3331238779174148 0.1670556552962298 0.07908438061041292 0.02791741472172352 0.003680430879712747 8.976660682226212e-05 8.976660682226212e-05 0.001885098743267505 0.1338420107719928 0.2532315978456015 0.3331238779174148 0.1670556552962298 0.07908438061041292 0.02791741472172352 0.003680430879712747 8.976660682226212e-05 8.976660682226212e-05 0.001885098743267505 0.1338420107719928 0.2532315978456015 0.3331238779174148 0.1670556552962298 0.07908438061041292 0.02791741472172352 0.003680430879712747 8.976660682226212e-05 8.976660682226212e-05 0.001885098743267505 0.1338420107719928 0.2532315978456015 0.3331238779174148 0.1670556552962298 0.07908438061041292 0.02791741472172352 0.003680430879712747 8.976660682226212e-05 8.976660682226212e-05 0.001885098743267505 0.1338420107719928 0.2532315978456015 0.3331238779174148 0.1670556552962298 0.07908438061041292 0.02791741472172352 0.003680430879712747 8.976660682226212e-05 8.976660682226212e-05 0.001885098743267505 0.1338420107719928 0.2532315978456015 0.3331238779174148 0.1670556552962298 0.07908438061041292 0.02791741472172352 0.003680430879712747 8.976660682226212e-05 8.976660682226212e-05 0.001885098743267505 0.1338420107719928 0.2532315978456015 0.3331238779174148 0.1670556552962298 0.07908438061041292 0.02791741472172352 0.003680430879712747 8.976660682226212e-05 8.976660682226212e-05 0.001885098743267505 0.1338420107719928 0.2532315978456015 0.3331238779174148 0.1670556552962298 0.07908438061041292 0.02791741472172352 0.003680430879712747 8.976660682226212e-05 8.976660682226212e-05 0.001885098743267505 0.1338420107719928 0.2532315978456015 0.3331238779174148 0.1670556552962298 0.07908438061041292 0.02791741472172352 0.003680430879712747 8.976660682226212e-05 8.976660682226212e-05 0.001885098743267505 0.1338420107719928 0.2532315978456015 0.3331238779174148 0.1670556552962298 0.07908438061041292 0.02791741472172352 0.003680430879712747 8.976660682226212e-05 8.976660682226212e-05 0.001885098743267505 0.1338420107719928 0.2532315978456015 0.3331238779174148 0.1670556552962298 0.07908438061041292 0.02791741472172352 0.003680430879712747 8.976660682226212e-05 8.976660682226212e-05 0.001885098743267505 0.1338420107719928 0.2532315978456015 0.3331238779174148 0.1670556552962298 0.07908438061041292 0.02791741472172352 0.003680430879712747 8.976660682226212e-05 8.976660682226212e-05 0.001885098743267505 0.1338420107719928 0.2532315978456015 0.3331238779174148 0.1670556552962298 0.07908438061041292 0.02791741472172352 0.003680430879712747 8.976660682226212e-05 8.976660682226212e-05 0.001885098743267505 0.1338420107719928 0.2532315978456015 0.3331238779174148 0.1670556552962298 0.07908438061041292 0.02791741472172352 0.003680430879712747 8.976660682226212e-05 8.976660682226212e-05 0.001885098743267505 0.1338420107719928 0.2532315978456015 0.3331238779174148 0.1670556552962298 0.07908438061041292 0.02791741472172352 0.003680430879712747 8.976660682226212e-05 8.976660682226212e-05 0.001885098743267505 0.1338420107719928 0.2532315978456015 0.3331238779174148 0.1670556552962298 0.07908438061041292 0.02791741472172352 0.003680430879712747 8.976660682226212e-05 8.976660682226212e-05 0.001885098743267505 0.1338420107719928 0.2532315978456015 0.3331238779174148 0.1670556552962298 0.07908438061041292 0.02791741472172352 0.003680430879712747 8.976660682226212e-05 8.976660682226212e-05 0.001885098743267505 0.1338420107719928 0.2532315978456015 0.3331238779174148 0.1670556552962298 0.07908438061041292 0.02791741472172352 0.003680430879712747 8.976660682226212e-05 8.976660682226212e-05 0.001885098743267505 0.1338420107719928 0.2532315978456015 0.3331238779174148 0.1670556552962298 0.07908438061041292 0.02791741472172352 0.003680430879712747 8.976660682226212e-05 8.976660682226212e-05 0.001885098743267505 0.1338420107719928 0.2532315978456015 0.3331238779174148 0.1670556552962298 0.07908438061041292 0.02791741472172352 0.003680430879712747 8.976660682226212e-05 8.976660682226212e-05 0.001885098743267505 0.1338420107719928 0.2532315978456015 0.3331238779174148 0.1670556552962298 0.07908438061041292 0.02791741472172352 0.003680430879712747 8.976660682226212e-05 8.976660682226212e-05 0.001885098743267505 0.1338420107719928 0.2532315978456015 0.3331238779174148 0.1670556552962298 0.07908438061041292 0.02791741472172352 0.003680430879712747 8.976660682226212e-05 8.976660682226212e-05 0.001885098743267505 0.1338420107719928 0.2532315978456015 0.3331238779174148 0.1670556552962298 0.07908438061041292 0.02791741472172352 0.003680430879712747 8.976660682226212e-05 8.976660682226212e-05 0.001885098743267505 0.1338420107719928 0.2532315978456015 0.3331238779174148 0.1670556552962298 0.07908438061041292 0.02791741472172352 0.003680430879712747 8.976660682226212e-05 8.976660682226212e-05 0.001885098743267505 0.1338420107719928 0.2532315978456015 0.3331238779174148 0.1670556552962298 0.07908438061041292 0.02791741472172352 0.003680430879712747 8.976660682226212e-05 8.976660682226212e-05 0.001885098743267505 0.1338420107719928 0.2532315978456015 0.3331238779174148 0.1670556552962298 0.07908438061041292 0.02791741472172352 0.003680430879712747 8.976660682226212e-05 8.976660682226212e-05 0.001885098743267505 0.1338420107719928 0.2532315978456015 0.3331238779174148 0.1670556552962298 0.07908438061041292 0.02791741472172352 0.003680430879712747 8.976660682226212e-05 8.976660682226212e-05 0.001885098743267505 0.1338420107719928 0.2532315978456015 0.3331238779174148 0.1670556552962298 0.07908438061041292 0.02791741472172352 0.003680430879712747 8.976660682226212e-05 8.976660682226212e-05 0.001885098743267505 0.1338420107719928 0.2532315978456015 0.3331238779174148 0.1670556552962298 0.07908438061041292 0.02791741472172352 0.003680430879712747 8.976660682226212e-05 8.976660682226212e-05 0.001885098743267505 0.1338420107719928 0.2532315978456015 0.3331238779174148 0.1670556552962298 0.07908438061041292 0.02791741472172352 0.003680430879712747 8.976660682226212e-05 8.976660682226212e-05 0.001885098743267505 0.1338420107719928 0.2532315978456015 0.3331238779174148 0.1670556552962298 0.07908438061041292 0.02791741472172352 0.003680430879712747 8.976660682226212e-05 8.976660682226212e-05 0.001885098743267505 0.1338420107719928 0.2532315978456015 0.3331238779174148 0.1670556552962298 0.07908438061041292 0.02791741472172352 0.003680430879712747 8.976660682226212e-05 8.976660682226212e-05 0.001885098743267505 0.1338420107719928 0.2532315978456015 0.3331238779174148 0.1670556552962298 0.07908438061041292 0.02791741472172352 0.003680430879712747 8.976660682226212e-05 8.976660682226212e-05 0.001885098743267505 0.1338420107719928 0.2532315978456015 0.3331238779174148 0.1670556552962298 0.07908438061041292 0.02791741472172352 0.003680430879712747 8.976660682226212e-05 8.976660682226212e-05 0.001885098743267505 0.1338420107719928 0.2532315978456015 0.3331238779174148 0.1670556552962298 0.07908438061041292 0.02791741472172352 0.003680430879712747 8.976660682226212e-05 8.976660682226212e-05 0.001885098743267505 0.1338420107719928 0.2532315978456015 0.3331238779174148 0.1670556552962298 0.07908438061041292 0.02791741472172352 0.003680430879712747 8.976660682226212e-05 8.976660682226212e-05 0.001885098743267505 0.1338420107719928 0.2532315978456015 0.3331238779174148 0.1670556552962298 0.07908438061041292 0.02791741472172352 0.003680430879712747 8.976660682226212e-05 8.976660682226212e-05 0.001885098743267505 0.1338420107719928 0.2532315978456015 0.3331238779174148 0.1670556552962298 0.07908438061041292 0.02791741472172352 0.003680430879712747 8.976660682226212e-05 8.976660682226212e-05 0.001885098743267505 0.1338420107719928 0.2532315978456015 0.3331238779174148 0.1670556552962298 0.07908438061041292 0.02791741472172352 0.003680430879712747 8.976660682226212e-05 8.976660682226212e-05 0.001885098743267505 0.1338420107719928 0.2532315978456015 0.3331238779174148 0.1670556552962298 0.07908438061041292 0.02791741472172352 0.003680430879712747 8.976660682226212e-05 8.976660682226212e-05 0.001885098743267505 0.1338420107719928 0.2532315978456015 0.3331238779174148 0.1670556552962298 0.07908438061041292 0.02791741472172352 0.003680430879712747 8.976660682226212e-05 8.976660682226212e-05 0.001885098743267505 0.1338420107719928 0.2532315978456015 0.3331238779174148 0.1670556552962298 0.07908438061041292 0.02791741472172352 0.003680430879712747 8.976660682226212e-05 8.976660682226212e-05 0.001885098743267505 0.1338420107719928 0.2532315978456015 0.3331238779174148 0.1670556552962298 0.07908438061041292 0.02791741472172352 0.003680430879712747 8.976660682226212e-05 8.976660682226212e-05 0.001885098743267505 0.1338420107719928 0.2532315978456015 0.3331238779174148 0.1670556552962298 0.07908438061041292 0.02791741472172352 0.003680430879712747 8.976660682226212e-05 8.976660682226212e-05 0.001885098743267505 0.1338420107719928 0.2532315978456015 0.3331238779174148 0.1670556552962298 0.07908438061041292 0.02791741472172352 0.003680430879712747 8.976660682226212e-05 8.976660682226212e-05 0.001885098743267505 0.1338420107719928 0.2532315978456015 0.3331238779174148 0.1670556552962298 0.07908438061041292 0.02791741472172352 0.003680430879712747 8.976660682226212e-05 8.976660682226212e-05</probabilities>
		</cpt>
		<cpt id="VictimEducation">
			<state id="primarySchool" />
			<state id="middleSchool" />
			<state id="highSchool" />
			<state id="vocationalCollege" />
			<state id="college" />
			<state id="majorCollege" />
			<state id="masterDegree" />
			<state id="doctoralDegree" />
			<state id="unknown" />
			<state id="noEducationExperience" />
			<parents>VictimOccupation VictimIncome VictimAge</parents>
			<probabilities>0.2891382405745063 0.4875224416517056 0.05215439856373429 0.06023339317773788 0.05484739676840216 0.04497307001795332 0.002782764811490126 8.976660682226212e-05 8.976660682226212e-05 0.008168761220825852 0.2891382405745063 0.4875224416517056 0.05215439856373429 0.06023339317773788 0.05484739676840216 0.04497307001795332 0.002782764811490126 8.976660682226212e-05 8.976660682226212e-05 0.008168761220825852 0.2891382405745063 0.4875224416517056 0.05215439856373429 0.06023339317773788 0.05484739676840216 0.04497307001795332 0.002782764811490126 8.976660682226212e-05 8.976660682226212e-05 0.008168761220825852 0.2891382405745063 0.4875224416517056 0.05215439856373429 0.06023339317773788 0.05484739676840216 0.04497307001795332 0.002782764811490126 8.976660682226212e-05 8.976660682226212e-05 0.008168761220825852 0.2891382405745063 0.4875224416517056 0.05215439856373429 0.06023339317773788 0.05484739676840216 0.04497307001795332 0.002782764811490126 8.976660682226212e-05 8.976660682226212e-05 0.008168761220825852 0.2891382405745063 0.4875224416517056 0.05215439856373429 0.06023339317773788 0.05484739676840216 0.04497307001795332 0.002782764811490126 8.976660682226212e-05 8.976660682226212e-05 0.008168761220825852 0.2891382405745063 0.4875224416517056 0.05215439856373429 0.06023339317773788 0.05484739676840216 0.04497307001795332 0.002782764811490126 8.976660682226212e-05 8.976660682226212e-05 0.008168761220825852 0.2891382405745063 0.4875224416517056 0.05215439856373429 0.06023339317773788 0.05484739676840216 0.04497307001795332 0.002782764811490126 8.976660682226212e-05 8.976660682226212e-05 0.008168761220825852 0.2891382405745063 0.4875224416517056 0.05215439856373429 0.06023339317773788 0.05484739676840216 0.04497307001795332 0.002782764811490126 8.976660682226212e-05 8.976660682226212e-05 0.008168761220825852 0.2891382405745063 0.4875224416517056 0.05215439856373429 0.06023339317773788 0.05484739676840216 0.04497307001795332 0.002782764811490126 8.976660682226212e-05 8.976660682226212e-05 0.008168761220825852 0.2891382405745063 0.4875224416517056 0.05215439856373429 0.06023339317773788 0.05484739676840216 0.04497307001795332 0.002782764811490126 8.976660682226212e-05 8.976660682226212e-05 0.008168761220825852 0.2891382405745063 0.4875224416517056 0.05215439856373429 0.06023339317773788 0.05484739676840216 0.04497307001795332 0.002782764811490126 8.976660682226212e-05 8.976660682226212e-05 0.008168761220825852 0.2891382405745063 0.4875224416517056 0.05215439856373429 0.06023339317773788 0.05484739676840216 0.04497307001795332 0.002782764811490126 8.976660682226212e-05 8.976660682226212e-05 0.008168761220825852 0.2891382405745063 0.4875224416517056 0.05215439856373429 0.06023339317773788 0.05484739676840216 0.04497307001795332 0.002782764811490126 8.976660682226212e-05 8.976660682226212e-05 0.008168761220825852 0.2891382405745063 0.4875224416517056 0.05215439856373429 0.06023339317773788 0.05484739676840216 0.04497307001795332 0.002782764811490126 8.976660682226212e-05 8.976660682226212e-05 0.008168761220825852 0.2891382405745063 0.4875224416517056 0.05215439856373429 0.06023339317773788 0.05484739676840216 0.04497307001795332 0.002782764811490126 8.976660682226212e-05 8.976660682226212e-05 0.008168761220825852 0.2891382405745063 0.4875224416517056 0.05215439856373429 0.06023339317773788 0.05484739676840216 0.04497307001795332 0.002782764811490126 8.976660682226212e-05 8.976660682226212e-05 0.008168761220825852 0.2891382405745063 0.4875224416517056 0.05215439856373429 0.06023339317773788 0.05484739676840216 0.04497307001795332 0.002782764811490126 8.976660682226212e-05 8.976660682226212e-05 0.008168761220825852 0.2891382405745063 0.4875224416517056 0.05215439856373429 0.06023339317773788 0.05484739676840216 0.04497307001795332 0.002782764811490126 8.976660682226212e-05 8.976660682226212e-05 0.008168761220825852 0.2891382405745063 0.4875224416517056 0.05215439856373429 0.06023339317773788 0.05484739676840216 0.04497307001795332 0.002782764811490126 8.976660682226212e-05 8.976660682226212e-05 0.008168761220825852 0.2891382405745063 0.4875224416517056 0.05215439856373429 0.06023339317773788 0.05484739676840216 0.04497307001795332 0.002782764811490126 8.976660682226212e-05 8.976660682226212e-05 0.008168761220825852 0.2891382405745063 0.4875224416517056 0.05215439856373429 0.06023339317773788 0.05484739676840216 0.04497307001795332 0.002782764811490126 8.976660682226212e-05 8.976660682226212e-05 0.008168761220825852 0.2891382405745063 0.4875224416517056 0.05215439856373429 0.06023339317773788 0.05484739676840216 0.04497307001795332 0.002782764811490126 8.976660682226212e-05 8.976660682226212e-05 0.008168761220825852 0.2891382405745063 0.4875224416517056 0.05215439856373429 0.06023339317773788 0.05484739676840216 0.04497307001795332 0.002782764811490126 8.976660682226212e-05 8.976660682226212e-05 0.008168761220825852 0.2891382405745063 0.4875224416517056 0.05215439856373429 0.06023339317773788 0.05484739676840216 0.04497307001795332 0.002782764811490126 8.976660682226212e-05 8.976660682226212e-05 0.008168761220825852 0.2891382405745063 0.4875224416517056 0.05215439856373429 0.06023339317773788 0.05484739676840216 0.04497307001795332 0.002782764811490126 8.976660682226212e-05 8.976660682226212e-05 0.008168761220825852 0.2891382405745063 0.4875224416517056 0.05215439856373429 0.06023339317773788 0.05484739676840216 0.04497307001795332 0.002782764811490126 8.976660682226212e-05 8.976660682226212e-05 0.008168761220825852 0.2891382405745063 0.4875224416517056 0.05215439856373429 0.06023339317773788 0.05484739676840216 0.04497307001795332 0.002782764811490126 8.976660682226212e-05 8.976660682226212e-05 0.008168761220825852 0.2891382405745063 0.4875224416517056 0.05215439856373429 0.06023339317773788 0.05484739676840216 0.04497307001795332 0.002782764811490126 8.976660682226212e-05 8.976660682226212e-05 0.008168761220825852 0.2891382405745063 0.4875224416517056 0.05215439856373429 0.06023339317773788 0.05484739676840216 0.04497307001795332 0.002782764811490126 8.976660682226212e-05 8.976660682226212e-05 0.008168761220825852 0.2891382405745063 0.4875224416517056 0.05215439856373429 0.06023339317773788 0.05484739676840216 0.04497307001795332 0.002782764811490126 8.976660682226212e-05 8.976660682226212e-05 0.008168761220825852 0.2891382405745063 0.4875224416517056 0.05215439856373429 0.06023339317773788 0.05484739676840216 0.04497307001795332 0.002782764811490126 8.976660682226212e-05 8.976660682226212e-05 0.008168761220825852 0.2891382405745063 0.4875224416517056 0.05215439856373429 0.06023339317773788 0.05484739676840216 0.04497307001795332 0.002782764811490126 8.976660682226212e-05 8.976660682226212e-05 0.008168761220825852 0.2891382405745063 0.4875224416517056 0.05215439856373429 0.06023339317773788 0.05484739676840216 0.04497307001795332 0.002782764811490126 8.976660682226212e-05 8.976660682226212e-05 0.008168761220825852 0.2891382405745063 0.4875224416517056 0.05215439856373429 0.06023339317773788 0.05484739676840216 0.04497307001795332 0.002782764811490126 8.976660682226212e-05 8.976660682226212e-05 0.008168761220825852 0.2891382405745063 0.4875224416517056 0.05215439856373429 0.06023339317773788 0.05484739676840216 0.04497307001795332 0.002782764811490126 8.976660682226212e-05 8.976660682226212e-05 0.008168761220825852 0.2891382405745063 0.4875224416517056 0.05215439856373429 0.06023339317773788 0.05484739676840216 0.04497307001795332 0.002782764811490126 8.976660682226212e-05 8.976660682226212e-05 0.008168761220825852 0.2891382405745063 0.4875224416517056 0.05215439856373429 0.06023339317773788 0.05484739676840216 0.04497307001795332 0.002782764811490126 8.976660682226212e-05 8.976660682226212e-05 0.008168761220825852 0.2891382405745063 0.4875224416517056 0.05215439856373429 0.06023339317773788 0.05484739676840216 0.04497307001795332 0.002782764811490126 8.976660682226212e-05 8.976660682226212e-05 0.008168761220825852 0.2891382405745063 0.4875224416517056 0.05215439856373429 0.06023339317773788 0.05484739676840216 0.04497307001795332 0.002782764811490126 8.976660682226212e-05 8.976660682226212e-05 0.008168761220825852 0.2891382405745063 0.4875224416517056 0.05215439856373429 0.06023339317773788 0.05484739676840216 0.04497307001795332 0.002782764811490126 8.976660682226212e-05 8.976660682226212e-05 0.008168761220825852 0.2891382405745063 0.4875224416517056 0.05215439856373429 0.06023339317773788 0.05484739676840216 0.04497307001795332 0.002782764811490126 8.976660682226212e-05 8.976660682226212e-05 0.008168761220825852 0.2891382405745063 0.4875224416517056 0.05215439856373429 0.06023339317773788 0.05484739676840216 0.04497307001795332 0.002782764811490126 8.976660682226212e-05 8.976660682226212e-05 0.008168761220825852 0.2891382405745063 0.4875224416517056 0.05215439856373429 0.06023339317773788 0.05484739676840216 0.04497307001795332 0.002782764811490126 8.976660682226212e-05 8.976660682226212e-05 0.008168761220825852 0.2891382405745063 0.4875224416517056 0.05215439856373429 0.06023339317773788 0.05484739676840216 0.04497307001795332 0.002782764811490126 8.976660682226212e-05 8.976660682226212e-05 0.008168761220825852 0.2891382405745063 0.4875224416517056 0.05215439856373429 0.06023339317773788 0.05484739676840216 0.04497307001795332 0.002782764811490126 8.976660682226212e-05 8.976660682226212e-05 0.008168761220825852 0.2891382405745063 0.4875224416517056 0.05215439856373429 0.06023339317773788 0.05484739676840216 0.04497307001795332 0.002782764811490126 8.976660682226212e-05 8.976660682226212e-05 0.008168761220825852 0.2891382405745063 0.4875224416517056 0.05215439856373429 0.06023339317773788 0.05484739676840216 0.04497307001795332 0.002782764811490126 8.976660682226212e-05 8.976660682226212e-05 0.008168761220825852 0.2891382405745063 0.4875224416517056 0.05215439856373429 0.06023339317773788 0.05484739676840216 0.04497307001795332 0.002782764811490126 8.976660682226212e-05 8.976660682226212e-05 0.008168761220825852 0.2891382405745063 0.4875224416517056 0.05215439856373429 0.06023339317773788 0.05484739676840216 0.04497307001795332 0.002782764811490126 8.976660682226212e-05 8.976660682226212e-05 0.008168761220825852 0.2891382405745063 0.4875224416517056 0.05215439856373429 0.06023339317773788 0.05484739676840216 0.04497307001795332 0.002782764811490126 8.976660682226212e-05 8.976660682226212e-05 0.008168761220825852 0.2891382405745063 0.4875224416517056 0.05215439856373429 0.06023339317773788 0.05484739676840216 0.04497307001795332 0.002782764811490126 8.976660682226212e-05 8.976660682226212e-05 0.008168761220825852 0.2891382405745063 0.4875224416517056 0.05215439856373429 0.06023339317773788 0.05484739676840216 0.04497307001795332 0.002782764811490126 8.976660682226212e-05 8.976660682226212e-05 0.008168761220825852 0.2891382405745063 0.4875224416517056 0.05215439856373429 0.06023339317773788 0.05484739676840216 0.04497307001795332 0.002782764811490126 8.976660682226212e-05 8.976660682226212e-05 0.008168761220825852 0.2891382405745063 0.4875224416517056 0.05215439856373429 0.06023339317773788 0.05484739676840216 0.04497307001795332 0.002782764811490126 8.976660682226212e-05 8.976660682226212e-05 0.008168761220825852 0.2891382405745063 0.4875224416517056 0.05215439856373429 0.06023339317773788 0.05484739676840216 0.04497307001795332 0.002782764811490126 8.976660682226212e-05 8.976660682226212e-05 0.008168761220825852 0.2891382405745063 0.4875224416517056 0.05215439856373429 0.06023339317773788 0.05484739676840216 0.04497307001795332 0.002782764811490126 8.976660682226212e-05 8.976660682226212e-05 0.008168761220825852 0.2891382405745063 0.4875224416517056 0.05215439856373429 0.06023339317773788 0.05484739676840216 0.04497307001795332 0.002782764811490126 8.976660682226212e-05 8.976660682226212e-05 0.008168761220825852 0.2891382405745063 0.4875224416517056 0.05215439856373429 0.06023339317773788 0.05484739676840216 0.04497307001795332 0.002782764811490126 8.976660682226212e-05 8.976660682226212e-05 0.008168761220825852 0.2891382405745063 0.4875224416517056 0.05215439856373429 0.06023339317773788 0.05484739676840216 0.04497307001795332 0.002782764811490126 8.976660682226212e-05 8.976660682226212e-05 0.008168761220825852 0.2891382405745063 0.4875224416517056 0.05215439856373429 0.06023339317773788 0.05484739676840216 0.04497307001795332 0.002782764811490126 8.976660682226212e-05 8.976660682226212e-05 0.008168761220825852 0.2891382405745063 0.4875224416517056 0.05215439856373429 0.06023339317773788 0.05484739676840216 0.04497307001795332 0.002782764811490126 8.976660682226212e-05 8.976660682226212e-05 0.008168761220825852 0.2891382405745063 0.4875224416517056 0.05215439856373429 0.06023339317773788 0.05484739676840216 0.04497307001795332 0.002782764811490126 8.976660682226212e-05 8.976660682226212e-05 0.008168761220825852 0.2891382405745063 0.4875224416517056 0.05215439856373429 0.06023339317773788 0.05484739676840216 0.04497307001795332 0.002782764811490126 8.976660682226212e-05 8.976660682226212e-05 0.008168761220825852 0.2891382405745063 0.4875224416517056 0.05215439856373429 0.06023339317773788 0.05484739676840216 0.04497307001795332 0.002782764811490126 8.976660682226212e-05 8.976660682226212e-05 0.008168761220825852 0.2891382405745063 0.4875224416517056 0.05215439856373429 0.06023339317773788 0.05484739676840216 0.04497307001795332 0.002782764811490126 8.976660682226212e-05 8.976660682226212e-05 0.008168761220825852 0.2891382405745063 0.4875224416517056 0.05215439856373429 0.06023339317773788 0.05484739676840216 0.04497307001795332 0.002782764811490126 8.976660682226212e-05 8.976660682226212e-05 0.008168761220825852 0.2891382405745063 0.4875224416517056 0.05215439856373429 0.06023339317773788 0.05484739676840216 0.04497307001795332 0.002782764811490126 8.976660682226212e-05 8.976660682226212e-05 0.008168761220825852 0.2891382405745063 0.4875224416517056 0.05215439856373429 0.06023339317773788 0.05484739676840216 0.04497307001795332 0.002782764811490126 8.976660682226212e-05 8.976660682226212e-05 0.008168761220825852 0.2891382405745063 0.4875224416517056 0.05215439856373429 0.06023339317773788 0.05484739676840216 0.04497307001795332 0.002782764811490126 8.976660682226212e-05 8.976660682226212e-05 0.008168761220825852 0.2891382405745063 0.4875224416517056 0.05215439856373429 0.06023339317773788 0.05484739676840216 0.04497307001795332 0.002782764811490126 8.976660682226212e-05 8.976660682226212e-05 0.008168761220825852 0.2891382405745063 0.4875224416517056 0.05215439856373429 0.06023339317773788 0.05484739676840216 0.04497307001795332 0.002782764811490126 8.976660682226212e-05 8.976660682226212e-05 0.008168761220825852 0.2891382405745063 0.4875224416517056 0.05215439856373429 0.06023339317773788 0.05484739676840216 0.04497307001795332 0.002782764811490126 8.976660682226212e-05 8.976660682226212e-05 0.008168761220825852 0.2891382405745063 0.4875224416517056 0.05215439856373429 0.06023339317773788 0.05484739676840216 0.04497307001795332 0.002782764811490126 8.976660682226212e-05 8.976660682226212e-05 0.008168761220825852 0.2891382405745063 0.4875224416517056 0.05215439856373429 0.06023339317773788 0.05484739676840216 0.04497307001795332 0.002782764811490126 8.976660682226212e-05 8.976660682226212e-05 0.008168761220825852 0.2891382405745063 0.4875224416517056 0.05215439856373429 0.06023339317773788 0.05484739676840216 0.04497307001795332 0.002782764811490126 8.976660682226212e-05 8.976660682226212e-05 0.008168761220825852 0.2891382405745063 0.4875224416517056 0.05215439856373429 0.06023339317773788 0.05484739676840216 0.04497307001795332 0.002782764811490126 8.976660682226212e-05 8.976660682226212e-05 0.008168761220825852 0.2891382405745063 0.4875224416517056 0.05215439856373429 0.06023339317773788 0.05484739676840216 0.04497307001795332 0.002782764811490126 8.976660682226212e-05 8.976660682226212e-05 0.008168761220825852 0.2891382405745063 0.4875224416517056 0.05215439856373429 0.06023339317773788 0.05484739676840216 0.04497307001795332 0.002782764811490126 8.976660682226212e-05 8.976660682226212e-05 0.008168761220825852 0.2891382405745063 0.4875224416517056 0.05215439856373429 0.06023339317773788 0.05484739676840216 0.04497307001795332 0.002782764811490126 8.976660682226212e-05 8.976660682226212e-05 0.008168761220825852 0.2891382405745063 0.4875224416517056 0.05215439856373429 0.06023339317773788 0.05484739676840216 0.04497307001795332 0.002782764811490126 8.976660682226212e-05 8.976660682226212e-05 0.008168761220825852 0.2891382405745063 0.4875224416517056 0.05215439856373429 0.06023339317773788 0.05484739676840216 0.04497307001795332 0.002782764811490126 8.976660682226212e-05 8.976660682226212e-05 0.008168761220825852 0.2891382405745063 0.4875224416517056 0.05215439856373429 0.06023339317773788 0.05484739676840216 0.04497307001795332 0.002782764811490126 8.976660682226212e-05 8.976660682226212e-05 0.008168761220825852 0.2891382405745063 0.4875224416517056 0.05215439856373429 0.06023339317773788 0.05484739676840216 0.04497307001795332 0.002782764811490126 8.976660682226212e-05 8.976660682226212e-05 0.008168761220825852 0.2891382405745063 0.4875224416517056 0.05215439856373429 0.06023339317773788 0.05484739676840216 0.04497307001795332 0.002782764811490126 8.976660682226212e-05 8.976660682226212e-05 0.008168761220825852 0.2891382405745063 0.4875224416517056 0.05215439856373429 0.06023339317773788 0.05484739676840216 0.04497307001795332 0.002782764811490126 8.976660682226212e-05 8.976660682226212e-05 0.008168761220825852 0.2891382405745063 0.4875224416517056 0.05215439856373429 0.06023339317773788 0.05484739676840216 0.04497307001795332 0.002782764811490126 8.976660682226212e-05 8.976660682226212e-05 0.008168761220825852 0.2891382405745063 0.4875224416517056 0.05215439856373429 0.06023339317773788 0.05484739676840216 0.04497307001795332 0.002782764811490126 8.976660682226212e-05 8.976660682226212e-05 0.008168761220825852 0.2891382405745063 0.4875224416517056 0.05215439856373429 0.06023339317773788 0.05484739676840216 0.04497307001795332 0.002782764811490126 8.976660682226212e-05 8.976660682226212e-05 0.008168761220825852 0.2891382405745063 0.4875224416517056 0.05215439856373429 0.06023339317773788 0.05484739676840216 0.04497307001795332 0.002782764811490126 8.976660682226212e-05 8.976660682226212e-05 0.008168761220825852 0.2891382405745063 0.4875224416517056 0.05215439856373429 0.06023339317773788 0.05484739676840216 0.04497307001795332 0.002782764811490126 8.976660682226212e-05 8.976660682226212e-05 0.008168761220825852 0.2891382405745063 0.4875224416517056 0.05215439856373429 0.06023339317773788 0.05484739676840216 0.04497307001795332 0.002782764811490126 8.976660682226212e-05 8.976660682226212e-05 0.008168761220825852 0.2891382405745063 0.4875224416517056 0.05215439856373429 0.06023339317773788 0.05484739676840216 0.04497307001795332 0.002782764811490126 8.976660682226212e-05 8.976660682226212e-05 0.008168761220825852 0.2891382405745063 0.4875224416517056 0.05215439856373429 0.06023339317773788 0.05484739676840216 0.04497307001795332 0.002782764811490126 8.976660682226212e-05 8.976660682226212e-05 0.008168761220825852 0.2891382405745063 0.4875224416517056 0.05215439856373429 0.06023339317773788 0.05484739676840216 0.04497307001795332 0.002782764811490126 8.976660682226212e-05 8.976660682226212e-05 0.008168761220825852 0.2891382405745063 0.4875224416517056 0.05215439856373429 0.06023339317773788 0.05484739676840216 0.04497307001795332 0.002782764811490126 8.976660682226212e-05 8.976660682226212e-05 0.008168761220825852 0.2891382405745063 0.4875224416517056 0.05215439856373429 0.06023339317773788 0.05484739676840216 0.04497307001795332 0.002782764811490126 8.976660682226212e-05 8.976660682226212e-05 0.008168761220825852 0.2891382405745063 0.4875224416517056 0.05215439856373429 0.06023339317773788 0.05484739676840216 0.04497307001795332 0.002782764811490126 8.976660682226212e-05 8.976660682226212e-05 0.008168761220825852 0.2891382405745063 0.4875224416517056 0.05215439856373429 0.06023339317773788 0.05484739676840216 0.04497307001795332 0.002782764811490126 8.976660682226212e-05 8.976660682226212e-05 0.008168761220825852 0.2891382405745063 0.4875224416517056 0.05215439856373429 0.06023339317773788 0.05484739676840216 0.04497307001795332 0.002782764811490126 8.976660682226212e-05 8.976660682226212e-05 0.008168761220825852 0.2891382405745063 0.4875224416517056 0.05215439856373429 0.06023339317773788 0.05484739676840216 0.04497307001795332 0.002782764811490126 8.976660682226212e-05 8.976660682226212e-05 0.008168761220825852 0.2891382405745063 0.4875224416517056 0.05215439856373429 0.06023339317773788 0.05484739676840216 0.04497307001795332 0.002782764811490126 8.976660682226212e-05 8.976660682226212e-05 0.008168761220825852 0.2891382405745063 0.4875224416517056 0.05215439856373429 0.06023339317773788 0.05484739676840216 0.04497307001795332 0.002782764811490126 8.976660682226212e-05 8.976660682226212e-05 0.008168761220825852 0.2891382405745063 0.4875224416517056 0.05215439856373429 0.06023339317773788 0.05484739676840216 0.04497307001795332 0.002782764811490126 8.976660682226212e-05 8.976660682226212e-05 0.008168761220825852 0.2891382405745063 0.4875224416517056 0.05215439856373429 0.06023339317773788 0.05484739676840216 0.04497307001795332 0.002782764811490126 8.976660682226212e-05 8.976660682226212e-05 0.008168761220825852 0.2891382405745063 0.4875224416517056 0.05215439856373429 0.06023339317773788 0.05484739676840216 0.04497307001795332 0.002782764811490126 8.976660682226212e-05 8.976660682226212e-05 0.008168761220825852 0.2891382405745063 0.4875224416517056 0.05215439856373429 0.06023339317773788 0.05484739676840216 0.04497307001795332 0.002782764811490126 8.976660682226212e-05 8.976660682226212e-05 0.008168761220825852 0.2891382405745063 0.4875224416517056 0.05215439856373429 0.06023339317773788 0.05484739676840216 0.04497307001795332 0.002782764811490126 8.976660682226212e-05 8.976660682226212e-05 0.008168761220825852 0.2891382405745063 0.4875224416517056 0.05215439856373429 0.06023339317773788 0.05484739676840216 0.04497307001795332 0.002782764811490126 8.976660682226212e-05 8.976660682226212e-05 0.008168761220825852 0.2891382405745063 0.4875224416517056 0.05215439856373429 0.06023339317773788 0.05484739676840216 0.04497307001795332 0.002782764811490126 8.976660682226212e-05 8.976660682226212e-05 0.008168761220825852 0.2891382405745063 0.4875224416517056 0.05215439856373429 0.06023339317773788 0.05484739676840216 0.04497307001795332 0.002782764811490126 8.976660682226212e-05 8.976660682226212e-05 0.008168761220825852 0.2891382405745063 0.4875224416517056 0.05215439856373429 0.06023339317773788 0.05484739676840216 0.04497307001795332 0.002782764811490126 8.976660682226212e-05 8.976660682226212e-05 0.008168761220825852 0.2891382405745063 0.4875224416517056 0.05215439856373429 0.06023339317773788 0.05484739676840216 0.04497307001795332 0.002782764811490126 8.976660682226212e-05 8.976660682226212e-05 0.008168761220825852 0.2891382405745063 0.4875224416517056 0.05215439856373429 0.06023339317773788 0.05484739676840216 0.04497307001795332 0.002782764811490126 8.976660682226212e-05 8.976660682226212e-05 0.008168761220825852 0.2891382405745063 0.4875224416517056 0.05215439856373429 0.06023339317773788 0.05484739676840216 0.04497307001795332 0.002782764811490126 8.976660682226212e-05 8.976660682226212e-05 0.008168761220825852 0.2891382405745063 0.4875224416517056 0.05215439856373429 0.06023339317773788 0.05484739676840216 0.04497307001795332 0.002782764811490126 8.976660682226212e-05 8.976660682226212e-05 0.008168761220825852 0.2891382405745063 0.4875224416517056 0.05215439856373429 0.06023339317773788 0.05484739676840216 0.04497307001795332 0.002782764811490126 8.976660682226212e-05 8.976660682226212e-05 0.008168761220825852 0.2891382405745063 0.4875224416517056 0.05215439856373429 0.06023339317773788 0.05484739676840216 0.04497307001795332 0.002782764811490126 8.976660682226212e-05 8.976660682226212e-05 0.008168761220825852 0.2891382405745063 0.4875224416517056 0.05215439856373429 0.06023339317773788 0.05484739676840216 0.04497307001795332 0.002782764811490126 8.976660682226212e-05 8.976660682226212e-05 0.008168761220825852 0.2891382405745063 0.4875224416517056 0.05215439856373429 0.06023339317773788 0.05484739676840216 0.04497307001795332 0.002782764811490126 8.976660682226212e-05 8.976660682226212e-05 0.008168761220825852 0.2891382405745063 0.4875224416517056 0.05215439856373429 0.06023339317773788 0.05484739676840216 0.04497307001795332 0.002782764811490126 8.976660682226212e-05 8.976660682226212e-05 0.008168761220825852 0.2891382405745063 0.4875224416517056 0.05215439856373429 0.06023339317773788 0.05484739676840216 0.04497307001795332 0.002782764811490126 8.976660682226212e-05 8.976660682226212e-05 0.008168761220825852 0.2891382405745063 0.4875224416517056 0.05215439856373429 0.06023339317773788 0.05484739676840216 0.04497307001795332 0.002782764811490126 8.976660682226212e-05 8.976660682226212e-05 0.008168761220825852 0.2891382405745063 0.4875224416517056 0.05215439856373429 0.06023339317773788 0.05484739676840216 0.04497307001795332 0.002782764811490126 8.976660682226212e-05 8.976660682226212e-05 0.008168761220825852 0.2891382405745063 0.4875224416517056 0.05215439856373429 0.06023339317773788 0.05484739676840216 0.04497307001795332 0.002782764811490126 8.976660682226212e-05 8.976660682226212e-05 0.008168761220825852 0.2891382405745063 0.4875224416517056 0.05215439856373429 0.06023339317773788 0.05484739676840216 0.04497307001795332 0.002782764811490126 8.976660682226212e-05 8.976660682226212e-05 0.008168761220825852 0.2891382405745063 0.4875224416517056 0.05215439856373429 0.06023339317773788 0.05484739676840216 0.04497307001795332 0.002782764811490126 8.976660682226212e-05 8.976660682226212e-05 0.008168761220825852 0.2891382405745063 0.4875224416517056 0.05215439856373429 0.06023339317773788 0.05484739676840216 0.04497307001795332 0.002782764811490126 8.976660682226212e-05 8.976660682226212e-05 0.008168761220825852 0.2891382405745063 0.4875224416517056 0.05215439856373429 0.06023339317773788 0.05484739676840216 0.04497307001795332 0.002782764811490126 8.976660682226212e-05 8.976660682226212e-05 0.008168761220825852 0.2891382405745063 0.4875224416517056 0.05215439856373429 0.06023339317773788 0.05484739676840216 0.04497307001795332 0.002782764811490126 8.976660682226212e-05 8.976660682226212e-05 0.008168761220825852 0.2891382405745063 0.4875224416517056 0.05215439856373429 0.06023339317773788 0.05484739676840216 0.04497307001795332 0.002782764811490126 8.976660682226212e-05 8.976660682226212e-05 0.008168761220825852 0.2891382405745063 0.4875224416517056 0.05215439856373429 0.06023339317773788 0.05484739676840216 0.04497307001795332 0.002782764811490126 8.976660682226212e-05 8.976660682226212e-05 0.008168761220825852 0.2891382405745063 0.4875224416517056 0.05215439856373429 0.06023339317773788 0.05484739676840216 0.04497307001795332 0.002782764811490126 8.976660682226212e-05 8.976660682226212e-05 0.008168761220825852 0.2891382405745063 0.4875224416517056 0.05215439856373429 0.06023339317773788 0.05484739676840216 0.04497307001795332 0.002782764811490126 8.976660682226212e-05 8.976660682226212e-05 0.008168761220825852 0.2891382405745063 0.4875224416517056 0.05215439856373429 0.06023339317773788 0.05484739676840216 0.04497307001795332 0.002782764811490126 8.976660682226212e-05 8.976660682226212e-05 0.008168761220825852 0.2891382405745063 0.4875224416517056 0.05215439856373429 0.06023339317773788 0.05484739676840216 0.04497307001795332 0.002782764811490126 8.976660682226212e-05 8.976660682226212e-05 0.008168761220825852 0.2891382405745063 0.4875224416517056 0.05215439856373429 0.06023339317773788 0.05484739676840216 0.04497307001795332 0.002782764811490126 8.976660682226212e-05 8.976660682226212e-05 0.008168761220825852 0.2891382405745063 0.4875224416517056 0.05215439856373429 0.06023339317773788 0.05484739676840216 0.04497307001795332 0.002782764811490126 8.976660682226212e-05 8.976660682226212e-05 0.008168761220825852 0.2891382405745063 0.4875224416517056 0.05215439856373429 0.06023339317773788 0.05484739676840216 0.04497307001795332 0.002782764811490126 8.976660682226212e-05 8.976660682226212e-05 0.008168761220825852 0.2891382405745063 0.4875224416517056 0.05215439856373429 0.06023339317773788 0.05484739676840216 0.04497307001795332 0.002782764811490126 8.976660682226212e-05 8.976660682226212e-05 0.008168761220825852 0.2891382405745063 0.4875224416517056 0.05215439856373429 0.06023339317773788 0.05484739676840216 0.04497307001795332 0.002782764811490126 8.976660682226212e-05 8.976660682226212e-05 0.008168761220825852 0.2891382405745063 0.4875224416517056 0.05215439856373429 0.06023339317773788 0.05484739676840216 0.04497307001795332 0.002782764811490126 8.976660682226212e-05 8.976660682226212e-05 0.008168761220825852 0.2891382405745063 0.4875224416517056 0.05215439856373429 0.06023339317773788 0.05484739676840216 0.04497307001795332 0.002782764811490126 8.976660682226212e-05 8.976660682226212e-05 0.008168761220825852 0.2891382405745063 0.4875224416517056 0.05215439856373429 0.06023339317773788 0.05484739676840216 0.04497307001795332 0.002782764811490126 8.976660682226212e-05 8.976660682226212e-05 0.008168761220825852 0.2891382405745063 0.4875224416517056 0.05215439856373429 0.06023339317773788 0.05484739676840216 0.04497307001795332 0.002782764811490126 8.976660682226212e-05 8.976660682226212e-05 0.008168761220825852 0.2891382405745063 0.4875224416517056 0.05215439856373429 0.06023339317773788 0.05484739676840216 0.04497307001795332 0.002782764811490126 8.976660682226212e-05 8.976660682226212e-05 0.008168761220825852 0.2891382405745063 0.4875224416517056 0.05215439856373429 0.06023339317773788 0.05484739676840216 0.04497307001795332 0.002782764811490126 8.976660682226212e-05 8.976660682226212e-05 0.008168761220825852 0.2891382405745063 0.4875224416517056 0.05215439856373429 0.06023339317773788 0.05484739676840216 0.04497307001795332 0.002782764811490126 8.976660682226212e-05 8.976660682226212e-05 0.008168761220825852 0.2891382405745063 0.4875224416517056 0.05215439856373429 0.06023339317773788 0.05484739676840216 0.04497307001795332 0.002782764811490126 8.976660682226212e-05 8.976660682226212e-05 0.008168761220825852 0.2891382405745063 0.4875224416517056 0.05215439856373429 0.06023339317773788 0.05484739676840216 0.04497307001795332 0.002782764811490126 8.976660682226212e-05 8.976660682226212e-05 0.008168761220825852 0.2891382405745063 0.4875224416517056 0.05215439856373429 0.06023339317773788 0.05484739676840216 0.04497307001795332 0.002782764811490126 8.976660682226212e-05 8.976660682226212e-05 0.008168761220825852 0.2891382405745063 0.4875224416517056 0.05215439856373429 0.06023339317773788 0.05484739676840216 0.04497307001795332 0.002782764811490126 8.976660682226212e-05 8.976660682226212e-05 0.008168761220825852 0.2891382405745063 0.4875224416517056 0.05215439856373429 0.06023339317773788 0.05484739676840216 0.04497307001795332 0.002782764811490126 8.976660682226212e-05 8.976660682226212e-05 0.008168761220825852 0.2891382405745063 0.4875224416517056 0.05215439856373429 0.06023339317773788 0.05484739676840216 0.04497307001795332 0.002782764811490126 8.976660682226212e-05 8.976660682226212e-05 0.008168761220825852 0.2891382405745063 0.4875224416517056 0.05215439856373429 0.06023339317773788 0.05484739676840216 0.04497307001795332 0.002782764811490126 8.976660682226212e-05 8.976660682226212e-05 0.008168761220825852 0.2891382405745063 0.4875224416517056 0.05215439856373429 0.06023339317773788 0.05484739676840216 0.04497307001795332 0.002782764811490126 8.976660682226212e-05 8.976660682226212e-05 0.008168761220825852 0.2891382405745063 0.4875224416517056 0.05215439856373429 0.06023339317773788 0.05484739676840216 0.04497307001795332 0.002782764811490126 8.976660682226212e-05 8.976660682226212e-05 0.008168761220825852 0.2891382405745063 0.4875224416517056 0.05215439856373429 0.06023339317773788 0.05484739676840216 0.04497307001795332 0.002782764811490126 8.976660682226212e-05 8.976660682226212e-05 0.008168761220825852 0.2891382405745063 0.4875224416517056 0.05215439856373429 0.06023339317773788 0.05484739676840216 0.04497307001795332 0.002782764811490126 8.976660682226212e-05 8.976660682226212e-05 0.008168761220825852 0.2891382405745063 0.4875224416517056 0.05215439856373429 0.06023339317773788 0.05484739676840216 0.04497307001795332 0.002782764811490126 8.976660682226212e-05 8.976660682226212e-05 0.008168761220825852 0.2891382405745063 0.4875224416517056 0.05215439856373429 0.06023339317773788 0.05484739676840216 0.04497307001795332 0.002782764811490126 8.976660682226212e-05 8.976660682226212e-05 0.008168761220825852 0.2891382405745063 0.4875224416517056 0.05215439856373429 0.06023339317773788 0.05484739676840216 0.04497307001795332 0.002782764811490126 8.976660682226212e-05 8.976660682226212e-05 0.008168761220825852 0.2891382405745063 0.4875224416517056 0.05215439856373429 0.06023339317773788 0.05484739676840216 0.04497307001795332 0.002782764811490126 8.976660682226212e-05 8.976660682226212e-05 0.008168761220825852 0.2891382405745063 0.4875224416517056 0.05215439856373429 0.06023339317773788 0.05484739676840216 0.04497307001795332 0.002782764811490126 8.976660682226212e-05 8.976660682226212e-05 0.008168761220825852 0.2891382405745063 0.4875224416517056 0.05215439856373429 0.06023339317773788 0.05484739676840216 0.04497307001795332 0.002782764811490126 8.976660682226212e-05 8.976660682226212e-05 0.008168761220825852 0.2891382405745063 0.4875224416517056 0.05215439856373429 0.06023339317773788 0.05484739676840216 0.04497307001795332 0.002782764811490126 8.976660682226212e-05 8.976660682226212e-05 0.008168761220825852 0.2891382405745063 0.4875224416517056 0.05215439856373429 0.06023339317773788 0.05484739676840216 0.04497307001795332 0.002782764811490126 8.976660682226212e-05 8.976660682226212e-05 0.008168761220825852 0.2891382405745063 0.4875224416517056 0.05215439856373429 0.06023339317773788 0.05484739676840216 0.04497307001795332 0.002782764811490126 8.976660682226212e-05 8.976660682226212e-05 0.008168761220825852 0.2891382405745063 0.4875224416517056 0.05215439856373429 0.06023339317773788 0.05484739676840216 0.04497307001795332 0.002782764811490126 8.976660682226212e-05 8.976660682226212e-05 0.008168761220825852 0.2891382405745063 0.4875224416517056 0.05215439856373429 0.06023339317773788 0.05484739676840216 0.04497307001795332 0.002782764811490126 8.976660682226212e-05 8.976660682226212e-05 0.008168761220825852 0.2891382405745063 0.4875224416517056 0.05215439856373429 0.06023339317773788 0.05484739676840216 0.04497307001795332 0.002782764811490126 8.976660682226212e-05 8.976660682226212e-05 0.008168761220825852 0.2891382405745063 0.4875224416517056 0.05215439856373429 0.06023339317773788 0.05484739676840216 0.04497307001795332 0.002782764811490126 8.976660682226212e-05 8.976660682226212e-05 0.008168761220825852 0.2891382405745063 0.4875224416517056 0.05215439856373429 0.06023339317773788 0.05484739676840216 0.04497307001795332 0.002782764811490126 8.976660682226212e-05 8.976660682226212e-05 0.008168761220825852 0.2891382405745063 0.4875224416517056 0.05215439856373429 0.06023339317773788 0.05484739676840216 0.04497307001795332 0.002782764811490126 8.976660682226212e-05 8.976660682226212e-05 0.008168761220825852 0.2891382405745063 0.4875224416517056 0.05215439856373429 0.06023339317773788 0.05484739676840216 0.04497307001795332 0.002782764811490126 8.976660682226212e-05 8.976660682226212e-05 0.008168761220825852 0.2891382405745063 0.4875224416517056 0.05215439856373429 0.06023339317773788 0.05484739676840216 0.04497307001795332 0.002782764811490126 8.976660682226212e-05 8.976660682226212e-05 0.008168761220825852 0.2891382405745063 0.4875224416517056 0.05215439856373429 0.06023339317773788 0.05484739676840216 0.04497307001795332 0.002782764811490126 8.976660682226212e-05 8.976660682226212e-05 0.008168761220825852 0.2891382405745063 0.4875224416517056 0.05215439856373429 0.06023339317773788 0.05484739676840216 0.04497307001795332 0.002782764811490126 8.976660682226212e-05 8.976660682226212e-05 0.008168761220825852 0.2891382405745063 0.4875224416517056 0.05215439856373429 0.06023339317773788 0.05484739676840216 0.04497307001795332 0.002782764811490126 8.976660682226212e-05 8.976660682226212e-05 0.008168761220825852 0.2891382405745063 0.4875224416517056 0.05215439856373429 0.06023339317773788 0.05484739676840216 0.04497307001795332 0.002782764811490126 8.976660682226212e-05 8.976660682226212e-05 0.008168761220825852 0.2891382405745063 0.4875224416517056 0.05215439856373429 0.06023339317773788 0.05484739676840216 0.04497307001795332 0.002782764811490126 8.976660682226212e-05 8.976660682226212e-05 0.008168761220825852 0.2891382405745063 0.4875224416517056 0.05215439856373429 0.06023339317773788 0.05484739676840216 0.04497307001795332 0.002782764811490126 8.976660682226212e-05 8.976660682226212e-05 0.008168761220825852 0.2891382405745063 0.4875224416517056 0.05215439856373429 0.06023339317773788 0.05484739676840216 0.04497307001795332 0.002782764811490126 8.976660682226212e-05 8.976660682226212e-05 0.008168761220825852 0.2891382405745063 0.4875224416517056 0.05215439856373429 0.06023339317773788 0.05484739676840216 0.04497307001795332 0.002782764811490126 8.976660682226212e-05 8.976660682226212e-05 0.008168761220825852 0.2891382405745063 0.4875224416517056 0.05215439856373429 0.06023339317773788 0.05484739676840216 0.04497307001795332 0.002782764811490126 8.976660682226212e-05 8.976660682226212e-05 0.008168761220825852 0.2891382405745063 0.4875224416517056 0.05215439856373429 0.06023339317773788 0.05484739676840216 0.04497307001795332 0.002782764811490126 8.976660682226212e-05 8.976660682226212e-05 0.008168761220825852 0.2891382405745063 0.4875224416517056 0.05215439856373429 0.06023339317773788 0.05484739676840216 0.04497307001795332 0.002782764811490126 8.976660682226212e-05 8.976660682226212e-05 0.008168761220825852 0.2891382405745063 0.4875224416517056 0.05215439856373429 0.06023339317773788 0.05484739676840216 0.04497307001795332 0.002782764811490126 8.976660682226212e-05 8.976660682226212e-05 0.008168761220825852 0.2891382405745063 0.4875224416517056 0.05215439856373429 0.06023339317773788 0.05484739676840216 0.04497307001795332 0.002782764811490126 8.976660682226212e-05 8.976660682226212e-05 0.008168761220825852 0.2891382405745063 0.4875224416517056 0.05215439856373429 0.06023339317773788 0.05484739676840216 0.04497307001795332 0.002782764811490126 8.976660682226212e-05 8.976660682226212e-05 0.008168761220825852 0.2891382405745063 0.4875224416517056 0.05215439856373429 0.06023339317773788 0.05484739676840216 0.04497307001795332 0.002782764811490126 8.976660682226212e-05 8.976660682226212e-05 0.008168761220825852 0.2891382405745063 0.4875224416517056 0.05215439856373429 0.06023339317773788 0.05484739676840216 0.04497307001795332 0.002782764811490126 8.976660682226212e-05 8.976660682226212e-05 0.008168761220825852 0.2891382405745063 0.4875224416517056 0.05215439856373429 0.06023339317773788 0.05484739676840216 0.04497307001795332 0.002782764811490126 8.976660682226212e-05 8.976660682226212e-05 0.008168761220825852 0.2891382405745063 0.4875224416517056 0.05215439856373429 0.06023339317773788 0.05484739676840216 0.04497307001795332 0.002782764811490126 8.976660682226212e-05 8.976660682226212e-05 0.008168761220825852 0.2891382405745063 0.4875224416517056 0.05215439856373429 0.06023339317773788 0.05484739676840216 0.04497307001795332 0.002782764811490126 8.976660682226212e-05 8.976660682226212e-05 0.008168761220825852 0.2891382405745063 0.4875224416517056 0.05215439856373429 0.06023339317773788 0.05484739676840216 0.04497307001795332 0.002782764811490126 8.976660682226212e-05 8.976660682226212e-05 0.008168761220825852 0.2891382405745063 0.4875224416517056 0.05215439856373429 0.06023339317773788 0.05484739676840216 0.04497307001795332 0.002782764811490126 8.976660682226212e-05 8.976660682226212e-05 0.008168761220825852 0.2891382405745063 0.4875224416517056 0.05215439856373429 0.06023339317773788 0.05484739676840216 0.04497307001795332 0.002782764811490126 8.976660682226212e-05 8.976660682226212e-05 0.008168761220825852 0.2891382405745063 0.4875224416517056 0.05215439856373429 0.06023339317773788 0.05484739676840216 0.04497307001795332 0.002782764811490126 8.976660682226212e-05 8.976660682226212e-05 0.008168761220825852 0.2891382405745063 0.4875224416517056 0.05215439856373429 0.06023339317773788 0.05484739676840216 0.04497307001795332 0.002782764811490126 8.976660682226212e-05 8.976660682226212e-05 0.008168761220825852 0.2891382405745063 0.4875224416517056 0.05215439856373429 0.06023339317773788 0.05484739676840216 0.04497307001795332 0.002782764811490126 8.976660682226212e-05 8.976660682226212e-05 0.008168761220825852 0.2891382405745063 0.4875224416517056 0.05215439856373429 0.06023339317773788 0.05484739676840216 0.04497307001795332 0.002782764811490126 8.976660682226212e-05 8.976660682226212e-05 0.008168761220825852 0.2891382405745063 0.4875224416517056 0.05215439856373429 0.06023339317773788 0.05484739676840216 0.04497307001795332 0.002782764811490126 8.976660682226212e-05 8.976660682226212e-05 0.008168761220825852 0.2891382405745063 0.4875224416517056 0.05215439856373429 0.06023339317773788 0.05484739676840216 0.04497307001795332 0.002782764811490126 8.976660682226212e-05 8.976660682226212e-05 0.008168761220825852 0.2891382405745063 0.4875224416517056 0.05215439856373429 0.06023339317773788 0.05484739676840216 0.04497307001795332 0.002782764811490126 8.976660682226212e-05 8.976660682226212e-05 0.008168761220825852 0.2891382405745063 0.4875224416517056 0.05215439856373429 0.06023339317773788 0.05484739676840216 0.04497307001795332 0.002782764811490126 8.976660682226212e-05 8.976660682226212e-05 0.008168761220825852 0.2891382405745063 0.4875224416517056 0.05215439856373429 0.06023339317773788 0.05484739676840216 0.04497307001795332 0.002782764811490126 8.976660682226212e-05 8.976660682226212e-05 0.008168761220825852 0.2891382405745063 0.4875224416517056 0.05215439856373429 0.06023339317773788 0.05484739676840216 0.04497307001795332 0.002782764811490126 8.976660682226212e-05 8.976660682226212e-05 0.008168761220825852 0.2891382405745063 0.4875224416517056 0.05215439856373429 0.06023339317773788 0.05484739676840216 0.04497307001795332 0.002782764811490126 8.976660682226212e-05 8.976660682226212e-05 0.008168761220825852 0.2891382405745063 0.4875224416517056 0.05215439856373429 0.06023339317773788 0.05484739676840216 0.04497307001795332 0.002782764811490126 8.976660682226212e-05 8.976660682226212e-05 0.008168761220825852 0.2891382405745063 0.4875224416517056 0.05215439856373429 0.06023339317773788 0.05484739676840216 0.04497307001795332 0.002782764811490126 8.976660682226212e-05 8.976660682226212e-05 0.008168761220825852 0.2891382405745063 0.4875224416517056 0.05215439856373429 0.06023339317773788 0.05484739676840216 0.04497307001795332 0.002782764811490126 8.976660682226212e-05 8.976660682226212e-05 0.008168761220825852 0.2891382405745063 0.4875224416517056 0.05215439856373429 0.06023339317773788 0.05484739676840216 0.04497307001795332 0.002782764811490126 8.976660682226212e-05 8.976660682226212e-05 0.008168761220825852 0.2891382405745063 0.4875224416517056 0.05215439856373429 0.06023339317773788 0.05484739676840216 0.04497307001795332 0.002782764811490126 8.976660682226212e-05 8.976660682226212e-05 0.008168761220825852 0.2891382405745063 0.4875224416517056 0.05215439856373429 0.06023339317773788 0.05484739676840216 0.04497307001795332 0.002782764811490126 8.976660682226212e-05 8.976660682226212e-05 0.008168761220825852 0.2891382405745063 0.4875224416517056 0.05215439856373429 0.06023339317773788 0.05484739676840216 0.04497307001795332 0.002782764811490126 8.976660682226212e-05 8.976660682226212e-05 0.008168761220825852 0.2891382405745063 0.4875224416517056 0.05215439856373429 0.06023339317773788 0.05484739676840216 0.04497307001795332 0.002782764811490126 8.976660682226212e-05 8.976660682226212e-05 0.008168761220825852 0.2891382405745063 0.4875224416517056 0.05215439856373429 0.06023339317773788 0.05484739676840216 0.04497307001795332 0.002782764811490126 8.976660682226212e-05 8.976660682226212e-05 0.008168761220825852 0.2891382405745063 0.4875224416517056 0.05215439856373429 0.06023339317773788 0.05484739676840216 0.04497307001795332 0.002782764811490126 8.976660682226212e-05 8.976660682226212e-05 0.008168761220825852 0.2891382405745063 0.4875224416517056 0.05215439856373429 0.06023339317773788 0.05484739676840216 0.04497307001795332 0.002782764811490126 8.976660682226212e-05 8.976660682226212e-05 0.008168761220825852 0.2891382405745063 0.4875224416517056 0.05215439856373429 0.06023339317773788 0.05484739676840216 0.04497307001795332 0.002782764811490126 8.976660682226212e-05 8.976660682226212e-05 0.008168761220825852 0.2891382405745063 0.4875224416517056 0.05215439856373429 0.06023339317773788 0.05484739676840216 0.04497307001795332 0.002782764811490126 8.976660682226212e-05 8.976660682226212e-05 0.008168761220825852 0.2891382405745063 0.4875224416517056 0.05215439856373429 0.06023339317773788 0.05484739676840216 0.04497307001795332 0.002782764811490126 8.976660682226212e-05 8.976660682226212e-05 0.008168761220825852 0.2891382405745063 0.4875224416517056 0.05215439856373429 0.06023339317773788 0.05484739676840216 0.04497307001795332 0.002782764811490126 8.976660682226212e-05 8.976660682226212e-05 0.008168761220825852 0.2891382405745063 0.4875224416517056 0.05215439856373429 0.06023339317773788 0.05484739676840216 0.04497307001795332 0.002782764811490126 8.976660682226212e-05 8.976660682226212e-05 0.008168761220825852 0.2891382405745063 0.4875224416517056 0.05215439856373429 0.06023339317773788 0.05484739676840216 0.04497307001795332 0.002782764811490126 8.976660682226212e-05 8.976660682226212e-05 0.008168761220825852 0.2891382405745063 0.4875224416517056 0.05215439856373429 0.06023339317773788 0.05484739676840216 0.04497307001795332 0.002782764811490126 8.976660682226212e-05 8.976660682226212e-05 0.008168761220825852 0.2891382405745063 0.4875224416517056 0.05215439856373429 0.06023339317773788 0.05484739676840216 0.04497307001795332 0.002782764811490126 8.976660682226212e-05 8.976660682226212e-05 0.008168761220825852 0.2891382405745063 0.4875224416517056 0.05215439856373429 0.06023339317773788 0.05484739676840216 0.04497307001795332 0.002782764811490126 8.976660682226212e-05 8.976660682226212e-05 0.008168761220825852 0.2891382405745063 0.4875224416517056 0.05215439856373429 0.06023339317773788 0.05484739676840216 0.04497307001795332 0.002782764811490126 8.976660682226212e-05 8.976660682226212e-05 0.008168761220825852 0.2891382405745063 0.4875224416517056 0.05215439856373429 0.06023339317773788 0.05484739676840216 0.04497307001795332 0.002782764811490126 8.976660682226212e-05 8.976660682226212e-05 0.008168761220825852 0.2891382405745063 0.4875224416517056 0.05215439856373429 0.06023339317773788 0.05484739676840216 0.04497307001795332 0.002782764811490126 8.976660682226212e-05 8.976660682226212e-05 0.008168761220825852 0.2891382405745063 0.4875224416517056 0.05215439856373429 0.06023339317773788 0.05484739676840216 0.04497307001795332 0.002782764811490126 8.976660682226212e-05 8.976660682226212e-05 0.008168761220825852 0.2891382405745063 0.4875224416517056 0.05215439856373429 0.06023339317773788 0.05484739676840216 0.04497307001795332 0.002782764811490126 8.976660682226212e-05 8.976660682226212e-05 0.008168761220825852 0.2891382405745063 0.4875224416517056 0.05215439856373429 0.06023339317773788 0.05484739676840216 0.04497307001795332 0.002782764811490126 8.976660682226212e-05 8.976660682226212e-05 0.008168761220825852 0.2891382405745063 0.4875224416517056 0.05215439856373429 0.06023339317773788 0.05484739676840216 0.04497307001795332 0.002782764811490126 8.976660682226212e-05 8.976660682226212e-05 0.008168761220825852 0.2891382405745063 0.4875224416517056 0.05215439856373429 0.06023339317773788 0.05484739676840216 0.04497307001795332 0.002782764811490126 8.976660682226212e-05 8.976660682226212e-05 0.008168761220825852 0.2891382405745063 0.4875224416517056 0.05215439856373429 0.06023339317773788 0.05484739676840216 0.04497307001795332 0.002782764811490126 8.976660682226212e-05 8.976660682226212e-05 0.008168761220825852 0.2891382405745063 0.4875224416517056 0.05215439856373429 0.06023339317773788 0.05484739676840216 0.04497307001795332 0.002782764811490126 8.976660682226212e-05 8.976660682226212e-05 0.008168761220825852 0.2891382405745063 0.4875224416517056 0.05215439856373429 0.06023339317773788 0.05484739676840216 0.04497307001795332 0.002782764811490126 8.976660682226212e-05 8.976660682226212e-05 0.008168761220825852 0.2891382405745063 0.4875224416517056 0.05215439856373429 0.06023339317773788 0.05484739676840216 0.04497307001795332 0.002782764811490126 8.976660682226212e-05 8.976660682226212e-05 0.008168761220825852 0.2891382405745063 0.4875224416517056 0.05215439856373429 0.06023339317773788 0.05484739676840216 0.04497307001795332 0.002782764811490126 8.976660682226212e-05 8.976660682226212e-05 0.008168761220825852 0.2891382405745063 0.4875224416517056 0.05215439856373429 0.06023339317773788 0.05484739676840216 0.04497307001795332 0.002782764811490126 8.976660682226212e-05 8.976660682226212e-05 0.008168761220825852 0.2891382405745063 0.4875224416517056 0.05215439856373429 0.06023339317773788 0.05484739676840216 0.04497307001795332 0.002782764811490126 8.976660682226212e-05 8.976660682226212e-05 0.008168761220825852 0.2891382405745063 0.4875224416517056 0.05215439856373429 0.06023339317773788 0.05484739676840216 0.04497307001795332 0.002782764811490126 8.976660682226212e-05 8.976660682226212e-05 0.008168761220825852 0.2891382405745063 0.4875224416517056 0.05215439856373429 0.06023339317773788 0.05484739676840216 0.04497307001795332 0.002782764811490126 8.976660682226212e-05 8.976660682226212e-05 0.008168761220825852 0.2891382405745063 0.4875224416517056 0.05215439856373429 0.06023339317773788 0.05484739676840216 0.04497307001795332 0.002782764811490126 8.976660682226212e-05 8.976660682226212e-05 0.008168761220825852 0.2891382405745063 0.4875224416517056 0.05215439856373429 0.06023339317773788 0.05484739676840216 0.04497307001795332 0.002782764811490126 8.976660682226212e-05 8.976660682226212e-05 0.008168761220825852 0.2891382405745063 0.4875224416517056 0.05215439856373429 0.06023339317773788 0.05484739676840216 0.04497307001795332 0.002782764811490126 8.976660682226212e-05 8.976660682226212e-05 0.008168761220825852 0.2891382405745063 0.4875224416517056 0.05215439856373429 0.06023339317773788 0.05484739676840216 0.04497307001795332 0.002782764811490126 8.976660682226212e-05 8.976660682226212e-05 0.008168761220825852 0.2891382405745063 0.4875224416517056 0.05215439856373429 0.06023339317773788 0.05484739676840216 0.04497307001795332 0.002782764811490126 8.976660682226212e-05 8.976660682226212e-05 0.008168761220825852 0.2891382405745063 0.4875224416517056 0.05215439856373429 0.06023339317773788 0.05484739676840216 0.04497307001795332 0.002782764811490126 8.976660682226212e-05 8.976660682226212e-05 0.008168761220825852 0.2891382405745063 0.4875224416517056 0.05215439856373429 0.06023339317773788 0.05484739676840216 0.04497307001795332 0.002782764811490126 8.976660682226212e-05 8.976660682226212e-05 0.008168761220825852 0.2891382405745063 0.4875224416517056 0.05215439856373429 0.06023339317773788 0.05484739676840216 0.04497307001795332 0.002782764811490126 8.976660682226212e-05 8.976660682226212e-05 0.008168761220825852 0.2891382405745063 0.4875224416517056 0.05215439856373429 0.06023339317773788 0.05484739676840216 0.04497307001795332 0.002782764811490126 8.976660682226212e-05 8.976660682226212e-05 0.008168761220825852 0.2891382405745063 0.4875224416517056 0.05215439856373429 0.06023339317773788 0.05484739676840216 0.04497307001795332 0.002782764811490126 8.976660682226212e-05 8.976660682226212e-05 0.008168761220825852 0.2891382405745063 0.4875224416517056 0.05215439856373429 0.06023339317773788 0.05484739676840216 0.04497307001795332 0.002782764811490126 8.976660682226212e-05 8.976660682226212e-05 0.008168761220825852 0.2891382405745063 0.4875224416517056 0.05215439856373429 0.06023339317773788 0.05484739676840216 0.04497307001795332 0.002782764811490126 8.976660682226212e-05 8.976660682226212e-05 0.008168761220825852 0.2891382405745063 0.4875224416517056 0.05215439856373429 0.06023339317773788 0.05484739676840216 0.04497307001795332 0.002782764811490126 8.976660682226212e-05 8.976660682226212e-05 0.008168761220825852 0.2891382405745063 0.4875224416517056 0.05215439856373429 0.06023339317773788 0.05484739676840216 0.04497307001795332 0.002782764811490126 8.976660682226212e-05 8.976660682226212e-05 0.008168761220825852 0.2891382405745063 0.4875224416517056 0.05215439856373429 0.06023339317773788 0.05484739676840216 0.04497307001795332 0.002782764811490126 8.976660682226212e-05 8.976660682226212e-05 0.008168761220825852 0.2891382405745063 0.4875224416517056 0.05215439856373429 0.06023339317773788 0.05484739676840216 0.04497307001795332 0.002782764811490126 8.976660682226212e-05 8.976660682226212e-05 0.008168761220825852 0.2891382405745063 0.4875224416517056 0.05215439856373429 0.06023339317773788 0.05484739676840216 0.04497307001795332 0.002782764811490126 8.976660682226212e-05 8.976660682226212e-05 0.008168761220825852 0.2891382405745063 0.4875224416517056 0.05215439856373429 0.06023339317773788 0.05484739676840216 0.04497307001795332 0.002782764811490126 8.976660682226212e-05 8.976660682226212e-05 0.008168761220825852 0.2891382405745063 0.4875224416517056 0.05215439856373429 0.06023339317773788 0.05484739676840216 0.04497307001795332 0.002782764811490126 8.976660682226212e-05 8.976660682226212e-05 0.008168761220825852 0.2891382405745063 0.4875224416517056 0.05215439856373429 0.06023339317773788 0.05484739676840216 0.04497307001795332 0.002782764811490126 8.976660682226212e-05 8.976660682226212e-05 0.008168761220825852 0.2891382405745063 0.4875224416517056 0.05215439856373429 0.06023339317773788 0.05484739676840216 0.04497307001795332 0.002782764811490126 8.976660682226212e-05 8.976660682226212e-05 0.008168761220825852 0.2891382405745063 0.4875224416517056 0.05215439856373429 0.06023339317773788 0.05484739676840216 0.04497307001795332 0.002782764811490126 8.976660682226212e-05 8.976660682226212e-05 0.008168761220825852 0.2891382405745063 0.4875224416517056 0.05215439856373429 0.06023339317773788 0.05484739676840216 0.04497307001795332 0.002782764811490126 8.976660682226212e-05 8.976660682226212e-05 0.008168761220825852 0.2891382405745063 0.4875224416517056 0.05215439856373429 0.06023339317773788 0.05484739676840216 0.04497307001795332 0.002782764811490126 8.976660682226212e-05 8.976660682226212e-05 0.008168761220825852 0.2891382405745063 0.4875224416517056 0.05215439856373429 0.06023339317773788 0.05484739676840216 0.04497307001795332 0.002782764811490126 8.976660682226212e-05 8.976660682226212e-05 0.008168761220825852 0.2891382405745063 0.4875224416517056 0.05215439856373429 0.06023339317773788 0.05484739676840216 0.04497307001795332 0.002782764811490126 8.976660682226212e-05 8.976660682226212e-05 0.008168761220825852 0.2891382405745063 0.4875224416517056 0.05215439856373429 0.06023339317773788 0.05484739676840216 0.04497307001795332 0.002782764811490126 8.976660682226212e-05 8.976660682226212e-05 0.008168761220825852 0.2891382405745063 0.4875224416517056 0.05215439856373429 0.06023339317773788 0.05484739676840216 0.04497307001795332 0.002782764811490126 8.976660682226212e-05 8.976660682226212e-05 0.008168761220825852 0.2891382405745063 0.4875224416517056 0.05215439856373429 0.06023339317773788 0.05484739676840216 0.04497307001795332 0.002782764811490126 8.976660682226212e-05 8.976660682226212e-05 0.008168761220825852 0.2891382405745063 0.4875224416517056 0.05215439856373429 0.06023339317773788 0.05484739676840216 0.04497307001795332 0.002782764811490126 8.976660682226212e-05 8.976660682226212e-05 0.008168761220825852 0.2891382405745063 0.4875224416517056 0.05215439856373429 0.06023339317773788 0.05484739676840216 0.04497307001795332 0.002782764811490126 8.976660682226212e-05 8.976660682226212e-05 0.008168761220825852 0.2891382405745063 0.4875224416517056 0.05215439856373429 0.06023339317773788 0.05484739676840216 0.04497307001795332 0.002782764811490126 8.976660682226212e-05 8.976660682226212e-05 0.008168761220825852 0.2891382405745063 0.4875224416517056 0.05215439856373429 0.06023339317773788 0.05484739676840216 0.04497307001795332 0.002782764811490126 8.976660682226212e-05 8.976660682226212e-05 0.008168761220825852 0.2891382405745063 0.4875224416517056 0.05215439856373429 0.06023339317773788 0.05484739676840216 0.04497307001795332 0.002782764811490126 8.976660682226212e-05 8.976660682226212e-05 0.008168761220825852 0.2891382405745063 0.4875224416517056 0.05215439856373429 0.06023339317773788 0.05484739676840216 0.04497307001795332 0.002782764811490126 8.976660682226212e-05 8.976660682226212e-05 0.008168761220825852 0.2891382405745063 0.4875224416517056 0.05215439856373429 0.06023339317773788 0.05484739676840216 0.04497307001795332 0.002782764811490126 8.976660682226212e-05 8.976660682226212e-05 0.008168761220825852 0.2891382405745063 0.4875224416517056 0.05215439856373429 0.06023339317773788 0.05484739676840216 0.04497307001795332 0.002782764811490126 8.976660682226212e-05 8.976660682226212e-05 0.008168761220825852 0.2891382405745063 0.4875224416517056 0.05215439856373429 0.06023339317773788 0.05484739676840216 0.04497307001795332 0.002782764811490126 8.976660682226212e-05 8.976660682226212e-05 0.008168761220825852 0.2891382405745063 0.4875224416517056 0.05215439856373429 0.06023339317773788 0.05484739676840216 0.04497307001795332 0.002782764811490126 8.976660682226212e-05 8.976660682226212e-05 0.008168761220825852 0.2891382405745063 0.4875224416517056 0.05215439856373429 0.06023339317773788 0.05484739676840216 0.04497307001795332 0.002782764811490126 8.976660682226212e-05 8.976660682226212e-05 0.008168761220825852 0.2891382405745063 0.4875224416517056 0.05215439856373429 0.06023339317773788 0.05484739676840216 0.04497307001795332 0.002782764811490126 8.976660682226212e-05 8.976660682226212e-05 0.008168761220825852 0.2891382405745063 0.4875224416517056 0.05215439856373429 0.06023339317773788 0.05484739676840216 0.04497307001795332 0.002782764811490126 8.976660682226212e-05 8.976660682226212e-05 0.008168761220825852 0.2891382405745063 0.4875224416517056 0.05215439856373429 0.06023339317773788 0.05484739676840216 0.04497307001795332 0.002782764811490126 8.976660682226212e-05 8.976660682226212e-05 0.008168761220825852 0.2891382405745063 0.4875224416517056 0.05215439856373429 0.06023339317773788 0.05484739676840216 0.04497307001795332 0.002782764811490126 8.976660682226212e-05 8.976660682226212e-05 0.008168761220825852 0.2891382405745063 0.4875224416517056 0.05215439856373429 0.06023339317773788 0.05484739676840216 0.04497307001795332 0.002782764811490126 8.976660682226212e-05 8.976660682226212e-05 0.008168761220825852 0.2891382405745063 0.4875224416517056 0.05215439856373429 0.06023339317773788 0.05484739676840216 0.04497307001795332 0.002782764811490126 8.976660682226212e-05 8.976660682226212e-05 0.008168761220825852 0.2891382405745063 0.4875224416517056 0.05215439856373429 0.06023339317773788 0.05484739676840216 0.04497307001795332 0.002782764811490126 8.976660682226212e-05 8.976660682226212e-05 0.008168761220825852 0.2891382405745063 0.4875224416517056 0.05215439856373429 0.06023339317773788 0.05484739676840216 0.04497307001795332 0.002782764811490126 8.976660682226212e-05 8.976660682226212e-05 0.008168761220825852 0.2891382405745063 0.4875224416517056 0.05215439856373429 0.06023339317773788 0.05484739676840216 0.04497307001795332 0.002782764811490126 8.976660682226212e-05 8.976660682226212e-05 0.008168761220825852 0.2891382405745063 0.4875224416517056 0.05215439856373429 0.06023339317773788 0.05484739676840216 0.04497307001795332 0.002782764811490126 8.976660682226212e-05 8.976660682226212e-05 0.008168761220825852 0.2891382405745063 0.4875224416517056 0.05215439856373429 0.06023339317773788 0.05484739676840216 0.04497307001795332 0.002782764811490126 8.976660682226212e-05 8.976660682226212e-05 0.008168761220825852 0.2891382405745063 0.4875224416517056 0.05215439856373429 0.06023339317773788 0.05484739676840216 0.04497307001795332 0.002782764811490126 8.976660682226212e-05 8.976660682226212e-05 0.008168761220825852 0.2891382405745063 0.4875224416517056 0.05215439856373429 0.06023339317773788 0.05484739676840216 0.04497307001795332 0.002782764811490126 8.976660682226212e-05 8.976660682226212e-05 0.008168761220825852 0.2891382405745063 0.4875224416517056 0.05215439856373429 0.06023339317773788 0.05484739676840216 0.04497307001795332 0.002782764811490126 8.976660682226212e-05 8.976660682226212e-05 0.008168761220825852 0.2891382405745063 0.4875224416517056 0.05215439856373429 0.06023339317773788 0.05484739676840216 0.04497307001795332 0.002782764811490126 8.976660682226212e-05 8.976660682226212e-05 0.008168761220825852 0.2891382405745063 0.4875224416517056 0.05215439856373429 0.06023339317773788 0.05484739676840216 0.04497307001795332 0.002782764811490126 8.976660682226212e-05 8.976660682226212e-05 0.008168761220825852 0.2891382405745063 0.4875224416517056 0.05215439856373429 0.06023339317773788 0.05484739676840216 0.04497307001795332 0.002782764811490126 8.976660682226212e-05 8.976660682226212e-05 0.008168761220825852 0.2891382405745063 0.4875224416517056 0.05215439856373429 0.06023339317773788 0.05484739676840216 0.04497307001795332 0.002782764811490126 8.976660682226212e-05 8.976660682226212e-05 0.008168761220825852 0.2891382405745063 0.4875224416517056 0.05215439856373429 0.06023339317773788 0.05484739676840216 0.04497307001795332 0.002782764811490126 8.976660682226212e-05 8.976660682226212e-05 0.008168761220825852 0.2891382405745063 0.4875224416517056 0.05215439856373429 0.06023339317773788 0.05484739676840216 0.04497307001795332 0.002782764811490126 8.976660682226212e-05 8.976660682226212e-05 0.008168761220825852 0.2891382405745063 0.4875224416517056 0.05215439856373429 0.06023339317773788 0.05484739676840216 0.04497307001795332 0.002782764811490126 8.976660682226212e-05 8.976660682226212e-05 0.008168761220825852 0.2891382405745063 0.4875224416517056 0.05215439856373429 0.06023339317773788 0.05484739676840216 0.04497307001795332 0.002782764811490126 8.976660682226212e-05 8.976660682226212e-05 0.008168761220825852 0.2891382405745063 0.4875224416517056 0.05215439856373429 0.06023339317773788 0.05484739676840216 0.04497307001795332 0.002782764811490126 8.976660682226212e-05 8.976660682226212e-05 0.008168761220825852 0.2891382405745063 0.4875224416517056 0.05215439856373429 0.06023339317773788 0.05484739676840216 0.04497307001795332 0.002782764811490126 8.976660682226212e-05 8.976660682226212e-05 0.008168761220825852 0.2891382405745063 0.4875224416517056 0.05215439856373429 0.06023339317773788 0.05484739676840216 0.04497307001795332 0.002782764811490126 8.976660682226212e-05 8.976660682226212e-05 0.008168761220825852 0.2891382405745063 0.4875224416517056 0.05215439856373429 0.06023339317773788 0.05484739676840216 0.04497307001795332 0.002782764811490126 8.976660682226212e-05 8.976660682226212e-05 0.008168761220825852 0.2891382405745063 0.4875224416517056 0.05215439856373429 0.06023339317773788 0.05484739676840216 0.04497307001795332 0.002782764811490126 8.976660682226212e-05 8.976660682226212e-05 0.008168761220825852 0.2891382405745063 0.4875224416517056 0.05215439856373429 0.06023339317773788 0.05484739676840216 0.04497307001795332 0.002782764811490126 8.976660682226212e-05 8.976660682226212e-05 0.008168761220825852 0.2891382405745063 0.4875224416517056 0.05215439856373429 0.06023339317773788 0.05484739676840216 0.04497307001795332 0.002782764811490126 8.976660682226212e-05 8.976660682226212e-05 0.008168761220825852 0.2891382405745063 0.4875224416517056 0.05215439856373429 0.06023339317773788 0.05484739676840216 0.04497307001795332 0.002782764811490126 8.976660682226212e-05 8.976660682226212e-05 0.008168761220825852 0.2891382405745063 0.4875224416517056 0.05215439856373429 0.06023339317773788 0.05484739676840216 0.04497307001795332 0.002782764811490126 8.976660682226212e-05 8.976660682226212e-05 0.008168761220825852 0.2891382405745063 0.4875224416517056 0.05215439856373429 0.06023339317773788 0.05484739676840216 0.04497307001795332 0.002782764811490126 8.976660682226212e-05 8.976660682226212e-05 0.008168761220825852 0.2891382405745063 0.4875224416517056 0.05215439856373429 0.06023339317773788 0.05484739676840216 0.04497307001795332 0.002782764811490126 8.976660682226212e-05 8.976660682226212e-05 0.008168761220825852 0.2891382405745063 0.4875224416517056 0.05215439856373429 0.06023339317773788 0.05484739676840216 0.04497307001795332 0.002782764811490126 8.976660682226212e-05 8.976660682226212e-05 0.008168761220825852 0.2891382405745063 0.4875224416517056 0.05215439856373429 0.06023339317773788 0.05484739676840216 0.04497307001795332 0.002782764811490126 8.976660682226212e-05 8.976660682226212e-05 0.008168761220825852 0.2891382405745063 0.4875224416517056 0.05215439856373429 0.06023339317773788 0.05484739676840216 0.04497307001795332 0.002782764811490126 8.976660682226212e-05 8.976660682226212e-05 0.008168761220825852 0.2891382405745063 0.4875224416517056 0.05215439856373429 0.06023339317773788 0.05484739676840216 0.04497307001795332 0.002782764811490126 8.976660682226212e-05 8.976660682226212e-05 0.008168761220825852 0.2891382405745063 0.4875224416517056 0.05215439856373429 0.06023339317773788 0.05484739676840216 0.04497307001795332 0.002782764811490126 8.976660682226212e-05 8.976660682226212e-05 0.008168761220825852 0.2891382405745063 0.4875224416517056 0.05215439856373429 0.06023339317773788 0.05484739676840216 0.04497307001795332 0.002782764811490126 8.976660682226212e-05 8.976660682226212e-05 0.008168761220825852 0.2891382405745063 0.4875224416517056 0.05215439856373429 0.06023339317773788 0.05484739676840216 0.04497307001795332 0.002782764811490126 8.976660682226212e-05 8.976660682226212e-05 0.008168761220825852 0.2891382405745063 0.4875224416517056 0.05215439856373429 0.06023339317773788 0.05484739676840216 0.04497307001795332 0.002782764811490126 8.976660682226212e-05 8.976660682226212e-05 0.008168761220825852 0.2891382405745063 0.4875224416517056 0.05215439856373429 0.06023339317773788 0.05484739676840216 0.04497307001795332 0.002782764811490126 8.976660682226212e-05 8.976660682226212e-05 0.008168761220825852 0.2891382405745063 0.4875224416517056 0.05215439856373429 0.06023339317773788 0.05484739676840216 0.04497307001795332 0.002782764811490126 8.976660682226212e-05 8.976660682226212e-05 0.008168761220825852 0.2891382405745063 0.4875224416517056 0.05215439856373429 0.06023339317773788 0.05484739676840216 0.04497307001795332 0.002782764811490126 8.976660682226212e-05 8.976660682226212e-05 0.008168761220825852 0.2891382405745063 0.4875224416517056 0.05215439856373429 0.06023339317773788 0.05484739676840216 0.04497307001795332 0.002782764811490126 8.976660682226212e-05 8.976660682226212e-05 0.008168761220825852 0.2891382405745063 0.4875224416517056 0.05215439856373429 0.06023339317773788 0.05484739676840216 0.04497307001795332 0.002782764811490126 8.976660682226212e-05 8.976660682226212e-05 0.008168761220825852 0.2891382405745063 0.4875224416517056 0.05215439856373429 0.06023339317773788 0.05484739676840216 0.04497307001795332 0.002782764811490126 8.976660682226212e-05 8.976660682226212e-05 0.008168761220825852 0.2891382405745063 0.4875224416517056 0.05215439856373429 0.06023339317773788 0.05484739676840216 0.04497307001795332 0.002782764811490126 8.976660682226212e-05 8.976660682226212e-05 0.008168761220825852 0.2891382405745063 0.4875224416517056 0.05215439856373429 0.06023339317773788 0.05484739676840216 0.04497307001795332 0.002782764811490126 8.976660682226212e-05 8.976660682226212e-05 0.008168761220825852 0.2891382405745063 0.4875224416517056 0.05215439856373429 0.06023339317773788 0.05484739676840216 0.04497307001795332 0.002782764811490126 8.976660682226212e-05 8.976660682226212e-05 0.008168761220825852 0.2891382405745063 0.4875224416517056 0.05215439856373429 0.06023339317773788 0.05484739676840216 0.04497307001795332 0.002782764811490126 8.976660682226212e-05 8.976660682226212e-05 0.008168761220825852 0.2891382405745063 0.4875224416517056 0.05215439856373429 0.06023339317773788 0.05484739676840216 0.04497307001795332 0.002782764811490126 8.976660682226212e-05 8.976660682226212e-05 0.008168761220825852 0.2891382405745063 0.4875224416517056 0.05215439856373429 0.06023339317773788 0.05484739676840216 0.04497307001795332 0.002782764811490126 8.976660682226212e-05 8.976660682226212e-05 0.008168761220825852 0.2891382405745063 0.4875224416517056 0.05215439856373429 0.06023339317773788 0.05484739676840216 0.04497307001795332 0.002782764811490126 8.976660682226212e-05 8.976660682226212e-05 0.008168761220825852 0.2891382405745063 0.4875224416517056 0.05215439856373429 0.06023339317773788 0.05484739676840216 0.04497307001795332 0.002782764811490126 8.976660682226212e-05 8.976660682226212e-05 0.008168761220825852 0.2891382405745063 0.4875224416517056 0.05215439856373429 0.06023339317773788 0.05484739676840216 0.04497307001795332 0.002782764811490126 8.976660682226212e-05 8.976660682226212e-05 0.008168761220825852 0.2891382405745063 0.4875224416517056 0.05215439856373429 0.06023339317773788 0.05484739676840216 0.04497307001795332 0.002782764811490126 8.976660682226212e-05 8.976660682226212e-05 0.008168761220825852 0.2891382405745063 0.4875224416517056 0.05215439856373429 0.06023339317773788 0.05484739676840216 0.04497307001795332 0.002782764811490126 8.976660682226212e-05 8.976660682226212e-05 0.008168761220825852 0.2891382405745063 0.4875224416517056 0.05215439856373429 0.06023339317773788 0.05484739676840216 0.04497307001795332 0.002782764811490126 8.976660682226212e-05 8.976660682226212e-05 0.008168761220825852 0.2891382405745063 0.4875224416517056 0.05215439856373429 0.06023339317773788 0.05484739676840216 0.04497307001795332 0.002782764811490126 8.976660682226212e-05 8.976660682226212e-05 0.008168761220825852 0.2891382405745063 0.4875224416517056 0.05215439856373429 0.06023339317773788 0.05484739676840216 0.04497307001795332 0.002782764811490126 8.976660682226212e-05 8.976660682226212e-05 0.008168761220825852 0.2891382405745063 0.4875224416517056 0.05215439856373429 0.06023339317773788 0.05484739676840216 0.04497307001795332 0.002782764811490126 8.976660682226212e-05 8.976660682226212e-05 0.008168761220825852 0.2891382405745063 0.4875224416517056 0.05215439856373429 0.06023339317773788 0.05484739676840216 0.04497307001795332 0.002782764811490126 8.976660682226212e-05 8.976660682226212e-05 0.008168761220825852 0.2891382405745063 0.4875224416517056 0.05215439856373429 0.06023339317773788 0.05484739676840216 0.04497307001795332 0.002782764811490126 8.976660682226212e-05 8.976660682226212e-05 0.008168761220825852 0.2891382405745063 0.4875224416517056 0.05215439856373429 0.06023339317773788 0.05484739676840216 0.04497307001795332 0.002782764811490126 8.976660682226212e-05 8.976660682226212e-05 0.008168761220825852 0.2891382405745063 0.4875224416517056 0.05215439856373429 0.06023339317773788 0.05484739676840216 0.04497307001795332 0.002782764811490126 8.976660682226212e-05 8.976660682226212e-05 0.008168761220825852 0.2891382405745063 0.4875224416517056 0.05215439856373429 0.06023339317773788 0.05484739676840216 0.04497307001795332 0.002782764811490126 8.976660682226212e-05 8.976660682226212e-05 0.008168761220825852 0.2891382405745063 0.4875224416517056 0.05215439856373429 0.06023339317773788 0.05484739676840216 0.04497307001795332 0.002782764811490126 8.976660682226212e-05 8.976660682226212e-05 0.008168761220825852 0.2891382405745063 0.4875224416517056 0.05215439856373429 0.06023339317773788 0.05484739676840216 0.04497307001795332 0.002782764811490126 8.976660682226212e-05 8.976660682226212e-05 0.008168761220825852 0.2891382405745063 0.4875224416517056 0.05215439856373429 0.06023339317773788 0.05484739676840216 0.04497307001795332 0.002782764811490126 8.976660682226212e-05 8.976660682226212e-05 0.008168761220825852 0.2891382405745063 0.4875224416517056 0.05215439856373429 0.06023339317773788 0.05484739676840216 0.04497307001795332 0.002782764811490126 8.976660682226212e-05 8.976660682226212e-05 0.008168761220825852 0.2891382405745063 0.4875224416517056 0.05215439856373429 0.06023339317773788 0.05484739676840216 0.04497307001795332 0.002782764811490126 8.976660682226212e-05 8.976660682226212e-05 0.008168761220825852 0.2891382405745063 0.4875224416517056 0.05215439856373429 0.06023339317773788 0.05484739676840216 0.04497307001795332 0.002782764811490126 8.976660682226212e-05 8.976660682226212e-05 0.008168761220825852 0.2891382405745063 0.4875224416517056 0.05215439856373429 0.06023339317773788 0.05484739676840216 0.04497307001795332 0.002782764811490126 8.976660682226212e-05 8.976660682226212e-05 0.008168761220825852 0.2891382405745063 0.4875224416517056 0.05215439856373429 0.06023339317773788 0.05484739676840216 0.04497307001795332 0.002782764811490126 8.976660682226212e-05 8.976660682226212e-05 0.008168761220825852 0.2891382405745063 0.4875224416517056 0.05215439856373429 0.06023339317773788 0.05484739676840216 0.04497307001795332 0.002782764811490126 8.976660682226212e-05 8.976660682226212e-05 0.008168761220825852 0.2891382405745063 0.4875224416517056 0.05215439856373429 0.06023339317773788 0.05484739676840216 0.04497307001795332 0.002782764811490126 8.976660682226212e-05 8.976660682226212e-05 0.008168761220825852 0.2891382405745063 0.4875224416517056 0.05215439856373429 0.06023339317773788 0.05484739676840216 0.04497307001795332 0.002782764811490126 8.976660682226212e-05 8.976660682226212e-05 0.008168761220825852 0.2891382405745063 0.4875224416517056 0.05215439856373429 0.06023339317773788 0.05484739676840216 0.04497307001795332 0.002782764811490126 8.976660682226212e-05 8.976660682226212e-05 0.008168761220825852 0.2891382405745063 0.4875224416517056 0.05215439856373429 0.06023339317773788 0.05484739676840216 0.04497307001795332 0.002782764811490126 8.976660682226212e-05 8.976660682226212e-05 0.008168761220825852 0.2891382405745063 0.4875224416517056 0.05215439856373429 0.06023339317773788 0.05484739676840216 0.04497307001795332 0.002782764811490126 8.976660682226212e-05 8.976660682226212e-05 0.008168761220825852 0.2891382405745063 0.4875224416517056 0.05215439856373429 0.06023339317773788 0.05484739676840216 0.04497307001795332 0.002782764811490126 8.976660682226212e-05 8.976660682226212e-05 0.008168761220825852 0.2891382405745063 0.4875224416517056 0.05215439856373429 0.06023339317773788 0.05484739676840216 0.04497307001795332 0.002782764811490126 8.976660682226212e-05 8.976660682226212e-05 0.008168761220825852 0.2891382405745063 0.4875224416517056 0.05215439856373429 0.06023339317773788 0.05484739676840216 0.04497307001795332 0.002782764811490126 8.976660682226212e-05 8.976660682226212e-05 0.008168761220825852 0.2891382405745063 0.4875224416517056 0.05215439856373429 0.06023339317773788 0.05484739676840216 0.04497307001795332 0.002782764811490126 8.976660682226212e-05 8.976660682226212e-05 0.008168761220825852 0.2891382405745063 0.4875224416517056 0.05215439856373429 0.06023339317773788 0.05484739676840216 0.04497307001795332 0.002782764811490126 8.976660682226212e-05 8.976660682226212e-05 0.008168761220825852 0.2891382405745063 0.4875224416517056 0.05215439856373429 0.06023339317773788 0.05484739676840216 0.04497307001795332 0.002782764811490126 8.976660682226212e-05 8.976660682226212e-05 0.008168761220825852 0.2891382405745063 0.4875224416517056 0.05215439856373429 0.06023339317773788 0.05484739676840216 0.04497307001795332 0.002782764811490126 8.976660682226212e-05 8.976660682226212e-05 0.008168761220825852 0.2891382405745063 0.4875224416517056 0.05215439856373429 0.06023339317773788 0.05484739676840216 0.04497307001795332 0.002782764811490126 8.976660682226212e-05 8.976660682226212e-05 0.008168761220825852 0.2891382405745063 0.4875224416517056 0.05215439856373429 0.06023339317773788 0.05484739676840216 0.04497307001795332 0.002782764811490126 8.976660682226212e-05 8.976660682226212e-05 0.008168761220825852 0.2891382405745063 0.4875224416517056 0.05215439856373429 0.06023339317773788 0.05484739676840216 0.04497307001795332 0.002782764811490126 8.976660682226212e-05 8.976660682226212e-05 0.008168761220825852 0.2891382405745063 0.4875224416517056 0.05215439856373429 0.06023339317773788 0.05484739676840216 0.04497307001795332 0.002782764811490126 8.976660682226212e-05 8.976660682226212e-05 0.008168761220825852 0.2891382405745063 0.4875224416517056 0.05215439856373429 0.06023339317773788 0.05484739676840216 0.04497307001795332 0.002782764811490126 8.976660682226212e-05 8.976660682226212e-05 0.008168761220825852 0.2891382405745063 0.4875224416517056 0.05215439856373429 0.06023339317773788 0.05484739676840216 0.04497307001795332 0.002782764811490126 8.976660682226212e-05 8.976660682226212e-05 0.008168761220825852 0.2891382405745063 0.4875224416517056 0.05215439856373429 0.06023339317773788 0.05484739676840216 0.04497307001795332 0.002782764811490126 8.976660682226212e-05 8.976660682226212e-05 0.008168761220825852 0.2891382405745063 0.4875224416517056 0.05215439856373429 0.06023339317773788 0.05484739676840216 0.04497307001795332 0.002782764811490126 8.976660682226212e-05 8.976660682226212e-05 0.008168761220825852 0.2891382405745063 0.4875224416517056 0.05215439856373429 0.06023339317773788 0.05484739676840216 0.04497307001795332 0.002782764811490126 8.976660682226212e-05 8.976660682226212e-05 0.008168761220825852 0.2891382405745063 0.4875224416517056 0.05215439856373429 0.06023339317773788 0.05484739676840216 0.04497307001795332 0.002782764811490126 8.976660682226212e-05 8.976660682226212e-05 0.008168761220825852 0.2891382405745063 0.4875224416517056 0.05215439856373429 0.06023339317773788 0.05484739676840216 0.04497307001795332 0.002782764811490126 8.976660682226212e-05 8.976660682226212e-05 0.008168761220825852 0.2891382405745063 0.4875224416517056 0.05215439856373429 0.06023339317773788 0.05484739676840216 0.04497307001795332 0.002782764811490126 8.976660682226212e-05 8.976660682226212e-05 0.008168761220825852 0.2891382405745063 0.4875224416517056 0.05215439856373429 0.06023339317773788 0.05484739676840216 0.04497307001795332 0.002782764811490126 8.976660682226212e-05 8.976660682226212e-05 0.008168761220825852 0.2891382405745063 0.4875224416517056 0.05215439856373429 0.06023339317773788 0.05484739676840216 0.04497307001795332 0.002782764811490126 8.976660682226212e-05 8.976660682226212e-05 0.008168761220825852 0.2891382405745063 0.4875224416517056 0.05215439856373429 0.06023339317773788 0.05484739676840216 0.04497307001795332 0.002782764811490126 8.976660682226212e-05 8.976660682226212e-05 0.008168761220825852 0.2891382405745063 0.4875224416517056 0.05215439856373429 0.06023339317773788 0.05484739676840216 0.04497307001795332 0.002782764811490126 8.976660682226212e-05 8.976660682226212e-05 0.008168761220825852 0.2891382405745063 0.4875224416517056 0.05215439856373429 0.06023339317773788 0.05484739676840216 0.04497307001795332 0.002782764811490126 8.976660682226212e-05 8.976660682226212e-05 0.008168761220825852 0.2891382405745063 0.4875224416517056 0.05215439856373429 0.06023339317773788 0.05484739676840216 0.04497307001795332 0.002782764811490126 8.976660682226212e-05 8.976660682226212e-05 0.008168761220825852 0.2891382405745063 0.4875224416517056 0.05215439856373429 0.06023339317773788 0.05484739676840216 0.04497307001795332 0.002782764811490126 8.976660682226212e-05 8.976660682226212e-05 0.008168761220825852 0.2891382405745063 0.4875224416517056 0.05215439856373429 0.06023339317773788 0.05484739676840216 0.04497307001795332 0.002782764811490126 8.976660682226212e-05 8.976660682226212e-05 0.008168761220825852 0.2891382405745063 0.4875224416517056 0.05215439856373429 0.06023339317773788 0.05484739676840216 0.04497307001795332 0.002782764811490126 8.976660682226212e-05 8.976660682226212e-05 0.008168761220825852 0.2891382405745063 0.4875224416517056 0.05215439856373429 0.06023339317773788 0.05484739676840216 0.04497307001795332 0.002782764811490126 8.976660682226212e-05 8.976660682226212e-05 0.008168761220825852 0.2891382405745063 0.4875224416517056 0.05215439856373429 0.06023339317773788 0.05484739676840216 0.04497307001795332 0.002782764811490126 8.976660682226212e-05 8.976660682226212e-05 0.008168761220825852 0.2891382405745063 0.4875224416517056 0.05215439856373429 0.06023339317773788 0.05484739676840216 0.04497307001795332 0.002782764811490126 8.976660682226212e-05 8.976660682226212e-05 0.008168761220825852 0.2891382405745063 0.4875224416517056 0.05215439856373429 0.06023339317773788 0.05484739676840216 0.04497307001795332 0.002782764811490126 8.976660682226212e-05 8.976660682226212e-05 0.008168761220825852 0.2891382405745063 0.4875224416517056 0.05215439856373429 0.06023339317773788 0.05484739676840216 0.04497307001795332 0.002782764811490126 8.976660682226212e-05 8.976660682226212e-05 0.008168761220825852 0.2891382405745063 0.4875224416517056 0.05215439856373429 0.06023339317773788 0.05484739676840216 0.04497307001795332 0.002782764811490126 8.976660682226212e-05 8.976660682226212e-05 0.008168761220825852 0.2891382405745063 0.4875224416517056 0.05215439856373429 0.06023339317773788 0.05484739676840216 0.04497307001795332 0.002782764811490126 8.976660682226212e-05 8.976660682226212e-05 0.008168761220825852 0.2891382405745063 0.4875224416517056 0.05215439856373429 0.06023339317773788 0.05484739676840216 0.04497307001795332 0.002782764811490126 8.976660682226212e-05 8.976660682226212e-05 0.008168761220825852 0.2891382405745063 0.4875224416517056 0.05215439856373429 0.06023339317773788 0.05484739676840216 0.04497307001795332 0.002782764811490126 8.976660682226212e-05 8.976660682226212e-05 0.008168761220825852 0.2891382405745063 0.4875224416517056 0.05215439856373429 0.06023339317773788 0.05484739676840216 0.04497307001795332 0.002782764811490126 8.976660682226212e-05 8.976660682226212e-05 0.008168761220825852 0.2891382405745063 0.4875224416517056 0.05215439856373429 0.06023339317773788 0.05484739676840216 0.04497307001795332 0.002782764811490126 8.976660682226212e-05 8.976660682226212e-05 0.008168761220825852 0.2891382405745063 0.4875224416517056 0.05215439856373429 0.06023339317773788 0.05484739676840216 0.04497307001795332 0.002782764811490126 8.976660682226212e-05 8.976660682226212e-05 0.008168761220825852 0.2891382405745063 0.4875224416517056 0.05215439856373429 0.06023339317773788 0.05484739676840216 0.04497307001795332 0.002782764811490126 8.976660682226212e-05 8.976660682226212e-05 0.008168761220825852 0.2891382405745063 0.4875224416517056 0.05215439856373429 0.06023339317773788 0.05484739676840216 0.04497307001795332 0.002782764811490126 8.976660682226212e-05 8.976660682226212e-05 0.008168761220825852 0.2891382405745063 0.4875224416517056 0.05215439856373429 0.06023339317773788 0.05484739676840216 0.04497307001795332 0.002782764811490126 8.976660682226212e-05 8.976660682226212e-05 0.008168761220825852 0.2891382405745063 0.4875224416517056 0.05215439856373429 0.06023339317773788 0.05484739676840216 0.04497307001795332 0.002782764811490126 8.976660682226212e-05 8.976660682226212e-05 0.008168761220825852 0.2891382405745063 0.4875224416517056 0.05215439856373429 0.06023339317773788 0.05484739676840216 0.04497307001795332 0.002782764811490126 8.976660682226212e-05 8.976660682226212e-05 0.008168761220825852 0.2891382405745063 0.4875224416517056 0.05215439856373429 0.06023339317773788 0.05484739676840216 0.04497307001795332 0.002782764811490126 8.976660682226212e-05 8.976660682226212e-05 0.008168761220825852 0.2891382405745063 0.4875224416517056 0.05215439856373429 0.06023339317773788 0.05484739676840216 0.04497307001795332 0.002782764811490126 8.976660682226212e-05 8.976660682226212e-05 0.008168761220825852 0.2891382405745063 0.4875224416517056 0.05215439856373429 0.06023339317773788 0.05484739676840216 0.04497307001795332 0.002782764811490126 8.976660682226212e-05 8.976660682226212e-05 0.008168761220825852 0.2891382405745063 0.4875224416517056 0.05215439856373429 0.06023339317773788 0.05484739676840216 0.04497307001795332 0.002782764811490126 8.976660682226212e-05 8.976660682226212e-05 0.008168761220825852 0.2891382405745063 0.4875224416517056 0.05215439856373429 0.06023339317773788 0.05484739676840216 0.04497307001795332 0.002782764811490126 8.976660682226212e-05 8.976660682226212e-05 0.008168761220825852 0.2891382405745063 0.4875224416517056 0.05215439856373429 0.06023339317773788 0.05484739676840216 0.04497307001795332 0.002782764811490126 8.976660682226212e-05 8.976660682226212e-05 0.008168761220825852 0.2891382405745063 0.4875224416517056 0.05215439856373429 0.06023339317773788 0.05484739676840216 0.04497307001795332 0.002782764811490126 8.976660682226212e-05 8.976660682226212e-05 0.008168761220825852 0.2891382405745063 